ConceptName,1,2,3,4,5,6,7,8,9,10,11,12,13,14,15,16,17,18,19,20,21,22,23,24,25,26,27,28,29,30,31,32,33,34,35,36,37,38,39,40,41,42,43,44,45,46,47,48,49,50,51,52,53,54,55,56,57,58,59,60,61,62,63,64,65,66,67,68,69,70,71,72,73,74,75,76,77,78,79,80,81,82,83,84,85,86,87,88,89,90,91,92,93,94,95,96,97,98,99,100,101,102,103,104,105,106,107,108,109,110,111,112,113,114,115,116,117,118,119,120,121,122,123,124,125,126,127,128,129,130,131,132,133,134,135,136,137,138,139,140,141,142,143,144,145,146,147,148,149,150,151,152,153,154,155,156,157,158,159,160,161,162,163,164,165,166,167,168,169,170,171,172,173,174,175,176,177,178,179,180,181,182,183,184,185,186,187,188,189,190,191,192,193,194,195,196,197,198,199,200,201,202,203,204,205,206,207,208,209,210,211,212,213,214,215,216,217,218,219,220,221,222,223,224,225,226,227,228,229,230,231,232,233,234,235,236,237,238,239,240,241,242,243,244,245,246,247,248,249,250,251,252,253,254,255,256,257,258,259,260,261,262,263,264,265,266,267,268,269,270,271,272,273,274,275,276,277,278,279,280,281,282,283,284,285,286,287,288,289,290,291,292,293,294,295,296,297,298,299,300
state,0.046568,0.013516,-0.32149,-0.072733,-0.12305,-0.35228,0.46864,0.006304,0.37292,-1.5677,-0.66699,0.016025,-0.83454,-0.2534,0.44985,0.5916,-0.32026,0.0092858,0.18464,-0.40246,0.96028,0.029726,0.81973,0.9121,-0.22896,-0.59506,0.29889,0.21473,-0.39975,-0.10411,0.66194,0.049306,-0.28958,0.28262,-0.6128,0.13015,0.19859,0.34502,-0.31055,-0.57473,-0.2908,-0.27647,-0.48543,0.4339,-0.16105,-0.70275,0.19976,0.62284,-0.10208,-0.097795,-0.16866,0.18123,0.10858,-0.24304,-0.10888,-0.182,0.19056,0.27542,0.14864,-0.12397,0.13018,-0.060099,0.052137,-0.29919,0.041784,-1.0726,0.10842,-0.13983,0.28395,0.038804,0.13316,0.26569,-0.0097509,-0.44763,-0.37089,0.19164,0.049363,0.46599,0.19659,0.53921,0.26938,-0.16633,-0.04507,0.19049,0.82051,0.26164,-0.43224,-0.0099225,0.72493,0.50311,-0.35029,0.5531,-0.036235,-0.23849,-0.5557,-0.34663,-0.037201,0.087597,-0.37082,0.1044,0.38093,0.0005877,0.56037,-0.15333,-0.14909,0.36947,-0.22723,0.34526,-0.11434,0.018957,-0.007633,-0.62473,0.03243,0.21301,0.25746,0.10137,0.38369,0.033059,0.92314,0.22671,0.35886,0.58802,-0.37493,-0.48946,0.19665,-0.19216,-0.11359,-0.40364,-0.72508,0.30979,0.49952,0.36919,0.17231,-0.19001,0.11108,-0.009109,0.20606,0.66555,0.23204,0.55449,-0.25276,-0.27578,0.20947,-0.012113,-0.83153,-0.2466,0.448,-0.34827,0.36524,0.28806,1.6718,-0.023478,-0.082373,0.16887,0.27322,-0.0065342,-0.20169,-0.24846,0.2613,0.16246,0.59718,0.12851,0.070951,-0.14326,0.032094,-0.31821,0.19714,-0.69622,-0.31225,0.38301,0.34919,-0.46956,-0.90718,0.49239,0.46336,-0.09401,0.1416,0.34001,0.46811,0.37388,0.61274,0.36648,0.011366,-0.15522,-0.32656,-0.1939,-0.46833,-0.20939,0.18643,-0.052075,0.24836,-0.090744,-0.88186,-0.32427,0.32769,0.26629,0.90126,-0.26114,0.37912,0.22606,0.8781,0.48475,0.015162,-0.43465,0.003597,-0.82096,-0.49257,0.28193,0.7286,-0.18641,-0.19725,0.86137,0.055894,-0.010783,0.3382,0.187,-0.22651,0.087709,0.26847,0.22175,-0.41437,0.044947,0.19891,0.11565,0.36629,-0.082796,0.1552,-0.37553,-0.14259,-0.1189,0.156,-0.50545,0.61141,-0.17739,-0.52507,-0.0024999,-0.19667,0.057151,0.25704,-0.30697,-0.27936,0.16235,0.57,0.14838,-0.6427,0.60094,0.62917,0.10117,-0.15045,-0.24383,-0.032975,-0.044227,0.12188,-0.090658,0.59987,-0.33182,-0.35635,0.78616,-0.10104,0.1174,0.14284,-0.23423,0.37715,-0.36688,0.2084,-0.66046,0.017713,0.40167,-0.018395,0.15052,0.1829,-0.0078369,-0.4649,0.30354,0.2046,-0.089453,-2.1878,0.22046,0.49954,0.12062,0.076897,-0.99688,0.04934,-0.3295,0.023907,0.016514,-0.4441,0.35075,0.19074,-0.13254,0.45792,-0.7612,0.45617,0.18246,0.43361,0.29948,-0.26285,-0.65523,0.012749,0.75884
city,-0.28657,-0.25597,-0.17669,-0.46088,0.317,0.064304,0.52454,0.18383,0.062906,-0.93124,0.23272,-0.16004,0.069447,0.90795,0.73368,0.40592,-0.10002,0.07107,0.43055,-0.013252,-0.37427,-0.30007,0.15565,0.16304,0.053763,-0.44352,-0.30543,0.012331,-0.63027,0.074935,0.20354,0.19314,-0.74728,0.5631,-0.76121,-0.072721,-0.078425,-0.070893,-0.75753,-0.37812,0.28302,0.29649,-0.28665,0.796,0.32265,0.18991,0.50752,0.64971,-0.33452,0.66178,0.24073,-0.028376,-0.019101,0.20698,0.22766,-0.17351,-0.21007,0.16025,0.013241,0.023294,-0.93322,-0.24831,0.33513,-0.30117,0.24962,0.26296,0.085639,0.33565,0.2886,-0.53817,0.61879,-0.38381,0.050317,-0.26699,-0.39905,0.53416,-0.35775,0.79133,0.51253,-0.088401,-0.42185,-0.26924,0.056767,0.17535,-0.11596,-0.15487,-0.18443,0.013699,0.65933,0.86019,0.14774,0.2236,0.67001,-0.13347,-0.042613,0.3182,0.047629,0.2162,0.35402,-0.1964,0.13411,0.1804,-0.35455,-0.095503,0.037513,0.23815,0.84648,0.073411,0.020256,0.15228,0.10236,-0.64007,-0.03209,-0.30111,0.27308,-0.017981,0.16007,-0.39209,0.025596,-0.18904,0.025195,-0.075242,-0.010816,0.15932,-0.049518,-0.088139,0.065475,0.020599,-0.065758,-0.16035,0.39933,0.22775,0.20956,0.39826,0.40835,-0.1036,-0.32605,-0.25023,0.57407,0.074991,-0.38759,-0.08109,-0.40343,0.38626,-0.10184,-0.19685,0.5928,-0.16545,-0.68655,0.18639,1.1777,-0.064025,0.32503,0.22213,0.62068,0.38449,-0.20991,-0.17567,-0.1884,-0.021688,0.63995,0.19934,0.08157,-0.34806,-0.25447,-0.58554,0.3699,-0.086039,0.23028,0.22636,-0.35269,-0.25407,-0.58891,0.19767,0.57243,0.64606,0.033082,-0.33964,-0.51523,0.44029,-0.76478,0.422,-0.59836,0.41935,0.52698,0.03686,-0.38921,-0.33881,0.13258,-0.017273,0.51632,0.047375,-0.17095,0.067344,0.06772,-0.12745,0.039087,-0.33334,-0.20741,0.69557,0.80887,-0.35164,0.41539,-0.048455,-0.41399,-0.33141,0.45662,-0.13149,0.43816,0.014391,-0.72106,0.12109,-0.29333,-0.24395,0.53472,0.31927,-0.21229,0.064088,-0.091685,-0.023769,0.40531,-0.080093,0.19556,0.20375,0.087877,-0.21453,0.60566,-0.57824,-0.15274,-0.35719,0.21558,0.34891,-0.095101,-0.48474,0.12692,0.35057,0.21383,-0.099534,0.029399,0.19956,-0.026928,-0.62526,0.54837,0.46811,-0.71992,0.416,-0.17725,-0.40055,0.35987,-0.056537,0.26459,-0.25755,0.30527,0.28266,0.28799,-0.1106,-0.36371,-0.58022,0.11267,-0.29631,-0.02371,0.23683,0.50093,0.14777,0.0462,-0.32316,-0.094494,0.0080193,-0.39112,-0.135,-0.15205,0.017305,0.16185,0.24032,-0.081876,-0.16558,-2.197,0.20448,0.26173,0.41236,-0.2986,0.1402,-0.16569,0.027927,-0.67993,0.78325,-0.024014,0.64388,0.25133,-0.38615,0.17025,-0.10581,-0.23546,0.31477,0.68705,0.29326,0.39203,-0.46543,-0.58546,0.17404
day,-0.24501,-0.12491,-0.2536,0.33819,-0.10528,0.17239,-0.24134,0.14848,-0.020182,-1.3848,0.31645,0.034334,-0.1842,0.1491,-0.089714,-0.094922,0.2393,-0.045581,-0.42978,-0.1337,-0.10194,-0.27081,0.014754,-0.052341,0.41858,-0.40219,0.1805,-0.078451,0.029607,-0.17606,0.22696,0.20873,-0.13787,0.37559,-1.4496,0.050912,0.11853,0.023446,-0.39657,-0.022475,-0.20252,0.065408,0.079219,0.074154,0.13425,-0.10429,0.34589,0.21272,-0.28454,-0.15088,-0.2041,-0.3168,-0.10629,0.18745,-0.14599,0.59753,-0.013556,0.46395,0.30307,-0.11303,0.22118,-0.36687,0.30545,-0.19835,-0.22105,-0.50803,-0.045341,0.0060273,-0.31564,-0.079251,-0.25863,0.057227,-0.14742,-0.15568,0.093014,-0.2816,0.047521,0.29746,-0.25794,-0.23693,-0.11127,-0.076524,0.14787,0.76944,-0.14325,0.096863,-0.29036,0.13359,0.39336,0.46127,-0.080197,-0.25843,-0.35352,-0.23337,-0.34055,0.037516,-0.21631,0.03656,-0.37644,0.0064905,0.15856,0.25502,-0.049407,-0.18215,0.22928,-0.26326,0.6009,0.097174,-0.35123,0.040334,-0.31842,0.25682,-0.3406,0.21926,0.19693,0.044727,0.27964,0.034217,0.22449,-0.43456,-0.39541,-0.30436,-0.56902,0.26914,0.25996,0.14427,0.058777,-0.16984,0.3045,0.33707,-0.035912,0.46449,0.040021,-0.39843,-0.03911,-0.075097,-0.049389,0.065275,0.33761,0.081059,0.16749,0.021644,0.17084,-0.094797,-0.8189,-0.025721,0.27001,0.13222,0.061824,0.37524,0.51812,0.14935,0.014664,0.27139,0.63546,-0.22938,-0.20434,-0.19828,0.30237,-0.035263,-0.029537,-0.2956,-0.091833,-0.075234,-0.18316,0.52938,0.27423,0.22305,0.041535,0.092442,-0.25414,0.15716,-0.45811,0.12563,0.054765,0.0062019,0.050822,-0.020336,-0.3008,0.8228,0.10914,0.67836,0.050778,-0.10116,0.029866,0.64938,0.052901,-0.055176,-0.19621,0.050372,-0.11103,-0.13513,-0.1407,-0.20776,-0.12468,-0.037458,0.2033,-0.19477,0.046595,-0.31376,1.0199,-0.12807,-0.0022477,0.053575,0.20671,0.31664,-0.41841,-0.018153,-0.020048,-0.17783,-0.33425,0.025476,0.0094035,-0.1076,-0.2928,-0.077256,0.093974,0.1323,0.42243,0.14769,0.72965,0.26165,-0.78298,0.62523,0.097776,-0.24584,0.29077,-0.31219,0.040455,0.1389,0.32039,-0.31082,0.066324,-0.51774,0.7425,0.12129,0.12371,-0.14056,0.25246,-0.075063,-0.053886,-0.14002,-0.12009,0.17649,-0.17915,-0.2616,0.15656,0.1197,0.25722,-0.28692,0.18818,-0.19131,0.18348,-0.073757,0.045892,0.10134,0.29139,-0.52174,0.12474,0.070981,0.10707,0.22787,0.41307,-0.20297,0.038853,0.11475,-0.040507,-0.39236,0.54228,0.2258,-0.24978,0.086668,0.37089,0.15401,0.024346,0.091258,-2.2976,-0.24026,0.33116,0.30743,-0.43657,-0.45926,0.24748,-0.12095,-0.083282,0.074816,-0.062805,-0.058349,-0.38951,-0.021843,-0.055235,-0.21515,-0.38225,0.15841,0.023086,0.2193,0.055693,-0.41073,-0.61926,0.0039007
country,0.0043843,-0.025204,0.24457,0.15636,-0.16612,0.38273,-0.0057538,0.63225,-0.0081837,-2.0633,0.24785,-0.22493,-0.37466,0.24094,0.11159,-0.060019,-0.084873,-0.069394,0.29907,-0.30498,0.23775,0.57641,0.39808,0.31066,-0.69552,0.022456,-0.029888,0.26687,-0.34328,0.31469,-0.5743,0.59021,-0.020464,0.22012,-0.53866,0.049449,-0.1799,-0.37771,-0.2487,-0.24351,-0.39014,-0.54413,0.047892,0.21124,0.18495,-0.057203,0.1623,0.21573,-0.33713,-0.075721,-0.19242,-0.20075,0.40687,-0.054801,0.2344,0.2182,0.1746,0.42216,0.087736,-0.25533,-0.081484,0.37639,-0.12781,0.17246,-0.27405,-8.54E-05,0.22928,0.50541,-0.046786,0.16448,-0.16192,0.19686,-0.27623,-0.033123,0.51035,0.00099744,0.087448,0.17374,-0.40402,-0.061424,-0.0028953,0.00082148,-0.10743,0.23221,0.39802,0.025445,-0.47455,-0.15775,-0.084268,0.032741,-0.12251,-0.0057936,-0.18037,-0.19573,0.025876,-0.23799,0.2901,0.11031,0.23283,0.54223,0.059637,0.074067,-0.077989,-0.13965,-0.66557,0.22006,0.37022,0.060646,-0.24514,0.27427,0.3202,-0.60171,-0.24835,-0.12014,0.29848,-0.19187,0.24672,-0.0075807,0.45783,-0.056976,0.09872,0.058893,0.19136,0.0021524,0.17619,0.42559,-0.1375,0.30833,-0.25082,0.54966,0.1368,-0.073785,0.14987,-0.087701,-0.077798,-0.28155,-0.17389,0.30179,-0.021318,0.26474,-0.20454,0.010367,0.012012,0.25526,-0.38582,-0.2649,0.2794,-0.3024,-0.353,0.33125,0.49765,-0.07223,-0.031428,0.15748,0.7112,0.34921,-0.53336,0.29723,0.34962,0.099534,0.31887,-0.22662,0.018088,0.21577,-0.25777,-0.33377,0.088445,-0.36398,-0.042146,-0.47183,0.21527,0.45394,-0.47709,-0.19115,0.40111,0.0051781,0.21326,0.34228,-0.31446,1.072,-0.27245,0.0053445,0.11427,-0.043003,0.082787,0.23613,0.066277,-0.24216,-0.62463,0.18858,-0.64338,-0.0078977,0.066939,-0.19814,0.44506,0.39625,0.26251,-0.50204,0.3068,0.23395,1.2224,0.071318,0.13719,-0.059778,-0.015817,-0.20081,0.43327,0.51352,0.008382,0.25703,-0.032822,-0.28175,0.17049,0.20866,0.30531,0.482,-0.010828,0.020582,0.10838,0.65443,0.21021,-0.25844,0.0059972,-0.3105,0.14055,-0.19746,0.00013733,-0.10778,-0.086233,0.1489,0.038251,-0.42413,-0.20862,-0.0036088,0.26658,0.062262,0.085896,0.044625,0.43947,-0.26666,-0.10072,0.2504,0.53685,0.039836,-0.22337,-0.04886,0.20033,0.4011,0.0029844,0.10084,0.11452,0.079122,0.13595,-0.36265,0.7777,-0.028732,0.034809,-0.14517,0.10466,0.0070137,0.32035,0.066845,0.087146,-0.24778,-0.082417,0.17686,0.19158,-0.08353,0.42193,-0.38198,-0.42681,0.31604,0.071224,0.45354,0.40125,-0.22339,-2.2722,-0.068076,0.78275,-0.15186,-0.21418,-0.49432,-0.5038,0.10487,-0.084473,-0.131,-0.40526,0.14621,-0.22461,-0.23365,0.21333,-0.37483,0.15935,0.18315,-0.0097791,1.0034,0.22098,-0.3906,-0.55769,0.14698
company,0.021777,0.14174,-0.035402,-0.22559,-0.27277,-0.6968,-0.12822,0.32432,-0.082079,-1.9854,-0.16719,-0.16502,0.2303,-0.014661,0.17462,0.20317,-0.12123,0.091494,0.19319,-0.49757,0.45666,0.24401,0.5755,0.43711,-0.37477,-0.092383,-0.062204,0.093119,-0.2419,0.60079,-0.27063,0.24568,0.2036,0.033548,-0.93104,-0.18613,-0.20579,-0.015581,0.47445,-0.43674,-0.41794,0.19483,0.035097,1.1807,-0.11159,-0.37596,0.16988,-0.34118,0.46372,0.15705,0.30037,-0.01084,0.29058,0.69111,0.0778,0.37789,0.44093,0.83811,-0.15174,-0.315,0.23876,0.12115,0.5041,-0.66188,0.31431,0.11815,-0.66484,-0.072003,-0.39512,-0.12897,0.17698,0.42783,0.42592,0.47583,-0.44884,-0.12671,-0.15092,0.014154,-0.13021,-0.013198,-0.81233,0.33944,-0.0064222,0.051232,0.92983,0.1572,-0.030486,-0.21358,-0.13578,0.25736,-0.023773,0.33292,0.27863,0.53139,0.24568,0.20692,-0.54695,0.13434,0.26793,-0.96274,-0.095644,0.19767,-0.35789,-0.49565,0.15346,0.072628,-0.15845,-0.07208,-0.27044,0.17681,0.38413,-0.52821,-0.31872,0.079261,0.051556,-0.050954,-0.0097165,0.044597,0.33148,0.43467,-0.16016,-0.053304,0.54785,-0.51088,-0.047504,-0.37536,0.21227,0.24732,-0.44132,0.058198,0.48704,0.51961,-0.1687,-0.13469,-0.0023078,0.54113,0.14195,-0.090412,0.23023,-0.26673,-0.027308,-0.45743,0.47634,0.078791,-0.015838,0.30698,0.16251,0.096965,-0.15358,-0.33513,0.69636,0.13577,0.59871,-0.7768,0.045598,0.0047974,0.08926,-0.20324,-0.2774,-0.3371,0.1517,-0.23636,-0.16592,-0.033368,-0.12826,0.1533,0.12173,0.6872,-0.24398,1.1514,0.090696,0.16256,-1.0032,0.20453,0.010937,0.31998,0.12964,-0.26979,0.11809,0.74829,0.036204,0.33106,0.06526,0.078803,0.0027622,-0.14163,-0.43054,0.049581,0.05943,-0.29469,-0.0081814,0.25182,-0.29458,-0.022622,-0.0033897,-0.089891,-0.19492,-0.095818,-0.16334,-0.03368,0.66265,0.10559,-0.09684,-0.15767,0.11908,0.35124,-0.15366,0.24327,-0.11785,-0.8031,-0.20423,0.10265,-0.13275,-0.30277,0.27485,0.36985,0.24935,0.19476,-0.26678,0.16774,0.14359,0.24307,-0.25368,0.33661,0.042331,0.022275,-0.28434,-0.30019,0.06652,0.046683,-0.12126,0.27864,-0.30005,0.35346,0.43365,-0.053185,0.26207,0.073074,-0.53433,-0.15611,0.088124,-0.66591,0.41022,-0.35304,-0.82714,-0.22086,0.19696,-0.87441,0.16586,0.17289,0.061266,0.33943,-0.21209,0.21549,0.78741,-0.26661,-0.6265,0.37784,0.53304,-0.24343,0.052506,-0.19537,-0.38926,-0.28973,0.36098,0.50125,0.14483,-0.15432,0.050226,0.11552,0.061835,-0.16739,0.031698,0.052244,0.53455,-0.1946,-1.1982,-0.53867,-0.14562,0.26587,-0.43415,-0.16218,-0.29622,0.039533,0.27992,0.076975,0.49938,0.33456,-0.12479,0.10804,0.37017,0.18724,-0.010215,-0.19415,0.042579,0.74334,-0.01082,-0.28282,-0.0385,-0.060507
team,-0.027011,1.1299,0.044708,-0.4038,-0.047284,0.092736,-0.20715,0.26137,0.2473,-0.88769,0.31309,-0.1494,0.0049929,-0.1152,-0.1799,0.64681,0.15044,-0.3458,0.002337,-0.75788,0.16048,-0.029066,0.17194,-0.042799,0.034297,-0.114,-0.21149,0.36118,-0.33393,-0.13581,0.17858,-0.23381,-0.083367,0.10626,-1.7301,0.52052,0.37855,0.55852,-0.10172,-0.18644,-0.12096,-0.052009,0.19565,-0.12685,-0.37493,0.097457,0.17014,0.077521,-0.21946,0.1449,0.12733,-0.22223,-0.31548,0.11137,-0.40263,0.83553,-0.0075475,0.36725,0.012324,-0.10033,-0.60014,0.42763,-0.24048,-0.28162,0.046409,-0.37942,-0.080836,-0.32884,-0.093836,-0.86769,-0.084826,0.47311,-0.27073,0.2099,-0.75609,0.11649,0.45235,-0.26045,0.052206,0.34906,-0.059366,0.39424,-0.066567,-0.12907,-0.21789,0.051554,-0.14604,-0.056169,0.31792,0.19815,0.17534,0.96423,0.48888,-0.5689,0.21305,-0.088585,-0.53623,-0.29281,-0.11353,-0.72363,0.070515,0.1051,-0.017852,0.071786,0.41699,-0.08232,0.56089,0.054537,0.11426,0.42515,0.23246,-0.059402,-0.27655,-0.33986,0.15653,0.20869,-0.29121,-0.29412,-0.057475,-0.18747,0.16045,0.10385,0.51178,0.1284,-0.33281,0.26939,-0.35175,0.62651,0.29008,0.37304,0.040544,-0.36665,-0.10528,-0.66002,-0.066317,0.50627,0.20558,-0.018909,-0.56063,-0.32331,-0.35732,-0.12919,0.15296,-0.071057,0.099959,0.06083,0.4022,-0.14335,-0.46526,-0.078211,0.56127,-0.48189,0.055877,0.060063,0.77121,-0.52509,-0.37105,0.16058,-0.35978,0.18269,-0.21774,-0.73613,-0.29084,-0.044551,0.38114,-0.14108,-0.18333,0.37169,-0.1973,-0.22467,0.3162,0.081412,-0.80367,-0.22259,-0.24526,0.48726,0.15435,-0.034813,0.23038,0.52597,0.056235,0.24087,0.092098,0.029834,-0.1229,-0.56653,-0.85997,-0.038629,-0.3526,-0.30995,0.14549,0.00081988,0.085296,-0.15438,0.19446,0.045667,0.37399,0.62339,0.24329,0.27512,1.7586,0.034216,-0.16764,0.13634,0.10513,-0.32869,0.22288,0.11257,-0.014878,-0.029367,0.10413,0.27607,-0.46038,0.051864,0.16174,-0.27844,-0.091567,-0.045173,-0.082913,-0.33233,0.1087,-0.39585,-0.332,-0.1279,0.54628,-0.40196,-0.0064199,0.24775,-0.84103,-0.034053,0.12032,-0.041636,0.51895,-0.26675,-0.18235,-0.0041976,-0.20791,0.11761,0.37804,0.77061,0.5143,0.38859,0.66335,0.19845,-0.090171,-0.079311,0.12066,-0.025846,-0.043176,0.10805,0.49527,0.0039891,-0.11265,0.14894,0.53257,-0.31347,0.40668,-0.040542,-0.16759,0.42687,-0.20221,-0.62603,0.056268,0.20112,0.12048,0.49785,-0.52186,-0.18035,-0.49756,-0.3115,-0.3885,-0.27542,0.051444,0.013145,0.60204,0.099091,-1.6328,-0.36475,0.34421,0.66319,-0.035724,0.083642,0.080001,0.68445,0.55394,0.09943,-0.13024,-0.077788,0.23433,-0.72924,-0.11271,-0.055649,-0.74247,0.13555,0.30328,-0.10663,0.18475,-0.81355,-0.051386,-0.30962
party,-0.073121,-0.2013,0.31239,-0.22547,-0.14715,-0.61114,0.29113,0.37052,-0.045125,-1.3299,-0.20107,-0.62037,0.11437,0.20432,0.43803,-0.092405,0.25963,0.14286,-0.075432,0.42495,0.59371,0.33,0.91025,0.019294,-0.39955,-0.46061,0.34301,0.25174,-0.015512,-0.07727,-0.17896,0.0056566,0.48708,0.33629,-1.3381,0.36472,0.78245,0.24738,-0.0084877,-0.20326,-0.030494,0.471,0.48044,-0.32092,-0.44473,-0.19466,0.53181,-0.30865,-0.23779,0.052479,-0.32942,-0.57689,0.021959,-0.33089,0.3761,-0.21566,0.20529,-0.11328,-0.21714,0.3631,0.61329,0.26919,-0.35334,0.4903,-0.084839,-1.1685,0.73027,-0.11125,-0.27547,0.15614,-0.10788,-0.15967,0.31524,-0.14371,-0.021831,-0.53666,0.34124,0.24032,-0.20014,0.31855,-0.46779,0.38912,0.58021,0.17958,0.37583,-0.36304,-0.45438,0.38102,-0.26732,-0.086952,-0.1276,0.013731,-0.51671,0.028667,0.27154,-0.079405,0.49119,0.132,0.098059,-0.26346,-0.067718,0.3917,0.12011,-0.076717,-0.046582,0.14058,-0.12062,0.21963,0.12789,-0.068881,0.45265,-0.33611,0.09478,0.1932,0.39229,-0.28736,-0.50711,0.15201,-0.015642,-1.0125,0.016092,0.23601,-0.030754,0.089047,0.52582,-0.27337,0.47285,0.67979,0.037876,-0.14793,-0.94231,-0.27108,-0.12091,-0.53242,0.68118,0.69239,0.076205,-0.1535,0.66522,0.23823,-0.87912,0.3877,-0.55256,0.54986,0.011128,0.47326,0.41639,0.69776,-0.06177,-0.099945,1.2354,0.79912,0.068711,0.047687,0.19455,0.27939,0.33182,1.0014,0.1934,0.33761,-0.42223,0.7582,-0.22982,0.22831,0.03136,0.10438,-0.64159,-0.40632,-0.14038,0.21534,-0.14073,-0.2273,-0.77505,-0.16208,0.28915,-0.012854,0.60036,0.25932,-0.40212,0.78681,0.65717,0.61158,0.68345,0.34613,-0.0029238,0.31281,-0.41381,0.15554,-0.012467,-0.097409,-0.050418,-0.25444,-0.73243,0.099204,-0.13954,0.75315,0.1206,0.35847,-0.31521,0.37689,0.91146,-0.0011776,0.13828,0.24609,-0.28054,-0.40137,0.91449,0.47774,0.63175,0.83701,-0.42817,-0.078891,0.40894,0.19228,-0.29119,-0.018642,-0.080948,0.10266,0.48378,0.68842,0.18858,0.094588,-0.42111,-0.027439,-0.3412,-0.56194,-0.062545,-0.57594,0.10411,0.099063,0.055255,-0.65694,0.20432,0.37575,0.59076,-0.25942,-0.10725,-0.36917,0.81574,-0.4742,0.33221,0.10234,0.29664,0.19127,-0.45946,0.62272,0.68007,0.33903,-0.1626,0.13155,-0.090203,-0.52899,-0.51739,-0.18082,0.21391,-0.18331,-0.36898,-0.10099,-0.19629,0.18251,-0.47826,-0.4189,0.51238,0.094138,-0.53353,-0.2356,0.035927,0.44639,0.33265,0.34032,-0.45359,-0.41044,-0.052244,0.038785,-0.068138,0.31259,-1.8002,-0.13245,0.98014,0.23034,0.50051,-0.15756,-0.36433,-0.22309,-0.091886,0.40761,-0.058093,1.1856,-0.09176,0.13109,-0.52105,-0.16396,0.63303,-0.12111,-0.36059,0.67876,0.063121,-0.73255,-0.27772,-0.1194
house,-0.3707,-0.081209,-0.44626,0.097395,0.19829,-0.041232,0.21189,0.22369,-0.59915,-1.3556,-0.0037264,-0.55059,0.021565,0.010682,0.046047,0.47083,-0.1926,0.093603,0.1981,0.18292,0.23985,0.44817,0.25241,0.31304,-0.31769,0.037594,-0.087822,-0.069569,-0.019033,0.25181,0.5275,0.10401,-0.56956,0.6812,-0.68936,0.84081,0.041774,-0.44636,-0.30759,-0.28145,0.63517,0.50412,-0.33981,0.69191,-0.15074,0.16806,-0.34202,-0.44845,0.05983,0.12643,-0.23143,-0.092232,-0.09083,0.21642,0.6258,-0.32599,-0.52104,0.34727,-0.084967,-0.19764,0.44523,-0.44723,0.43726,0.26063,0.65426,-1.4532,0.32055,-0.37515,-0.22897,-0.70069,-0.17774,-0.017622,-0.24697,-0.23957,-0.49052,0.12087,-0.2429,0.29234,-0.33522,-0.010882,0.27623,0.54262,0.52236,0.056655,0.52314,0.014538,-0.36859,0.81357,-0.1775,-0.39279,-0.039007,-0.65053,-0.08419,0.48218,0.13496,-0.3684,-0.33189,0.16661,0.24203,-0.47509,-0.19021,0.2973,-0.13515,0.06829,0.13022,-0.25433,-0.20241,-0.37991,0.045893,0.21822,-0.18372,-0.14905,-0.45656,0.32638,-0.19266,0.66751,-0.67219,-0.12583,-0.162,-0.71833,0.053339,-0.0014876,-0.4047,-0.33921,0.15458,-0.42247,-0.35562,-0.10342,0.52553,-0.1608,-0.11344,0.25396,-0.13414,-0.079257,0.085449,0.39976,0.068123,0.27333,0.0060912,-0.32324,0.0047775,0.09818,-0.28487,0.68029,-0.55691,-0.45762,0.14469,-0.20554,-0.35851,-0.1738,0.47364,0.66713,-0.10374,-0.41241,-0.14704,0.37532,0.06656,-0.016395,0.18663,-0.45032,0.53664,0.034286,-0.32192,-0.34616,-0.23818,0.44071,-0.47866,-0.29846,0.3907,0.24292,0.083032,-0.23303,-0.23099,0.3298,-0.078587,0.4725,-0.13126,-0.41329,0.40617,0.058252,-0.2031,-0.47055,0.19534,0.34303,0.037483,-0.10956,0.037812,0.32645,0.15158,0.43657,0.18512,-0.30563,-0.33832,-0.38744,-0.028475,0.58959,0.38654,0.20936,-0.39261,-0.38704,0.79892,0.033166,0.088456,0.043596,0.077751,-0.49635,0.15892,-0.20937,-0.31349,-0.17063,0.072219,0.0079027,-0.012119,0.069048,0.016229,0.44339,0.065505,-0.41656,0.46848,-0.065121,0.77513,-0.6679,-0.23965,-0.074675,-0.22267,0.044819,-0.08321,0.11063,-0.12898,-0.49515,-0.44467,-0.34624,0.20626,0.40265,0.67939,-0.38554,0.24813,0.38055,0.092046,0.15209,0.17443,0.47781,0.38682,0.48688,-0.43606,-0.10044,0.15226,0.21902,-0.12938,0.06255,-0.063539,-0.2816,-0.054557,-0.28297,0.713,-0.095042,-0.13725,-0.016963,0.76629,0.25013,0.035075,0.21473,-0.17035,-0.16235,-0.34632,0.10513,0.52095,0.22474,0.54825,0.056367,-0.12456,-0.35433,-0.10479,-0.2927,-0.18944,-0.018069,-2.3685,0.26033,0.51248,0.14435,-0.40233,-0.019898,0.085,-0.022858,0.051306,0.53513,0.084923,0.79667,0.086744,-0.35761,-0.39222,-0.1203,0.37379,0.10174,-0.074873,-0.0099385,-0.28702,0.030515,-0.33168,1.0232
family,-0.38547,0.59784,0.16526,-0.28517,0.31898,0.031658,-0.2883,0.13838,0.13682,-1.1903,-0.31659,0.0055301,-0.040182,0.20657,-0.14128,-0.20489,0.16628,-0.24678,0.086401,-0.18079,0.12424,0.60942,0.1556,-0.067634,0.069112,-0.034646,-0.35411,0.22672,-0.54891,0.12734,-0.293,1.2004,-0.39093,0.55802,-0.06371,0.063638,0.76045,0.028021,-0.44564,-0.094413,0.52142,0.008857,0.61373,-0.052555,0.2569,0.15068,0.44932,0.26374,0.54217,-0.044668,-0.097823,-0.041158,0.021608,-0.3443,-0.33017,-0.14319,0.059667,0.46076,0.10029,-0.38196,0.21073,-0.017586,0.68862,0.32409,0.35518,-0.75231,-0.38966,0.34412,-0.020109,-0.25096,-0.2252,-0.24993,-0.32423,0.55378,-0.27358,0.048038,-0.2386,-0.45261,-0.020085,0.4449,-0.075776,0.142,0.11744,-0.262,0.011787,0.52018,0.58019,-0.71638,-0.3473,0.10684,-0.16374,-0.15374,-0.13611,0.10167,0.09382,-0.24373,0.2659,0.12224,-0.069274,-0.35135,0.33027,0.22082,0.25414,0.3269,-0.037124,-0.084607,0.6573,-0.44322,0.17812,0.24133,-0.070096,0.24502,0.20425,-0.029565,0.10009,0.14021,-0.014656,-0.51177,0.19387,-0.14084,-0.059028,-0.099011,0.1171,-0.13023,0.065185,0.18572,0.44015,0.18893,0.49383,0.29768,0.31983,-0.077964,0.15048,0.033189,0.42812,-0.024875,0.33386,-0.25152,-0.47145,-0.058251,-0.15072,0.24162,0.10976,-0.029981,0.036009,0.099228,-0.3747,-0.2907,-0.21389,0.841,-0.10997,0.098696,-0.3035,0.20822,-0.24136,0.30894,0.27996,0.17178,0.32113,-0.12707,0.39318,-0.15881,-0.038854,0.0027483,0.014481,0.28007,-0.21622,0.062828,0.11666,0.1896,-0.30567,-0.54479,-1.2975,0.50527,-0.59077,0.4531,0.27587,-0.38993,0.50792,0.68605,-0.22338,0.15784,0.17676,0.48952,-0.24218,0.072776,-0.58731,0.37998,-0.007219,0.12937,-0.030071,-0.34098,-0.76239,0.305,-0.68009,0.09641,0.37877,-0.20475,-0.031806,-0.77643,0.84914,-0.079445,0.019449,0.13557,0.72502,0.17809,0.060506,-0.6423,-0.40524,-0.27239,-0.7378,-0.15269,-0.0017754,0.10133,0.48395,0.26654,0.070148,-0.45411,0.56906,0.35099,0.18781,-0.088276,-0.14076,0.026937,-0.2804,0.53628,0.16137,0.061118,0.13631,-0.30823,-0.71621,-0.22705,-0.20484,0.29689,0.40417,0.0036408,0.31836,0.10587,-0.49736,0.37403,0.11351,-0.039684,0.4845,0.59535,-0.71011,-0.17949,0.45366,-0.036732,0.0074817,-0.20936,-0.071845,0.58804,0.046464,0.17485,1.3822,0.29811,-0.049154,0.095549,0.73571,0.23017,-0.22266,-0.031001,0.18438,-0.13084,-0.22709,0.40848,0.18166,-0.03773,0.15455,0.41327,-0.9388,-0.17837,0.20456,-0.38408,0.4114,-0.3958,-2.258,0.10287,0.62895,0.27046,-0.30178,0.29344,-0.056158,-0.48333,-0.66095,0.34325,0.4811,0.76168,0.72088,0.20474,0.58351,0.048752,0.27583,-0.36251,-0.36439,-0.34335,0.22106,-0.086531,-0.056691,0.54037
life,-0.024822,-0.29776,-0.060229,0.039525,0.13413,-0.096184,-0.38584,-0.54961,-0.062817,-1.8214,0.39562,-0.33809,-0.11918,0.020735,-0.25394,-0.46648,0.33646,0.088628,-0.3006,0.2277,0.0085318,0.73689,-0.0016885,0.51768,0.20813,-0.16449,0.13262,-0.014074,-0.15649,0.38932,-0.0016835,0.89712,-0.40919,-0.14001,-0.47357,0.37032,0.085212,-0.18134,-0.084587,-0.10643,0.40891,-0.37302,-0.19214,-0.23289,0.16387,-0.0084336,0.056154,0.76983,0.05119,0.076763,-0.32972,0.090712,0.23966,0.14636,0.13099,0.10438,0.28683,0.051015,0.28273,-0.42733,0.25711,-0.096127,0.46593,-0.22626,0.12047,-0.10039,-0.13976,0.0178,0.087813,-0.096296,0.088527,-0.39492,-0.059289,0.47939,0.18644,0.36381,-0.26816,-0.042931,-0.3329,0.063847,-0.049535,0.15045,0.079372,0.45697,-0.48044,0.077371,0.37922,0.29798,-0.17952,0.38222,-0.38546,-0.1498,-0.2997,0.074077,-0.03108,0.0041334,0.12209,0.051104,0.10362,-0.87417,0.097763,0.58275,0.019591,0.32962,0.063222,0.21825,0.5236,-0.14255,0.14037,0.0064463,-0.4337,-0.060941,0.27056,-0.44471,0.38529,0.46096,0.46109,-0.14727,0.098707,-0.018529,-0.2891,0.144,0.096427,0.50338,0.00082643,-0.38095,0.098032,-0.0018401,-0.27964,0.37048,0.23525,-0.10075,0.079492,-0.17097,0.24223,-0.53691,-0.12258,-0.23296,-0.30153,0.3486,0.18997,0.30793,0.25494,0.79209,-0.10122,-0.21784,-0.11952,0.16844,-0.29252,0.21885,-0.27805,-0.68201,-0.063642,0.1311,0.44783,-0.14875,-0.15947,0.19952,0.40878,-0.26941,0.18461,-0.18493,0.25694,0.034841,-0.47863,0.16505,0.14608,-0.06108,-0.069806,0.2034,0.21232,-0.057076,-1.2414,0.38565,0.036981,0.0026084,0.22314,-0.13772,-0.0071702,0.55757,0.13853,0.13341,0.075362,0.17645,-0.17165,-0.033126,-0.010527,-0.041109,-0.1237,-0.063908,0.10593,-0.010894,-0.23471,-0.41605,-0.44512,0.047683,-0.056138,-0.19698,-0.026298,-0.11572,1.3506,0.038471,0.222,0.53531,0.25596,-0.087623,0.13122,0.13254,-0.29411,0.057519,-0.18824,-0.31947,-0.47484,-0.10953,0.39016,0.67629,0.093658,0.3189,0.35608,0.15627,-0.12927,0.42266,-0.38433,0.30401,0.080594,0.23876,0.0068034,-0.40054,0.41036,-0.0096369,-0.063919,-0.0034848,0.10717,-0.4769,-0.12883,0.17084,-0.047021,-0.10984,-0.25208,0.31416,-0.17289,-0.081249,0.28297,0.42709,-1.1463,-0.0064341,0.031812,0.10726,-0.32214,0.20892,-0.10019,-0.030702,0.61733,-0.14617,0.8786,0.2399,0.33901,-0.21574,0.46252,-0.21542,0.08741,-0.60555,0.14763,-0.35191,0.13818,0.43474,-0.19529,-0.10215,0.035733,0.40812,0.033932,0.37529,0.51894,0.34525,0.36249,0.16388,-1.7878,-0.34627,0.34347,-0.16499,-0.44255,0.0027366,-0.032776,-0.093153,-0.082704,0.30581,-0.24044,0.63194,0.13807,-0.18991,-0.19721,-0.088222,0.2781,-0.58105,0.12038,0.080661,0.053571,0.48295,-0.40196,0.012834
law,-0.18463,0.11656,-0.32977,0.56327,0.04476,0.1521,0.42945,0.45648,0.12148,-1.7103,0.039626,0.41826,-0.0044656,-0.02618,-0.29989,0.73766,-0.103,-0.14104,-0.089106,0.1824,0.22395,0.20887,0.37213,0.41232,-0.64664,0.97441,-0.22956,0.072517,-0.036904,-0.54672,0.17471,0.5123,0.0042781,0.62738,-0.92557,-0.30508,0.39001,-0.1386,0.016032,-0.08789,0.50747,-0.055548,0.055825,0.45024,-0.40004,-0.23166,-0.35934,0.68305,-0.27881,-0.054456,-0.28458,-0.12331,0.15379,0.32381,0.43156,-0.35304,-0.12945,-0.50057,0.019027,-0.13331,0.59696,0.38475,0.041097,0.38861,-0.72401,-0.56593,-0.24894,0.042243,0.30436,-0.19468,0.11176,-0.23354,-0.2804,0.10439,0.46366,0.46504,-0.089147,0.58401,-0.0059561,0.25037,0.55776,-0.4556,-0.030425,0.43393,0.38622,-0.087805,0.29654,0.022039,-0.20968,0.14393,-0.78985,0.071899,-0.095604,0.31748,-0.50601,0.048581,-0.30923,0.12881,-0.061849,-0.02437,0.29237,0.14342,-0.10485,0.18105,-0.55718,0.36356,0.11343,0.41834,0.038676,-0.1925,0.33632,-0.52422,-0.27657,-0.18236,0.49169,0.059331,0.18446,-0.15302,-0.10524,-0.24888,0.48553,0.9035,0.011222,-0.60599,-0.28312,-0.26414,0.36455,-0.015068,0.040926,0.5271,0.20285,-0.031995,0.19328,-0.40718,0.39883,-0.12561,0.2458,0.02291,-0.18029,-0.028098,0.47825,0.50192,-0.2567,-0.040283,-0.31268,-0.69137,0.050252,-0.10317,0.45517,0.43816,1.0579,-0.011088,0.10686,0.053845,-0.037847,0.1701,-0.15312,-0.50114,0.21957,-0.13995,0.44227,0.18679,-0.043893,0.2539,-0.54378,-0.51703,0.35069,-0.0027322,-0.17432,0.57607,0.63553,-0.11235,-0.43529,0.53673,-0.40491,-0.20113,0.20946,-0.13411,-0.0097987,0.030565,0.44126,0.30606,-0.46921,-0.12414,0.1139,0.049624,-0.84241,-0.13632,0.31509,-0.071807,-0.10454,-0.66142,-0.47229,0.22206,0.42722,-0.32445,-0.45254,-0.29089,-0.42493,-0.55975,0.093747,0.83916,0.009549,-0.34177,-0.23512,-0.38901,0.047051,0.17003,0.21131,-0.26366,0.12599,-0.15952,0.43222,0.20605,-0.21349,0.38384,-0.22398,0.58202,-0.24538,-0.12851,-0.32661,0.28392,0.17538,0.24489,-0.46767,0.063132,0.27161,-0.21616,0.23295,0.33684,0.38717,0.11193,0.51119,0.1658,-0.70377,-0.16341,0.02506,-0.38535,-0.20163,-0.17749,-0.11532,0.17905,0.869,-0.14315,-0.72176,0.62647,-0.48819,-0.029377,0.017405,-0.24554,-0.22948,-0.32002,-0.0073136,-0.18418,0.45828,0.0048512,-0.27306,0.054841,0.68222,0.22943,-0.30002,-0.28865,0.17085,0.098155,-0.054678,0.17312,-0.46647,0.016841,-0.55787,-0.1205,-0.18163,-0.050437,-0.22712,0.48709,-0.22706,-0.016891,-2.3394,0.18111,1.0619,1.0838,0.1348,-0.58733,-0.19385,-0.238,0.10982,0.15669,-0.029953,0.31542,0.38002,0.26167,0.31634,-0.15496,0.24229,0.021682,0.24722,-0.17594,0.24267,-0.60973,0.058381,0.83062
office,-0.36322,0.049952,-0.31563,-0.039297,0.10458,0.027566,-0.26305,-0.12784,-0.40336,-1.7768,-0.15068,0.28388,0.085887,-0.10529,0.0066189,0.30767,-0.16666,-0.080571,0.19874,0.30572,0.42497,0.015384,0.59687,-0.23822,-0.32237,0.49718,-0.069131,-0.19626,-0.0091044,-0.08114,-0.073222,0.072103,0.0646,0.39395,-0.7543,0.13913,-0.27988,-0.18719,-0.4368,-0.38775,-0.075361,0.3798,-0.4122,0.44224,-0.20626,-0.39487,-0.17117,-0.062281,-0.10717,-0.028375,-0.34845,-0.59147,0.35557,0.43543,0.40222,-0.21719,-0.057734,0.35409,-0.27006,-0.25087,0.057196,-0.10526,0.24783,0.41283,0.41577,-0.9663,0.061602,0.22774,0.0043035,-0.46671,0.044277,-0.094519,0.32041,0.62659,-0.13462,0.085035,-0.24106,0.32363,0.18135,0.10726,0.098939,0.43534,-0.11217,0.56504,0.34929,-0.051243,-0.30226,0.023168,-0.059041,0.060922,-0.33489,-0.28056,-0.17953,0.080631,-0.09841,0.17785,-0.53962,0.072694,0.21892,-0.40478,0.11087,-0.45494,-0.43626,-0.30973,-0.15363,-0.4913,-0.1317,-0.21974,0.11558,0.35844,-0.18628,-0.030653,-0.62675,0.21277,0.38545,0.23776,-0.35759,-0.26485,-0.041015,-0.4481,0.65567,0.25094,0.35644,0.13222,-0.37605,-0.23965,0.2147,0.024397,0.16441,0.40049,0.028636,-0.028795,0.18227,-0.18728,0.096655,-0.13656,0.11199,0.11383,0.17819,-0.22435,-0.28343,-0.19088,0.11357,0.37749,0.018906,-0.46729,0.19769,0.53859,-0.00063339,-0.29682,1.343,0.029186,0.29902,0.081085,-0.20146,0.45541,-0.0078672,-0.0077858,0.59106,-0.094978,-0.10315,0.26666,0.40611,-0.10003,0.24628,0.21849,-0.11237,-0.20771,0.098583,0.65671,-0.47561,-0.18175,-0.98547,-0.19112,0.21756,0.42795,-0.0090101,-0.18623,-0.53784,-0.52085,0.0342,0.49163,0.13158,0.073925,0.25872,-0.055099,0.2755,0.40577,-0.058922,0.33864,0.56398,-0.20904,-0.31635,-0.23093,-0.041483,0.2369,-0.37884,0.15827,-0.1417,0.44161,0.26085,-0.36801,-0.42472,0.11036,0.012091,-0.33678,0.04299,-0.22511,-0.031647,-0.11691,-0.0946,0.3058,-0.3514,-0.40712,0.27141,-0.0074659,-0.51142,0.35629,0.040565,-0.33218,0.17028,-0.36283,-0.38017,0.60675,0.078719,-0.6052,-0.12807,0.15938,-0.18107,-0.15934,0.20937,-0.12669,0.06887,-0.36889,0.14475,-0.21691,0.39998,0.16896,0.33258,0.11423,-0.21167,-0.12705,0.30262,-0.053809,0.094892,0.37913,0.66611,-0.9176,0.32035,0.095762,0.27607,0.12877,0.24351,-0.44205,0.39785,-0.6369,-0.042229,0.068454,0.30787,0.061439,-0.50235,-0.0082336,0.29622,-0.1879,0.33165,-0.32211,0.42114,-0.049972,-0.10481,-0.15908,-0.36603,0.096402,0.13957,-0.11302,-0.12466,-0.066386,-2.3162,0.66318,0.75894,-0.16946,-0.32316,-0.2154,0.15623,-0.066873,-0.16003,0.63902,-0.10301,1.0519,-0.199,-0.14799,-0.056006,0.21749,-0.17419,0.030983,0.13269,0.80565,-0.28988,-0.23533,-0.3617,0.45278
league,-0.02675,1.0621,-0.012869,0.47598,0.049221,0.44951,-0.89966,0.20948,-0.06546,-0.29772,-0.2066,-0.0073951,-0.19871,-0.1037,0.12328,0.16044,-0.1962,0.086025,-0.062641,-0.83534,0.41865,-0.55511,-0.59243,-0.086387,0.1832,-0.26873,-0.34006,0.80235,-0.018115,-0.12785,-0.027131,-0.46701,0.059174,-0.11507,-2.1248,0.28525,0.3827,0.32886,0.14243,-0.085374,0.33502,0.035111,0.043989,0.14241,-0.020438,0.0036493,-0.22945,0.31802,-0.24458,0.047483,-0.34351,0.45034,-0.53816,-0.35851,0.095146,0.53005,-0.061472,-0.50744,0.11162,0.21333,0.36376,-0.21223,-0.51596,-0.62367,-0.42874,-0.06593,-0.13602,-0.26315,0.19409,-0.46147,0.99635,0.070249,-0.69113,0.52652,-0.68665,0.3687,0.43117,-0.13458,-0.42944,0.38627,-0.43204,0.31303,-0.2673,0.24141,-0.42871,-0.19208,0.17405,0.23489,0.41476,0.80044,0.10206,0.40808,-0.032971,0.83652,0.23531,0.7604,0.23538,-0.59702,0.1054,-0.54761,-0.12508,-0.22085,-0.25056,0.078659,0.044058,0.19128,0.43956,0.11867,0.30924,0.64502,0.26597,-0.8618,-0.16202,0.184,0.39553,-0.62499,0.080078,0.083989,0.095696,-0.38659,-0.10037,0.31517,0.50428,0.41708,0.051177,0.08312,-0.29121,0.09934,0.46976,0.29511,-0.16639,0.1145,-0.0193,0.18791,0.58689,0.42748,0.69719,0.24297,-0.70353,-0.15091,0.32617,0.37147,-0.33372,-0.016338,0.15783,0.22408,0.38544,-0.10832,-0.76299,-0.19463,0.99677,-0.57048,-0.4613,0.13411,0.40275,-0.13857,-0.39573,0.0905,-0.54115,0.3086,0.3061,0.32219,-0.59144,0.48862,0.35419,0.0066717,-0.44883,0.43164,0.070021,-0.13959,-0.0099946,-0.33962,-1.2423,0.098911,0.20016,0.032826,-0.38887,0.022196,-0.20701,1.3418,0.80165,0.013247,0.17108,0.42579,0.19046,-0.084159,-0.9189,-0.1545,0.096818,0.10254,-0.011122,0.62463,0.54239,-0.085285,0.38322,0.49998,0.1914,-0.24075,0.26295,0.77794,2.0868,0.15395,0.13768,-0.48986,0.0033747,-0.22616,0.76133,-0.63004,0.18804,0.27053,-0.32494,0.48311,-0.32049,0.27004,-0.39844,-0.017352,-0.29612,0.039288,-0.1432,-0.35,0.018405,-0.70205,-0.30706,-0.25376,-0.13811,-0.33347,-0.074777,0.3212,-0.38892,-0.15504,0.085864,0.5188,0.15113,-0.64041,0.22627,-0.20352,0.2424,0.061149,0.57895,0.34662,0.48579,-0.30437,0.72748,0.48276,0.24555,0.36535,0.050477,0.5151,-0.16468,-0.19679,0.22165,-0.048398,0.12356,0.28871,-0.4391,-0.46421,0.19426,-0.52099,-0.42405,0.30653,-0.73546,-0.040809,0.23651,0.53639,-0.18788,-0.092841,-0.69519,0.3461,0.24556,0.14308,0.23807,-0.19302,0.043398,0.22964,0.86528,0.30096,-1.4159,0.39775,0.63547,0.28424,-0.16162,0.14091,0.13933,0.42692,0.036551,0.2686,0.065094,-0.069751,0.30664,-0.4989,-0.6322,-0.086436,-0.507,0.27319,0.31195,0.39448,0.69385,-1.1288,-0.006115,-0.29829
town,-0.51158,-0.29068,-0.097587,-0.17189,0.19698,-0.0085381,0.070912,0.010709,0.15264,-0.72305,-0.59085,-0.30725,0.014572,0.81772,0.4464,0.42603,0.042254,-0.45597,0.48721,-0.18836,0.072639,0.28533,0.15823,0.30435,-0.2684,-0.64445,-0.19013,0.12434,-0.17342,0.2738,0.30838,-0.061177,-0.64004,0.61668,-0.13424,-0.10904,0.014208,0.46137,-0.36009,-0.94788,0.45293,-0.14532,0.20298,0.35952,0.38398,0.19453,0.50104,0.020195,0.38969,0.50491,0.3497,0.10431,0.34081,0.40928,0.16854,0.36049,-0.18161,0.0628,0.29826,0.1621,-0.090976,-0.7798,-0.036705,-0.51215,0.65329,-0.21499,-0.070507,0.13524,-0.035009,-0.26431,0.35912,-0.62169,0.0057815,-0.3509,-0.4144,-0.17873,0.36024,0.29738,-0.18206,-0.28702,-0.024239,-0.32345,0.11905,0.29593,0.10435,-0.3082,-0.42535,-0.26401,0.58095,0.4693,0.066994,0.006512,0.51564,-0.15114,0.067219,0.23744,0.29847,0.201,-0.11558,0.2364,0.042037,0.44301,0.04863,-0.1472,0.14032,-0.044385,0.92488,0.37869,0.052911,0.10493,0.19653,-0.53618,-0.34115,-0.40701,0.54159,0.42984,0.41606,-0.11065,0.1388,0.033487,0.0057532,0.049622,-0.030145,0.25154,0.1159,0.28659,0.21779,-0.013847,0.15172,0.06836,0.26634,0.088985,-0.18587,-0.12451,0.40395,0.14874,-0.1606,-0.12646,0.21054,-0.79152,-0.2871,-0.51248,-0.54653,0.47816,-0.62607,-0.011748,0.38154,-0.098253,-0.77467,0.11006,0.52427,0.0071138,-0.075176,0.18825,0.75406,0.032093,-0.11387,0.13278,0.42181,0.38553,0.57172,-0.37189,-0.066531,-0.7782,-0.35427,-0.30547,-0.078229,-0.26683,0.20679,-0.66849,-0.51477,0.017633,0.15415,0.44383,0.14959,0.80757,-0.3669,-0.43959,-0.016601,-0.031078,-0.45125,0.48544,-0.021431,0.33168,1.2887,-0.27364,-0.69825,-0.15373,0.12292,0.43901,0.40857,0.51669,-0.14639,0.052728,0.078948,0.23622,-0.40242,-0.65234,-0.22491,0.076513,0.76524,-0.45121,-0.20511,0.25676,0.000369,-0.64951,0.048753,-0.26703,0.45891,0.19853,-0.53387,-0.077537,0.082663,-0.49558,0.59117,0.15715,0.22658,-0.17189,-0.28162,0.099415,0.15734,-0.63445,0.25986,-0.21246,0.038314,-0.51896,0.3369,-0.53444,0.21031,-0.086218,0.29355,0.12088,-0.44579,-0.42211,0.99769,0.052425,0.17754,0.050015,0.069418,0.37494,0.22572,0.24764,0.69958,0.24572,-0.51839,0.30076,-0.077274,-0.0095187,0.18251,-0.22351,0.1063,-0.18191,0.05587,0.031352,0.30367,0.10067,0.18851,-0.41258,-0.15837,-0.24708,0.2925,0.48006,0.21988,0.084735,-0.20258,-0.2441,0.14016,-0.33249,0.1551,-0.028359,-0.4622,-0.46736,-0.048296,-0.27694,-0.084761,0.048965,-2.2223,-0.053242,0.27398,0.53324,-0.62027,0.41924,-0.33742,-0.34844,-0.41311,0.84333,0.21752,0.067472,0.3114,0.38835,0.10776,-0.086123,0.027665,-0.25631,0.051119,0.82253,0.1809,-0.16861,-0.089034,0.8545
capital,0.55308,-0.31169,-0.54397,-0.42538,0.39009,-0.37036,0.88636,1.1425,0.32468,-2.2198,-0.038028,0.2047,-0.48917,0.61815,0.024549,0.0096946,-0.28242,0.26353,0.10308,-0.28405,-0.37302,-0.28229,0.38645,0.13202,0.71804,0.34015,0.49121,0.19123,-0.39642,0.24196,0.15135,0.41302,0.040297,0.52755,-0.5108,-0.6089,-0.39923,0.56674,-0.58365,-0.3246,0.33618,-0.27838,-0.41335,0.037808,0.14699,0.050075,-0.060684,0.9891,-0.23524,0.6492,0.42387,-0.37328,0.062529,0.33227,0.20443,-0.14325,-0.4672,0.18176,0.47423,0.021452,-0.45437,-0.47619,0.25171,-0.34377,0.20375,0.87696,0.019675,0.17148,-0.17957,-0.30136,0.33707,0.44337,0.23704,0.01993,-0.20779,0.49113,0.46716,-0.50936,0.55296,-0.27239,0.27077,-0.56625,0.1494,0.11228,0.098208,-0.31734,-0.0091252,0.023232,0.77621,0.64408,0.23564,0.36309,-0.20078,-0.1334,-0.097378,0.40822,0.24311,-0.19952,-0.67706,0.30059,-0.11454,0.24195,-0.0019069,0.0233,0.16943,0.4135,-0.087747,-0.16713,0.20714,0.18389,-0.26381,-0.82722,-0.63282,0.32546,0.53913,0.16212,0.17858,-0.49255,0.45442,-0.57234,0.33552,-0.17241,0.11137,0.21346,-0.08144,-0.25361,0.42907,0.078717,-0.91429,0.12856,0.14066,0.1656,0.31468,-0.36454,0.35044,-0.030062,-0.10122,-0.1554,-0.065128,-0.1695,-0.84621,0.037315,0.11491,0.4349,-0.23213,-0.077006,0.55742,-0.15217,-0.9314,0.023147,1.0474,-0.18702,0.45806,0.56788,0.53135,0.032435,-0.048777,-0.17299,0.040976,-0.48448,0.417,0.15599,-0.10791,-0.3231,-0.50189,-0.29163,1.0181,-0.25472,-0.022322,0.33941,-0.30666,-0.098514,-0.29608,-0.24314,-0.22173,0.15257,0.18221,-0.22415,-0.08288,0.84627,-0.31284,-0.48818,-0.38509,0.20205,0.21216,0.2157,0.033719,0.34088,-0.25788,-0.47404,0.26549,-0.065548,-0.20729,-0.41718,0.64209,-0.19841,0.42542,-0.15071,-0.39479,1.0074,0.58217,-1.0245,-0.0023047,0.72176,-0.64147,-0.33904,-0.086196,0.074838,0.37994,-0.13909,0.37059,-0.13527,-0.02852,-0.47453,0.12126,0.46454,0.33104,0.25059,-0.8149,-0.1672,0.3709,0.6089,0.12931,0.2654,-0.17862,0.067645,0.52471,-0.47028,0.089824,-0.56453,-0.27034,0.36631,0.43778,0.42787,0.47598,0.42997,-0.24095,-0.41334,0.16655,0.084095,0.30931,-0.22243,0.69372,0.16828,0.0096087,0.39583,0.55445,0.051935,-0.10576,-0.50311,0.30034,0.18426,0.37265,-0.50392,0.44589,0.37279,-0.42339,0.3486,0.18125,0.00028663,0.45714,0.26167,-0.10238,0.30249,0.44123,-0.4401,0.40083,-0.31097,-0.24798,-0.083182,-0.25605,-0.22874,-0.26577,-0.52431,0.060631,0.098008,-1.6906,-0.46791,0.40311,-0.21211,-0.043307,-0.40742,-0.60807,-0.64827,-0.49631,0.44521,-0.27606,0.22728,-0.058996,-0.15147,0.33614,-0.32231,0.070971,0.23726,0.068568,0.80889,-0.12369,-0.032914,-0.4489,0.17797
department,-0.012357,-0.3303,-0.33826,-0.19779,-0.59137,-0.1272,0.65741,0.28296,-0.42158,-2.1386,-0.53477,0.055663,-0.10719,0.20672,0.48749,0.22165,0.067486,0.20463,0.23047,0.69108,0.4159,0.11419,0.77399,0.45673,-0.50306,0.53483,-0.15606,-0.39638,-0.047237,0.023132,0.50667,-0.10018,-0.12866,0.39251,-0.46598,-0.27777,0.54322,-0.31401,0.047561,-0.68905,-0.053395,-0.10537,0.051569,0.98096,-0.36496,-0.46813,-0.45566,-0.11129,-0.028249,-0.012731,-0.51195,0.10961,-0.055516,0.32127,-0.23038,-0.059937,-0.65964,-0.42598,-0.23782,-0.79476,-0.32494,0.27958,0.13209,0.36794,-0.55482,-0.98116,0.066932,-0.29565,-0.13728,-0.16018,-0.092651,0.034146,0.44742,-0.12152,-0.41554,0.27646,0.12367,0.57279,0.1287,-0.002572,-0.18642,-0.08122,-0.37327,-0.021433,0.33153,-0.13576,-0.40191,-0.09249,0.043214,-0.017753,-0.28726,-0.009586,-0.12152,-0.2366,0.20052,0.15367,-0.78524,0.19708,-0.19858,-0.26843,0.38433,-0.33608,-0.11334,-0.22823,0.069805,-0.39665,-0.067908,0.28101,0.27981,0.4343,-0.40872,-0.39074,-0.4232,-0.11499,0.18466,0.27599,-0.019105,-0.32525,0.19644,0.4226,0.2598,-0.014048,-0.042787,-0.35517,-0.58702,-0.023064,-0.28866,-0.40343,0.4302,0.60562,0.57334,-0.39314,0.5044,-0.42718,-0.34459,0.078779,0.20801,0.81386,-0.27657,0.68521,-0.12428,-0.22632,0.28288,-0.12015,-0.30041,0.015862,0.19941,0.12684,0.41778,-0.042225,1.307,-0.072599,0.891,0.092449,0.070495,-0.39998,-0.58388,-0.55089,-0.17136,0.13461,1.0025,-0.022866,-0.1977,-0.42232,0.25552,-0.19568,-0.19327,-0.44046,0.052371,0.65703,0.041038,-0.46303,-0.86438,0.17017,0.43469,0.29201,-0.081341,-0.49547,-0.37089,-0.24523,-0.13441,0.14998,-0.38473,-0.012638,0.58013,-0.11828,-0.33017,0.21462,0.032517,-0.20431,-0.22107,0.0040143,-0.45177,0.0087596,-0.19275,0.48481,0.071599,0.21819,0.07748,0.072198,-0.19889,0.031937,-0.0050923,-0.083689,-0.21012,0.29359,-0.68637,0.51568,0.28544,-0.33986,-0.0029725,0.39527,-0.064327,-0.051647,0.33754,0.3389,-0.35579,0.63352,0.69326,-0.098842,0.11675,-0.51738,-0.63663,0.058569,0.65835,-0.41618,0.13578,0.21846,0.037325,-0.0077557,0.52922,-0.26087,0.1467,-0.35658,-0.26953,0.21209,-0.00047965,-0.0064254,0.33029,0.35022,-0.24607,-0.28709,0.61255,0.020297,-0.16464,-0.19842,0.1327,-0.82608,-0.045285,0.11669,0.27204,0.29936,0.43671,-0.16149,0.67224,0.10301,-0.49128,0.49315,-0.20694,0.17643,-0.46813,0.21293,0.040456,0.00059933,0.48326,0.047273,-0.24988,0.52822,-0.2542,0.21627,0.27469,-0.13995,-0.65137,0.16423,-0.24613,-0.20785,-1.6493,0.68674,0.68374,0.056873,0.17095,-0.070404,0.69083,-0.48656,0.016545,0.060317,0.093571,0.52752,0.11388,-0.064831,0.15254,-0.16079,0.062422,0.21587,0.43015,0.54988,0.41743,-0.31455,-0.34228,0.1724
today,-0.0088454,-0.17628,0.043939,0.23772,0.13331,-0.038687,-0.26692,0.1492,0.064416,-1.8906,0.0099097,-0.41216,0.062824,0.39153,0.50311,-0.47787,-0.23483,0.18752,-0.025923,-0.14872,0.22798,0.54713,0.53562,0.49984,0.013786,0.15351,0.32206,-0.2693,-0.066984,-0.056332,0.30094,0.20396,-0.38506,0.20942,-0.98693,0.085462,0.0233,0.117,0.032743,0.088524,0.034344,0.14554,-0.14223,0.29083,0.27747,0.15031,0.015692,0.17876,-0.11635,-0.16394,0.043047,-0.19685,-0.40872,0.19822,-0.18383,0.60479,0.11638,0.44498,0.28318,-0.17754,0.43296,-0.24506,0.17239,-0.24866,-0.057211,-0.29188,0.089692,0.013031,-0.50086,-0.18129,-0.069083,-0.02771,-0.26332,0.12949,0.014157,-0.28985,0.31563,0.099121,0.30825,0.20194,-0.2491,-0.19244,-0.01279,0.0057545,0.29472,0.60901,-0.53944,0.10326,0.063383,0.40192,-0.21905,-0.19266,-0.20089,-0.028254,-0.15587,-0.069539,-0.47064,-0.20537,-0.16318,-0.22905,0.33411,0.015556,0.22961,0.10445,0.1181,0.23415,0.41051,-0.023419,-0.38451,0.49738,-0.35865,-0.39961,-0.24785,-0.38461,0.30646,0.28097,0.12096,0.17178,0.0497,-0.081283,-0.078552,-0.27296,0.11996,-0.0074443,-0.23835,0.21975,0.23419,0.2831,0.011749,0.27985,0.090346,0.025083,0.21566,-0.23015,-0.54743,-0.29993,-0.080401,0.076755,0.40147,0.34501,-0.057743,-0.066167,0.23832,-0.09745,-0.080783,-0.10276,0.12633,0.081291,-0.39829,0.12044,-0.059922,-0.18368,0.18074,-0.24459,0.47249,0.37938,0.043726,0.079788,0.47801,-0.23367,0.043868,0.42144,-0.54623,-0.25776,-0.2052,0.29869,0.10683,-0.18799,-0.4148,0.10465,-0.027328,0.010265,-0.56123,0.45347,0.1646,0.02482,-0.38446,-0.095501,0.025647,0.49704,0.29187,0.42845,0.22814,-0.29383,0.41923,0.3182,0.025986,-0.0044008,-0.27322,0.47515,-0.042078,0.15259,0.43879,0.26088,-0.13997,0.053507,0.044633,-0.10604,0.034203,-0.1332,0.81732,-0.21159,0.015451,0.072925,-0.26992,0.14546,-0.072166,-0.43373,-0.062456,-0.2783,-0.017277,0.082453,0.19059,-0.44189,-0.049865,-0.021894,-0.32949,0.02165,0.1279,-0.20539,0.48312,-0.098058,-0.40545,0.31844,0.092103,0.1618,0.33953,0.17009,0.20866,0.14549,-0.10007,-0.16823,-0.022714,0.15636,0.15884,0.0099864,-0.1204,-0.27205,0.17755,0.26393,-0.12742,0.29536,0.35902,0.10661,0.05845,-0.20541,-0.18005,0.055078,0.21277,0.10551,0.16494,-0.03002,0.078659,0.0077392,0.037137,0.30176,-0.14372,-0.0796,0.069418,-0.37574,-0.1011,0.1911,0.15424,-0.30348,0.31292,-0.27983,-0.24061,0.16378,0.28698,-0.17627,-0.028221,-0.15042,0.14542,-0.038499,-0.064335,0.36751,-1.7061,0.2668,0.67515,0.17213,-0.047247,-0.27937,0.015964,0.029388,0.080599,-0.34933,-0.14026,0.084287,-0.28569,-0.10327,0.21801,0.006217,-0.026879,0.15858,-0.23479,0.026735,0.095478,-0.37634,0.021549,-0.063259
county,-0.95534,-0.21843,-0.10554,-0.33288,0.54584,-0.83353,0.75945,-0.3036,0.28016,0.071981,-0.76235,0.037642,-0.32059,0.30234,0.53987,0.44877,-0.4026,-0.46878,0.13901,0.16527,0.10315,0.20722,0.0595,-0.013826,-0.055098,-0.40765,-0.78416,-0.14783,-1.0068,0.00044647,0.64183,0.54505,-0.14994,0.68962,-0.96054,0.37418,-0.099192,0.11197,-0.72356,-1.0549,-0.39199,0.14639,0.55684,1.3622,0.626,0.15726,0.35059,-0.11871,0.69883,0.1307,-0.15549,0.22734,0.17544,-0.35664,0.22628,-0.071595,-0.34875,0.13874,0.28407,-0.84359,-0.18367,-0.78699,0.27284,0.26574,0.049905,-0.94687,0.066633,0.19181,-0.094785,-0.47379,0.27661,-1.0235,0.75816,0.71009,-0.94426,-0.3295,-0.61614,0.66064,-0.31535,0.32365,-0.3791,-0.2174,0.15319,0.20962,0.047696,-1.2249,-0.287,0.086881,0.52975,0.87142,0.059596,0.24484,0.32169,-0.23195,-0.43839,0.060692,0.11286,-0.25165,-0.49864,0.35364,-0.16022,0.11889,0.051511,-0.47977,0.0087782,0.53595,0.19495,0.036671,0.6889,0.95523,-0.49319,-0.50284,0.25385,-0.28463,0.46827,-0.022175,-0.25181,0.00022334,-0.30465,0.041699,0.16239,0.55014,-0.2118,-0.60915,-0.78851,0.44593,-0.0012435,-0.18824,0.4835,0.60097,-0.22724,0.063177,0.00055061,0.71756,0.35874,-0.44254,-0.49901,0.13574,-0.52495,-0.08166,-0.21083,-0.49173,0.48744,-0.24204,-0.2646,0.21447,0.87121,-0.025524,-0.0074955,-0.33817,1.1835,0.50133,-0.043061,-0.21506,0.55964,-0.020669,-0.44945,-0.2584,-0.044081,-0.18658,-0.20571,0.084658,-0.42027,0.20405,0.16793,-0.2961,0.6685,-1.4169,-0.28916,0.35971,0.50593,0.83442,-0.52441,0.77578,0.17,0.17689,-0.05335,-0.54631,-0.18676,-0.0011845,-0.14743,0.41905,0.141,-0.27005,0.26226,-0.58218,-0.71298,-0.60632,-0.60488,-0.49757,0.0014111,0.57381,0.20876,-0.078919,-0.14345,0.38384,0.51167,-0.45769,-0.052748,-0.2132,0.67856,-0.66705,-0.61014,-0.35617,0.36559,-0.29156,0.082524,0.40261,0.36688,0.62322,-0.46737,0.24041,-0.64903,-0.52352,0.9649,-0.1484,-1.2137,1.2116,-0.16326,-0.40051,-0.19576,-0.056144,-0.34935,-0.38108,0.51265,0.059025,-0.0010805,-0.50833,-0.85622,-0.39064,0.012055,0.14791,-0.58463,-0.28581,0.088585,0.3637,-0.66194,-0.34652,0.69823,0.68614,0.099233,-0.49054,0.75649,0.16209,-0.60681,0.54317,0.77307,-0.34185,0.0036176,-0.10201,-0.27346,0.45824,0.19481,-1.0336,0.37532,-0.55282,0.33577,-0.15433,0.12524,-0.69399,-0.12224,0.76331,0.32035,-0.20852,-0.33896,-0.61193,0.41317,-0.47257,-0.11428,0.47542,-0.30932,-0.18552,0.23804,0.38852,-0.52276,-0.011673,-2.0065,0.71717,0.74829,0.015153,-0.14792,0.12361,-0.0079201,0.19898,0.11363,0.99327,0.13437,-0.13025,0.62693,0.093598,-0.017486,-0.5971,0.20469,-0.33324,0.076302,0.087659,0.76384,-0.064706,0.19468,0.55076
agency,-0.30517,0.0067854,-0.17293,0.31572,0.09591,-0.20057,-0.066522,0.40675,-0.53751,-2.2846,0.25464,-0.15787,0.0055935,0.088503,0.12135,0.15252,0.31634,-0.18714,-0.061509,0.1356,0.49407,0.29139,0.28881,0.42399,0.17843,0.59166,0.083916,0.43042,-0.60038,0.084323,0.13645,-0.049925,0.50923,-0.044863,-0.063997,-0.12435,0.11996,-0.30696,-0.27345,-0.20902,0.099208,0.20719,0.57615,0.5944,-0.96142,-0.23366,-0.37148,-0.31484,-0.37844,0.010588,-0.19429,0.060035,0.061266,-0.21705,0.18289,0.48785,0.051843,0.44877,-0.3847,-0.31381,-0.12151,0.74779,0.30781,-0.12484,-0.22359,0.27286,0.24955,-0.12476,0.15819,-0.24783,0.39949,-0.11748,-0.45431,0.043635,-0.26676,-0.4011,0.46498,0.28165,-0.21363,0.81647,0.0011952,0.21144,-0.29995,0.32096,0.19208,0.27192,-0.54016,-0.18406,0.063006,-0.028587,-0.92643,0.53963,-0.81658,0.35578,-0.30522,-0.22668,-0.81065,-0.41127,0.083896,0.33825,0.17355,-0.40954,0.18696,-0.71255,0.41197,0.13375,-0.41442,0.13123,-0.15,0.36877,0.25199,-0.080109,-0.17814,-0.29943,0.1623,0.44895,0.10051,-0.085758,0.62737,0.060226,0.21227,0.059858,0.42551,-0.055782,0.021141,0.12579,-0.3218,-0.54967,-0.16538,0.21649,0.39647,-0.35588,0.45476,0.075321,-0.067236,0.099166,-0.27767,0.07941,0.34099,-0.65958,-0.070209,-0.11978,0.5693,-0.46605,-0.44597,0.35808,0.073088,0.45029,0.2447,0.0011372,1.5557,-0.15986,0.22978,0.29157,-0.3611,0.62302,0.041577,0.023939,0.57151,-0.41864,0.26631,-0.0071299,-0.10079,0.17686,0.31413,-0.42442,-0.23125,-0.34218,-0.077715,0.31238,0.10583,-0.22258,-0.54532,0.00051969,-0.029406,0.65173,0.35881,-0.88038,-0.26565,0.086525,0.28807,0.12469,0.049933,-0.034813,-0.05792,-0.3837,-0.30692,-0.53247,0.078062,-0.1469,0.13657,0.2939,-0.76329,0.14429,0.058366,0.053833,-0.36208,-0.032062,0.18952,0.96521,0.25996,-0.016,0.19637,0.62583,0.020633,0.33875,-1.0326,-0.31484,-0.24234,-0.59173,-0.023627,0.10325,-0.32873,-0.064409,0.33934,-0.22112,0.23262,0.074065,-0.50587,-0.10858,0.19119,-0.59281,0.044787,0.30841,-0.018357,-0.097256,0.0096245,-0.042513,-0.15407,0.38183,0.32705,-0.16852,0.27104,-0.30981,0.068346,-0.028927,0.073575,-0.067655,0.68435,-0.27612,0.18623,-0.37468,0.65217,-0.49585,0.050703,0.28342,0.41129,-0.41151,-0.13889,0.63443,0.20041,0.46702,0.11953,-0.46416,0.39665,-0.77113,-0.30901,0.075259,0.01647,0.15951,0.28766,0.35926,0.25266,-0.37502,0.25966,-0.30919,-0.1199,0.21288,-0.026406,-0.033223,0.51231,-0.37744,-0.20513,0.3802,0.20529,0.67372,-2.1408,0.52575,0.7322,-0.088842,-0.31785,0.31057,0.34117,-0.089567,-0.081204,-0.49999,0.20546,0.10356,-0.20413,0.24392,0.002038,0.0010542,-0.20511,0.044539,0.055248,0.72725,-0.24892,0.24707,-0.45124,0.021257
committee,-0.26394,-0.46077,0.043841,-0.099278,-0.086563,-0.26047,0.114,0.1709,-0.36574,-1.7219,-0.1502,-0.048971,-0.2199,-0.21681,-0.11424,0.1673,0.82013,0.64762,0.18441,-0.19177,-0.27031,0.14509,-0.43244,-0.06636,-0.40268,-0.016166,0.15288,-0.11637,-0.22334,-0.16515,0.87324,-0.25471,0.20353,0.50041,-1.1809,0.3186,0.83414,-0.056278,-0.34939,-0.64508,0.39205,0.29212,0.44963,0.50374,0.020595,0.23129,-1.0969,-0.08366,-0.58776,0.66885,-0.51746,0.21901,-0.59783,0.0070415,-0.31726,0.18532,-0.23412,0.73609,-0.17712,-0.13352,0.277,0.098995,0.00024946,-0.14693,-0.3009,-0.68371,0.15405,-0.13053,-0.67203,-0.21229,-0.12215,0.021377,0.096382,0.062196,-0.66096,0.26958,0.18645,0.64442,0.02088,0.063915,-0.025914,0.32752,0.066246,0.15381,0.57968,-0.36553,-0.22334,0.63988,0.26884,0.31031,-0.81939,0.0076934,-0.39965,-0.50689,0.081418,-0.23411,-0.090974,0.29637,0.24258,-0.22611,0.39308,0.056519,-0.061145,-0.27757,0.068064,-0.14455,-0.26148,-0.42029,-0.1896,-0.21341,0.75363,0.20394,-0.32612,-0.057848,-0.75049,0.57652,-0.17962,-0.27614,0.066511,0.10182,-0.70016,0.27068,-0.46402,-0.27278,0.71085,-0.61826,-0.53182,0.40165,-0.090176,-0.31148,-0.59817,-0.46926,-0.1835,-0.37293,-0.42146,0.19137,-0.25314,0.17577,0.01988,0.41436,-0.055164,0.52226,-0.046227,-0.060089,-0.36407,0.083376,0.467,-0.22439,0.05722,-0.10575,0.64049,0.17161,0.70994,-0.44537,-0.16251,0.5578,-0.30974,-0.11857,-0.017914,-0.1949,-0.55777,0.59234,-0.52261,-0.0016315,-0.04321,-0.37829,-0.096503,-0.11294,0.18781,0.75061,-0.21588,0.32104,-0.73963,-0.079668,-0.34156,0.43788,-0.11679,-0.41905,-0.24146,0.58633,-0.10735,-0.26587,-0.41707,0.32537,-0.22462,-0.24839,-0.85801,-0.082057,0.17852,0.12576,0.33871,-0.19252,-0.34753,0.14049,0.026263,0.13093,0.44829,0.70069,-0.62177,0.41079,0.058422,0.38131,0.30389,0.13259,-0.27416,-0.55168,-0.28005,-0.4519,0.60723,0.20125,0.39387,0.29565,-0.16401,-0.24338,-0.49886,-0.013614,-0.45575,0.12934,0.05251,-0.34279,0.24615,-1.0692,-0.43382,-0.46859,0.33066,-0.051591,-0.5686,0.26341,-0.55902,-0.28703,0.022337,-0.052773,0.2138,0.043445,0.44049,-0.41007,0.074086,-0.32822,0.69583,-0.24517,0.61814,0.28484,0.26648,-0.16637,-0.2703,0.30104,0.10219,-0.59733,-0.69839,0.29842,0.0059942,-0.17814,0.15567,-0.40467,0.27908,-0.3171,-0.51419,-0.84046,0.18529,0.23722,-0.42008,0.24179,0.49594,0.0047897,0.29493,-0.43,0.25463,0.35639,0.1571,0.5774,-0.20128,-0.35452,-0.15592,0.82891,0.0014143,0.39104,-1.8083,0.29707,1.4037,-0.039773,-0.066484,-0.47902,0.26448,-0.2637,0.084327,0.043888,0.62632,0.4004,0.020107,-0.21391,-0.38759,-0.014133,-0.15516,0.049068,-0.64206,0.43182,-0.036746,-0.39972,-0.37092,0.072796
club,0.06913,0.68105,0.4504,0.15113,0.095532,0.011451,-0.074666,0.45846,-0.0037597,-0.66668,0.36459,-0.1584,0.47017,0.10896,0.068953,0.14166,0.037884,0.34684,0.42073,-0.33128,-0.087771,0.032959,-0.077387,0.36036,-0.138,-0.1602,-0.19343,0.57168,-0.38232,0.049298,0.46484,-0.38977,-0.088219,0.43696,-1.3037,-0.039656,0.33124,0.02114,-0.50064,-0.37101,-0.059706,-0.20187,-0.58887,0.5809,0.36435,0.087698,0.73292,0.34686,-0.40063,0.23549,-0.34602,-0.19412,-0.37172,0.20238,0.086469,0.73051,-0.11322,0.20708,0.030003,-0.5464,0.26192,-0.22019,0.068446,-0.37462,0.12856,-0.58411,-0.07398,0.071356,-0.20612,-0.91748,0.14269,0.33374,-0.26122,0.1609,-0.67321,-0.096556,0.14231,0.070501,-0.20537,0.06764,-0.4977,0.56087,0.20572,-0.355,-0.013291,-0.6492,-0.14468,0.027443,-0.42642,0.090782,0.59224,0.04295,-0.093772,0.20704,0.70188,0.37703,0.67732,-0.49807,0.16984,-0.98594,0.016901,0.034136,-0.28218,0.081394,-0.086216,0.21657,0.17311,-0.55864,0.018177,0.44398,0.20422,-0.23797,0.42824,-0.21841,0.11252,-0.43326,-0.14315,-0.50532,-0.035599,-0.78262,-0.021475,0.27197,0.68749,0.31493,0.094661,0.093523,-0.078219,-0.023952,0.18895,0.10229,0.43849,0.32495,-0.13893,-0.16714,0.26034,0.27902,0.39395,0.6315,-1.0899,-0.36547,-0.26285,-0.33146,-0.077918,0.21984,0.40263,-0.023652,0.29159,-0.28795,-0.62922,0.28254,0.1298,0.16146,-0.29448,0.19169,0.38487,-0.48141,-0.099929,-0.15963,-0.13952,0.52856,0.53101,-0.11542,-0.45267,0.12244,0.11399,-0.57552,-0.46298,0.16869,0.20795,-0.24559,-0.1786,0.0058518,-0.81698,0.16174,0.31213,0.045593,-0.29812,0.21453,-0.24334,1.2085,0.58883,0.15791,0.28891,0.18347,0.35678,-0.18835,-0.66911,0.087096,0.29743,0.098882,-0.031033,0.62565,0.098371,-0.54665,0.38594,0.015211,0.18777,-0.14221,0.0026537,0.49558,1.6181,-0.10598,-0.09204,-0.084693,-0.12346,-0.30645,0.75813,0.10465,-0.24019,-0.29105,-0.072151,-0.24478,-0.25519,0.0068089,0.031696,0.17162,0.11175,-0.15939,-0.065578,-0.13373,0.019187,-0.51812,-0.40653,-0.32054,-0.40967,-0.21078,-0.8397,-0.14646,-0.27778,-0.0047527,0.24487,-0.21789,-0.16678,-0.63526,0.72423,-0.067507,-0.0020518,0.47346,0.1938,0.82868,0.63284,-0.30569,0.58278,-0.088638,-0.17022,0.75859,-0.41073,0.01722,-0.11036,-0.032617,0.34696,0.14586,0.26366,-0.11362,0.24766,0.0029304,0.0079428,-0.35346,0.13346,-0.12965,-0.059586,0.17879,0.12646,-0.061091,-0.38162,0.4239,-0.24795,0.24683,0.17703,-0.5495,0.18244,-0.22136,-0.088367,-0.33758,1.0587,-0.47465,-1.3162,0.028668,0.35557,0.68716,-0.36531,-0.065636,-0.33473,0.068867,-0.23979,-0.19453,-0.0525,-0.33812,0.21303,-0.60614,-0.629,0.040811,-0.60829,0.049862,0.42981,-0.11572,0.21819,-0.47015,-0.19294,-0.24489
bill,-0.14963,-0.066174,-0.45165,0.59531,-0.10754,0.59861,0.45326,-0.30364,-0.46247,-0.89779,0.17581,-0.13482,0.0055999,0.020559,-0.1279,1.2724,0.10435,0.066288,-0.058176,-0.12619,0.2239,0.23114,-0.054315,0.77971,-0.44733,0.71999,-0.018933,-0.22904,0.53425,-0.48711,-0.25096,0.47346,-0.43104,0.14925,-1.6969,0.077935,0.44038,-0.47031,-0.22242,-0.34418,0.013336,-0.048822,0.11297,-0.060292,-0.44269,-0.076573,-1.1154,0.28215,-0.19146,-0.29651,-0.10658,0.39159,-0.6272,0.58022,-0.16832,0.19287,-0.78801,0.32692,0.14092,-0.38836,0.313,-0.22253,-0.085373,-0.39746,-0.0057762,-0.65748,-0.047973,0.21619,0.37161,-0.47641,-0.084042,0.21726,-0.3328,0.32189,0.57243,-0.090012,-0.82195,0.42244,-0.15068,0.44532,0.61687,-0.023972,0.37355,-0.064241,0.78714,-0.30269,-0.44734,0.79538,-0.21627,-0.27346,-0.1916,0.047309,-0.51542,0.27861,-0.41371,-0.28836,-0.16171,-0.45201,0.32078,-0.37215,0.15336,-0.4044,-0.34274,0.19657,0.078863,0.41657,-0.56045,0.069389,0.096034,-0.10427,-0.0053472,0.11086,-0.049762,0.3476,-0.080226,0.23219,-0.062704,-0.40181,0.02737,-0.63617,0.45153,0.039368,-0.72281,-0.56767,0.33713,-0.47027,-0.32085,-0.3233,0.37527,0.18986,-0.21448,0.16409,0.068328,0.26595,0.38587,-0.025341,0.24945,0.57499,0.35585,-0.34354,0.1592,-0.74005,-0.094335,0.22218,-0.94559,0.14973,-0.071866,-0.36885,0.09305,-0.27812,0.50031,-0.015326,0.17924,-0.64315,0.069777,0.24208,0.038186,-0.53318,-0.1124,-0.20389,0.2861,-0.44208,-0.40398,0.090696,-0.25948,-0.064813,0.12215,-0.099526,-0.28263,0.27783,0.21733,-0.16466,-0.41979,0.23039,-0.27429,0.033115,-0.24307,-0.59302,0.23133,0.46919,0.38881,0.098244,-0.21333,0.14386,0.13206,-0.39187,0.17208,0.014835,0.18624,-0.26373,0.0091601,0.33159,-0.15778,0.0028668,0.4189,0.27291,0.097074,0.24035,-0.18148,0.023212,0.69457,0.25306,0.18952,-0.24498,0.28322,-0.29523,0.54292,-0.25662,0.3126,-0.23657,-0.089895,-1.0765,0.3234,-0.1476,-0.07906,0.4461,-0.019988,0.28292,-0.11454,-0.30772,0.47756,0.1647,-0.48056,-0.16095,0.20454,0.38292,0.38162,0.0040816,0.14818,-0.086956,0.11487,-0.01442,0.15872,0.57521,-0.12591,-0.47428,-0.13213,-0.13616,-0.00088321,0.44407,0.087824,0.23667,0.99051,0.34071,-0.87843,-0.16242,-0.19406,0.0065833,0.15472,-0.26851,-0.32843,-0.56839,0.18407,-0.18232,0.44765,-0.50269,0.22657,-0.27462,0.37289,0.45545,0.20297,-0.045772,-0.12191,0.047101,-0.40585,0.12261,-0.1236,0.71987,-0.48027,-0.006817,0.22944,-0.076531,-0.31128,0.01573,-0.32083,0.29777,-1.7346,-0.20681,0.77454,0.32896,0.072255,-0.31396,0.02537,-0.37337,-0.11171,0.091919,-0.023371,-0.038464,-0.24312,-0.13998,0.53742,0.077893,0.13786,0.12922,-0.3228,-0.39051,-0.32343,-0.34829,-0.38922,0.42878
nation,0.072254,-0.012062,0.040246,-0.18497,0.24432,0.50232,0.12012,0.65709,0.10265,-1.6416,0.10613,0.036916,-0.33629,-0.1492,0.2368,0.33198,-0.055329,0.36071,-0.036465,-0.29861,0.0035606,0.46575,0.34514,0.76611,-0.02296,0.05293,0.049926,-0.0048935,-0.10196,-0.40592,0.092031,0.59502,0.1303,0.041808,-1.0286,0.21242,-0.027318,-0.14802,-0.17805,-0.15643,-0.18468,-0.26967,0.29019,0.20106,0.19824,-0.25393,0.054194,-0.15006,-0.32352,-0.19151,0.18494,-0.22451,0.55608,0.075436,0.00035053,-0.065713,0.20506,0.079218,0.20022,-0.079044,-0.23531,0.11016,-0.020375,0.15015,-0.014637,0.29179,0.067202,0.48364,0.042749,0.30246,-0.01716,0.26605,-0.58129,-0.19979,0.34491,0.18565,-0.015474,0.026362,-0.46251,-0.042423,-0.079715,0.054525,-0.15873,0.28668,0.14712,0.22302,-0.69082,-0.31027,-0.3002,-0.024352,-0.35301,-0.089307,-0.10918,-0.06843,-0.24861,-0.25753,0.26703,0.38731,0.42069,0.40989,0.12604,0.13286,-0.037821,-0.39332,0.23615,0.033844,0.30708,0.23033,0.11955,0.37057,0.075854,-0.38626,-0.28843,0.011603,0.047735,-0.31316,0.91788,0.18006,0.44686,0.17547,0.12102,-0.075443,-0.090965,0.1603,-0.13235,0.26705,-0.29814,-0.037168,-0.25103,0.37687,0.25886,-0.065227,0.19673,-0.15829,-0.27269,0.20766,0.18007,0.38817,0.39523,0.1741,-0.19483,0.24945,0.22725,0.31133,-0.33276,0.18513,0.34675,-0.14631,0.19245,0.098259,0.67027,-0.20208,-0.06784,0.23583,0.71803,0.33663,-0.54861,0.14442,0.053754,-0.10511,0.63571,0.1811,0.40123,0.43007,-0.104,-0.3811,0.057747,-0.24906,-0.11787,-0.36024,0.25796,0.1664,-0.75607,-0.24581,0.70479,-0.16104,0.026707,0.4866,0.067607,1.4485,0.082426,-0.04634,-0.0024453,-0.017026,0.081449,0.2114,-0.039996,-0.20149,-0.8761,0.010931,-0.39196,-0.27508,0.10076,-0.055505,0.16622,0.39776,0.48458,-0.4589,0.027807,0.17913,1.295,0.22469,0.38539,-0.34915,-0.19858,-0.36592,0.32506,0.24931,0.065996,0.44465,0.098253,0.22298,-0.18406,0.40196,0.058886,0.74012,-0.1975,-0.32667,0.17481,0.29415,0.13537,0.18458,0.06076,-0.027526,0.27995,-0.38095,-0.035231,-0.014882,-0.19227,-0.022201,0.012024,-0.39947,-0.21048,0.88301,-0.1451,-0.050975,0.23671,-0.51728,0.64242,-0.38574,-0.26823,0.12916,0.50814,-0.20479,-0.3857,-0.33611,0.056254,0.23916,0.22842,-0.17624,-0.034495,0.16936,0.15826,-0.19059,0.53771,0.084268,-0.11321,0.21102,0.025255,-0.059843,0.34266,-0.24,0.10407,-0.37865,0.16474,0.082013,0.24851,-0.021641,0.16662,0.25227,-0.12727,0.15666,0.10485,0.18393,0.20204,0.012929,-1.8693,0.43614,0.9276,-0.2085,-0.014518,-0.60948,-0.083842,0.31371,0.2441,-0.27874,-0.5971,0.047079,0.029923,0.016205,0.42658,-0.50031,-0.25268,-0.097736,-0.20557,0.67511,0.31145,-0.31895,-0.66319,-0.16322
football,0.010569,1.4321,0.43626,0.32178,0.19188,-0.061888,-0.19103,0.45398,-0.17038,-0.42369,-0.4074,0.46453,0.32318,-0.01444,0.27276,0.15969,-0.14704,-0.46566,0.10306,-0.95177,0.2887,0.32979,-0.44688,0.80839,-0.14175,-0.052176,-0.55731,0.40684,-0.05207,-0.35442,0.43672,-0.24065,-0.031001,0.46315,-1.7289,0.34553,0.29099,0.51499,-0.074436,-0.44231,0.21949,-0.68234,-0.20027,-0.008558,0.52725,-0.28092,0.25786,0.53114,0.043228,0.071035,-0.76478,0.26675,-0.30521,-0.043119,-0.15533,0.5091,0.1734,0.40201,0.19567,-0.6101,-0.18047,0.012477,-0.47256,-0.41116,-0.60993,-0.57438,-0.19372,0.054452,0.2102,-0.6613,0.21204,0.25898,-0.64374,0.047419,-0.66838,0.068284,0.64416,0.33077,-0.31266,0.10931,0.2082,-0.22169,0.063088,-0.24223,-0.19644,-0.042293,0.030093,-0.38395,0.265,0.72299,-0.10878,0.51812,0.28387,0.25547,0.28078,0.4929,0.40588,-0.4223,0.20619,-0.47623,-0.092119,0.16987,0.026994,0.19794,0.1356,0.40051,0.70697,-0.29342,0.41029,0.8292,0.20493,-0.35692,0.00018477,-0.31075,0.28971,-0.298,0.13255,0.051104,0.12674,-0.68002,0.17606,0.018733,0.35581,0.25089,-0.11042,0.022946,-0.24898,0.42003,-0.11741,0.11636,-0.49507,0.31726,-0.39962,-0.31477,0.47088,-0.31815,0.47137,0.32267,-1.0838,-0.29166,0.19379,-0.25932,0.21829,0.080577,-0.080354,0.29132,0.18365,-0.53424,-0.25622,0.43854,0.20516,-0.36483,-0.32215,-0.050029,0.82426,-0.3127,-0.11052,-0.031793,0.29338,0.37402,0.18983,0.25515,0.04026,0.106,0.22716,-0.51498,-0.14125,0.53933,0.086271,-0.59075,0.18956,0.3107,-1.718,-0.11029,0.36761,0.53868,-0.22124,-0.0090913,-0.058676,0.42131,0.48118,-0.66177,0.15226,0.33767,0.57274,-0.74265,-0.60256,-0.12414,-0.32375,-0.3284,0.16187,0.39974,0.61949,-0.13148,-0.16213,-0.16241,0.71548,-0.02801,0.077083,0.39134,1.9324,0.47875,-0.27207,-0.31605,-0.22244,-0.72461,0.5475,0.10631,0.38385,0.01216,0.39628,0.58594,-0.95748,0.58086,-0.091178,0.068654,-0.085435,-0.13699,-0.23693,-0.61596,0.21357,-0.52458,0.084805,-0.71689,0.040534,-0.22451,0.072966,0.20073,0.17412,-0.12279,0.61513,-0.019274,0.63544,-0.47423,-0.11403,-0.14698,0.20141,0.20436,0.31713,0.50231,0.75804,-0.23799,0.39179,-0.14856,0.50199,0.29741,-0.45384,0.055388,-0.31045,-0.39399,0.58335,0.076517,-0.24904,0.060969,-0.0011772,-0.032619,0.36527,-0.10168,-0.16738,-0.26376,-0.41128,-0.3609,0.63374,0.05688,0.45206,-0.28659,-0.74985,-0.022332,0.19554,-0.024036,-0.032769,-0.2082,0.051651,-0.48501,0.84525,-0.37668,-1.5581,0.14508,0.47263,0.27157,-0.4278,-0.18931,0.044593,0.37309,0.38481,-0.27684,-0.55235,-0.33031,0.058135,-0.85419,-0.29501,0.37765,-0.18745,-0.034535,0.37245,-0.34584,0.072305,-0.32491,0.13853,-0.27496
interest,-0.2432,-0.16785,0.18929,0.1222,0.53147,-0.16426,0.15177,-0.20541,-0.042637,-2.1024,-0.21831,0.34577,0.51147,-0.21349,0.12648,-0.071397,-0.0053143,-0.44374,0.093507,-0.28032,-0.19304,0.38008,0.12511,0.060442,0.47756,-0.090538,0.13015,-0.40428,-0.51785,0.067227,0.090201,-0.085862,-0.16147,-0.072251,-1.2039,-0.02597,-0.52803,0.10415,0.39512,0.21584,0.25108,-0.043126,-0.079704,0.2367,0.11879,-0.1096,0.12376,0.4395,-0.32053,0.26936,0.33344,-0.32786,-0.26898,0.019537,-0.20968,-0.15843,-0.2076,0.41197,0.24048,-0.15825,0.60496,0.32927,0.47926,0.025638,-0.21835,-0.36768,0.42647,-0.0765,-0.2475,0.11076,-0.36738,0.44021,0.38608,0.22952,0.13444,-0.03675,0.31897,0.0030323,0.078018,-0.28917,0.02609,-0.11431,-0.1744,0.063082,0.54764,0.31917,-0.044617,-0.081629,-0.074438,0.29783,0.64575,0.18553,-0.16141,-0.2006,-0.08824,-0.11587,0.10374,0.30996,-0.38446,-0.32587,-0.26857,0.15273,-0.50349,-0.093571,-0.25706,0.473,-0.25451,-0.30256,0.14945,0.28671,-0.20848,-0.3376,0.11466,-0.15056,0.61326,0.33465,0.39745,0.16586,0.48927,-0.3683,-0.13638,0.16894,-0.22708,0.4019,0.27529,-0.090188,-0.33704,-0.28537,0.056763,-0.17468,-0.18455,0.21254,-0.37755,-0.23867,-0.024386,0.22771,0.12135,0.23082,-0.16244,0.14479,-0.17733,-0.34903,0.88219,0.11964,0.0366,-0.039812,-0.44144,0.029325,-0.29148,-0.077899,-0.0089485,0.29922,0.01262,0.24273,0.015733,-0.088241,-0.029844,-0.072738,-0.25926,-0.33633,0.15092,-0.059762,-0.0068961,0.59544,0.19594,-0.0024458,0.56974,0.14821,0.033455,0.35891,0.36616,-0.22472,-0.94773,0.2663,0.46385,0.1175,-0.66852,-0.44171,0.23098,1.191,0.1375,-0.53067,-0.051941,-0.52068,-0.26852,0.45837,-0.10677,0.092165,-0.12185,0.50642,-0.41546,0.17672,-0.27602,0.26483,-0.076385,-0.50893,0.021398,-0.1579,-0.27858,-0.10807,0.50926,0.13459,-0.41522,0.40203,0.057824,-0.032572,-0.19996,0.40341,-0.011009,-0.13312,0.35179,-0.069928,0.54155,0.0040862,-0.217,0.17777,-0.44301,0.39736,0.047495,0.081458,-0.28763,-0.53413,-0.48159,-0.43118,-0.1449,-0.080447,-0.50209,0.51998,0.45995,-0.2856,-0.25038,-0.041456,0.15502,0.23394,-0.18018,-0.18967,0.18152,0.12886,-0.61184,-0.059884,0.15663,0.19934,0.73025,0.43248,-1.166,0.07399,-0.052519,-0.30339,-0.26457,-0.1775,-0.26432,0.042192,0.38599,-0.079115,-0.32157,0.080282,-0.62564,-0.018699,-0.2392,-0.14634,0.24503,-0.068404,-0.22467,0.22999,-0.4828,-0.14041,0.06877,0.70232,-0.47807,-0.047783,0.60145,0.12003,-0.22964,0.087981,0.16872,0.18739,-1.5581,-0.35443,1.1202,-0.33738,-0.070638,0.44044,-0.40992,-0.15465,-0.020915,-0.28263,0.19883,-0.020614,0.22559,-0.014736,-0.035835,0.079742,-0.14581,-0.44162,0.24717,0.57029,-0.052704,-0.20263,0.10661,-0.17521
period,0.32526,-0.33676,-0.15523,0.34399,0.038147,-0.12372,-0.3628,-0.34502,-0.0094905,-1.4007,-0.18951,-0.025344,-0.40373,-0.1711,-0.065231,-0.51216,0.31608,0.35223,-0.40623,0.13015,-0.3607,-0.23625,0.28952,0.34675,0.048985,-0.54973,-0.37519,-0.76457,-0.15209,0.4155,0.32787,0.62709,-0.23334,0.177,-0.97616,-0.28967,-0.024501,0.81115,0.21105,0.39594,0.54551,-0.24424,-0.66121,-0.44039,0.21873,-0.3332,0.17005,0.53871,-0.49144,0.38717,-0.027214,0.2164,-0.48794,-0.082994,-0.0082478,-0.49404,0.078367,-0.11492,0.030574,-0.11051,-0.211,0.18915,-0.22426,-1.0618,0.073845,-0.73524,-0.25502,0.031404,0.31628,0.077672,0.095113,0.27384,-0.42792,0.19161,-0.17692,0.31526,-0.0086861,-0.17168,-0.099878,-0.18384,-0.61288,-0.08886,-0.63522,0.48711,0.21822,0.73645,0.16336,0.42799,-0.14335,0.5714,0.13591,-0.072372,-0.47456,0.15695,-0.01897,0.022854,-0.12885,-0.28391,0.3919,0.36995,0.064527,0.24384,-0.25477,0.12585,-0.44255,-0.59056,-0.47596,0.52629,-0.27461,0.20461,-0.054022,-0.26556,-0.44658,0.2318,0.12021,-0.86025,0.026688,-0.31383,0.29376,-0.24647,-0.13101,-0.19281,-0.36169,0.52046,0.77203,0.48948,-0.097098,0.26006,0.45728,0.30073,0.80938,0.15441,-0.065822,-0.50264,0.086269,0.13655,-0.31025,-0.13531,0.32673,0.53634,-0.42294,0.068131,-0.071578,-0.0018804,0.21564,-0.33994,-0.059669,0.54905,0.12168,-0.25723,0.47308,-0.068771,-0.19736,0.26584,0.44505,-0.18794,-0.62294,0.58879,-0.051342,-0.4606,0.14142,-0.19725,-0.091785,-0.48988,-0.0058258,0.78887,-0.14353,0.21829,-0.3273,0.53943,0.54306,0.33661,-0.47913,0.50014,0.048116,0.25335,-0.39836,0.2953,-0.55135,0.60247,-0.13409,0.41622,-0.23852,-0.046566,-0.082964,0.17539,-0.45807,-0.073982,-0.10565,0.37954,-0.044131,0.20859,0.39028,0.19108,0.25691,-0.18345,-0.43818,0.04612,0.30101,0.081782,0.58081,-0.29251,-0.10109,0.22832,0.39052,0.095465,-0.44203,0.66302,-0.62484,-0.27418,0.37607,-0.17214,0.35991,0.10782,-0.13936,-0.073177,-0.017166,0.40214,-0.3038,0.049213,0.47707,-0.16924,-0.1362,-0.070976,-0.35675,0.24505,0.087745,-0.21032,0.62029,0.42656,-0.25261,0.13549,-0.20824,-0.073237,-0.71702,0.12769,-0.11903,-0.24026,0.61917,0.33315,0.013721,0.15487,0.31681,0.58816,-1.0443,-0.030305,0.51795,0.15406,-0.14283,0.19388,0.19614,0.55792,0.23465,-0.58057,-0.28283,0.24848,0.48164,0.45858,0.21573,0.41403,-0.41171,0.2754,-0.0089615,-0.053286,-0.61414,0.073529,0.33108,-0.1967,0.54337,-0.16416,0.24507,-0.16354,-0.060229,0.28738,0.96188,-0.026715,-1.9939,0.047287,-0.033175,-0.30535,-0.2779,-0.087114,0.06866,-0.93425,0.45753,0.74787,0.0076423,0.29801,-0.53204,-0.081568,0.024962,0.47384,-0.52663,0.041708,0.66425,0.5895,-0.15357,0.15951,-0.16987,-0.15295
car,0.46443,0.3773,-0.21459,-0.50768,-0.24576,0.08134,0.10145,0.25155,-0.36152,-1.603,0.28219,0.36653,0.44611,0.2795,0.047722,0.30087,-0.16226,-0.026055,-0.26815,-0.46282,0.25012,0.60389,0.15111,-0.062823,-0.096755,-0.30548,-0.11376,0.53914,0.10966,-0.70618,-0.66316,0.43559,-0.048631,0.27755,-0.48685,0.11938,-0.54538,-0.29563,0.03447,0.53187,-0.001588,0.41692,-0.20742,-0.037833,0.43333,0.047521,0.83507,-0.065088,-0.29974,0.0047139,0.12339,-0.5066,0.2587,0.21264,0.19132,0.54204,-0.11385,-0.42384,-0.27808,-0.15105,-0.62104,0.27678,-0.054974,0.018479,-0.11744,0.33029,-0.35251,-0.21953,0.05514,0.16971,-0.36445,0.36383,0.20496,0.66512,-0.2254,-0.30347,-0.52782,-0.66115,0.11774,-0.14438,0.33886,0.2297,0.63072,0.76929,0.02536,-0.13685,0.084254,0.32036,-0.10431,0.7672,1.0674,0.42885,0.03032,-0.63375,0.70705,-0.17671,-0.1077,-0.31877,0.063781,-0.57507,-0.40656,0.55837,0.72376,0.2645,0.20313,-0.43949,0.53094,0.075492,-0.26951,-0.4277,-0.13859,0.28341,0.13153,-0.32371,0.22816,0.43016,-0.015529,0.13276,0.048239,-0.038536,0.013813,-0.24567,0.4658,-0.61963,-0.39568,-0.21261,0.11121,-0.19519,0.32773,-0.25276,0.87512,0.4986,0.25747,0.46459,-0.097237,0.42509,0.0080811,-0.79669,0.19793,-0.060157,0.06048,0.20092,0.46373,0.29617,-0.31812,0.12548,-0.17667,-0.29347,-0.59183,0.43081,1.0006,0.46858,0.11257,-0.56533,0.54729,-0.43424,0.22738,0.21527,0.087824,-0.073562,0.5316,-0.36782,-0.42531,-0.066561,0.34648,-0.13677,-0.26654,0.099056,-0.052121,-0.61409,-0.0036171,0.32633,0.3905,0.029416,-0.1119,-0.2118,-0.15688,-0.29308,0.23114,0.13873,0.66445,-0.26318,-0.25518,0.29499,0.70132,-0.3239,0.42109,0.27316,0.15021,0.058074,0.24201,-0.62194,-0.40832,0.038272,-0.35372,0.013934,-0.25013,0.42916,-0.039463,-0.29794,1.0178,-0.41685,0.15442,0.19598,0.44718,-0.25764,0.13438,-0.084223,-0.14142,-0.16001,-0.32541,-0.19588,0.13934,-0.44924,0.20827,-0.15747,0.035537,0.37097,-0.15336,0.20401,0.35981,-0.26311,-0.27436,-0.41229,0.45533,0.77527,0.29339,-0.27392,0.45037,0.060015,0.081354,-0.53969,0.31872,-0.082837,0.77918,0.094676,0.75256,0.33377,-0.55349,-0.15661,0.20791,-0.13498,0.4756,0.1218,-0.16496,-0.65669,0.52394,-0.43666,-0.0087235,0.52565,-0.12011,-0.21406,-0.15253,-0.22775,0.59701,-0.64509,-0.445,0.40937,0.11943,0.034467,-0.32471,-0.47915,-0.25264,0.26818,0.059601,-0.51842,0.33124,-0.29623,-0.28343,-0.41471,-0.04505,-0.0017776,-0.37654,-0.023911,0.55602,0.2044,-2.2391,0.14986,-0.098345,0.18714,-0.19265,-0.0061057,0.39897,-0.22392,-0.42168,1.0727,0.29344,-0.47384,0.30169,-0.15307,0.19966,-0.40979,-0.10325,-0.04361,0.17564,0.65709,-0.09986,0.49107,0.28215,0.34554
future,-0.091016,0.026362,0.51944,-0.43926,-0.064377,0.30425,-0.58342,-0.19559,0.075363,-1.8724,0.25389,0.050386,-0.0051439,-0.18468,-0.030455,-0.10679,-0.061155,0.046674,0.15118,-0.016327,0.18129,0.4498,0.18421,0.34667,0.19671,-0.020018,0.26146,0.16427,-0.038681,-0.13502,0.52713,-0.10832,0.25462,0.10639,-0.63979,0.50588,-0.36414,-0.17721,0.092142,0.051935,0.085955,-0.31973,-0.14466,0.18069,-0.29219,-0.18827,-0.17959,0.36215,-0.19654,-0.011707,-0.051524,-0.22383,0.037253,-0.2143,0.22845,0.27858,-0.073915,0.76802,-0.015691,-0.0013772,-0.2626,-0.18928,-0.27452,0.22122,0.44868,0.19007,0.19441,-0.19725,-0.091688,0.28596,0.43831,0.18905,0.014425,0.21915,0.03841,-0.02927,-0.33425,0.26794,-0.072748,-0.16644,-0.030872,0.24106,0.12841,0.4038,0.043811,0.13478,-0.17528,0.43363,0.026806,0.22732,-0.30816,0.25975,-0.53158,-0.16213,-0.25553,0.1363,0.073866,-0.023984,0.21229,-0.38571,-0.092036,-0.022132,-0.19616,0.29496,0.021011,0.58951,0.13966,0.13492,-0.41292,-0.29694,0.037437,-0.25945,-0.13318,-0.024507,-0.029929,0.081611,0.77103,0.18047,0.33762,-0.15381,0.096326,0.22461,-0.3406,-0.010092,0.2574,-0.10329,-0.2909,0.28275,0.25838,0.047235,0.21593,-0.091889,-0.20984,-0.32212,0.53005,-0.34146,-0.0049256,-0.041373,0.10701,-0.072083,0.14096,0.0036,0.12961,0.021707,0.092313,-0.11128,-0.42359,0.20944,-0.48675,-0.26404,0.024391,-0.15723,0.020213,0.38703,0.097029,-0.059802,-0.36058,0.53394,-0.48537,-0.043566,0.22922,0.19306,-0.075282,0.04895,-0.098498,0.13547,0.061606,0.40905,-0.22686,0.44257,0.63288,0.29862,-0.61016,-0.46133,0.22243,-0.082159,0.22892,-0.058329,0.14519,0.18563,-0.017436,-0.32953,0.15627,0.13055,0.13378,0.09775,-0.2825,0.00042551,-0.44091,-0.26574,0.096048,0.072757,0.045859,-0.15494,-0.29105,-0.10882,0.44236,-0.45016,0.15139,-0.054698,1.2553,0.18013,-0.045949,-0.16209,-0.074129,-0.44769,0.51062,-0.057251,0.093341,-0.008898,0.035257,0.0053438,0.17905,-0.19779,-0.054885,0.095397,0.2293,0.53082,0.12567,-0.1738,0.37446,-0.25279,-0.20398,0.41583,-0.026163,-6.13E-05,0.38634,0.23971,-0.018843,-0.16292,-0.35795,0.36188,0.25754,0.11405,-0.2632,0.23593,-0.0034062,0.09831,-0.57182,0.33872,0.037023,0.22865,0.7861,0.25159,-1.0355,0.25678,0.025057,-0.13492,0.013217,0.23714,-0.22644,0.060232,-0.10757,0.27822,-0.14739,0.15422,-0.01347,-0.2871,0.28366,0.32108,0.37644,-0.36173,0.37001,0.15356,-0.080444,0.019341,-0.442,0.16203,-0.13703,-0.2169,-0.11482,0.54046,0.22088,0.14855,0.1536,0.028621,-1.7816,-0.34672,0.92241,-0.54855,-0.046965,0.18542,-0.42082,0.25683,0.24359,-0.46946,0.36099,0.31651,-0.2416,-0.29227,0.036543,-0.22217,0.20702,-0.26145,-0.073176,0.28279,-0.34891,-0.06186,-0.35358,0.7162
share,-0.42182,0.065931,0.15132,0.0091872,0.016615,0.018524,-0.41988,0.48768,0.37153,-1.5301,-0.19777,-0.27314,-0.27495,0.55027,0.15442,-0.48936,0.29708,0.000263,-0.26188,-0.46186,-0.27947,-0.099276,0.14945,-0.0024925,0.23542,0.072171,0.14695,0.55199,0.29441,-0.55846,-0.63902,-0.33671,-0.36482,0.33016,-1.4298,-0.30112,-0.0052996,0.050076,-0.27081,0.17584,-0.19739,-0.040787,-0.30794,0.43713,0.26756,0.17616,0.13764,0.36406,0.23357,-0.14194,0.11209,-0.35485,0.074574,-0.25413,0.15347,0.44001,0.56932,0.67437,-0.072758,-0.62455,-0.17873,-0.0457,0.47836,-0.2288,0.11193,-0.34503,-0.18711,-0.19138,-0.27084,0.23168,-0.22687,0.31092,0.084804,0.32328,0.10256,-0.52246,0.078465,-0.19745,-0.45618,0.10945,-0.1798,-0.036603,0.065037,-0.41829,0.45896,0.42002,-0.098347,0.0013242,-0.278,0.19853,0.12993,-0.31712,0.086527,0.16911,0.034845,-0.27371,-0.45673,0.12096,-0.40535,-0.27331,-0.091594,-0.11669,-0.65491,-0.26989,-0.098859,0.35741,0.24504,-0.18257,-0.51352,-0.12905,-0.18574,-0.89634,-0.011869,-0.16694,0.30074,0.16381,0.18732,-0.11817,0.50401,0.11594,-0.13873,-0.33926,0.41942,0.27774,-0.4295,0.16448,0.20212,0.63017,-0.41846,-0.1925,-0.12642,0.16724,-0.30538,-0.10132,0.62352,0.065654,-0.052166,-0.10079,0.090079,0.13728,0.028875,-0.15852,0.29566,0.16048,-0.62054,0.23792,-0.2926,-0.25388,0.39961,-0.12074,0.36494,0.52096,0.75485,-0.2724,0.027165,0.77153,-0.65763,0.31217,0.029014,-0.17069,0.19605,0.0615,0.25057,0.4288,-0.039755,0.77667,0.35875,0.40029,-0.33608,0.17542,-0.16307,-0.39715,-0.50978,0.23961,-0.16172,-0.74768,-0.38814,0.30097,0.22757,1.0567,-0.3309,0.13585,-0.03166,0.23671,-0.14128,0.39032,0.26203,0.35462,0.054553,0.29806,-0.044586,-0.56629,-0.83432,-0.34672,-0.75869,-0.056543,0.15225,0.012177,-0.0080979,-0.1771,0.8495,-0.39856,-0.38826,0.27871,-0.042534,0.33008,-0.33176,0.083944,-0.25111,-0.15668,-0.50398,-0.21036,-0.013865,0.0059368,-0.16585,0.36971,-0.078187,0.52905,0.059857,0.7078,-0.19354,0.20855,-0.17971,0.45519,-0.53184,0.11973,-0.20192,0.088057,0.20518,0.24209,-0.55299,-0.21985,-0.023096,0.34751,0.31658,0.43605,-0.081132,0.07325,-0.19783,0.21275,0.022427,-0.18577,0.7411,0.36939,-0.99905,-0.67227,-0.11713,-0.68955,0.1362,-0.23928,-0.30283,-0.12453,0.22533,-0.30355,-0.90856,0.19638,0.3055,0.28524,-0.3215,0.6141,-0.047775,0.14962,-0.15648,-0.28937,-0.10015,0.23904,0.3126,-0.3215,-0.44268,-0.024368,0.17803,0.26765,0.68884,-0.10105,-0.20796,-0.19494,-1.2646,-0.42184,0.45834,-0.26432,-0.41565,0.46773,-0.031442,-0.28655,0.0643,-0.10853,0.29246,-0.095164,0.41105,-0.31293,-0.12268,-0.57349,0.19546,-0.09391,0.35586,0.48804,-0.37401,-0.68224,0.12063,-0.64965
land,-0.13323,-0.33145,-0.12925,-0.088247,-0.18082,-0.30744,-0.10603,0.19265,0.16589,-1.4425,-0.45247,-0.28652,-0.22794,0.033763,0.45171,0.61372,0.2971,0.26692,0.18969,0.50988,-0.63708,0.7536,0.33596,0.027781,0.18253,0.032544,-0.35994,0.35832,-0.71194,0.15353,0.37026,-0.015343,-0.40457,0.38199,-0.06724,0.18955,0.25452,-0.74945,0.029599,0.4535,-0.071175,0.016171,0.11852,0.49084,0.41217,-0.41424,-0.023323,0.23987,0.14952,0.59683,-0.12554,-0.13053,-0.26104,-0.05103,-0.19592,-0.49027,0.081839,0.16934,-0.17632,-0.22418,-0.41262,-0.2613,0.012488,0.069573,0.34797,0.22272,-0.11125,-0.23004,-0.023237,-0.078539,0.64974,0.31219,0.14352,0.64525,-0.63116,-0.12384,0.23631,0.045675,0.26435,-0.092091,0.51629,0.11676,0.026987,0.38223,-0.34742,0.31176,-0.039397,-0.24463,-0.32513,0.072572,-0.32833,-0.18124,0.51243,-0.0075369,-0.36899,-0.77418,-0.2272,0.30765,-0.42602,0.26843,-0.15941,0.223,-0.57379,0.25531,-0.7607,0.011383,-0.10662,0.28321,-0.11265,-0.38879,-0.00030818,-0.61982,0.13065,-0.16874,-0.20362,0.21184,0.52353,0.33252,0.46717,-0.19025,0.096108,-0.21624,-0.41679,-0.27399,-0.45897,0.28163,-0.13843,0.78459,-0.113,-0.34451,0.31829,0.3833,0.42239,0.83825,-0.042359,0.52323,0.38721,-0.28883,-0.80101,0.030768,0.15178,0.1202,0.061196,0.064543,-0.69905,0.10208,-0.046758,0.61752,-0.48519,-0.32734,0.17921,-0.17328,-0.37772,0.15302,0.19644,0.41203,0.22981,0.40972,0.46689,0.22647,0.53598,-0.1858,0.49868,0.66174,0.0060724,-0.50524,0.31366,-0.064029,-0.28822,0.070949,-0.11744,-0.1889,-0.07648,0.060119,-0.12403,0.1407,-0.43176,0.013463,-0.11657,0.28794,0.029113,0.46899,-0.092752,0.14212,0.51442,-0.50826,0.11721,-0.034373,-0.28249,0.76843,0.056295,0.28388,-0.1904,-0.35494,0.10791,0.085106,-0.43706,-0.6031,0.6476,-0.07411,0.65756,0.062546,-0.68486,-0.028449,0.32633,0.0063435,-0.21938,-0.24021,0.78735,-0.10339,-0.81076,-0.16653,-0.33505,-0.62309,-0.42708,0.14794,-0.11392,0.60637,0.26903,0.32637,0.33083,-0.73794,0.34126,-0.052567,-0.43152,0.39049,0.35862,0.2324,0.054008,0.071618,0.38628,0.21279,-0.40077,0.10882,0.33353,0.0071776,-0.75428,-0.34919,-0.28955,-0.16229,-0.4271,1.0416,0.83398,-0.15196,-1.0913,0.049205,-0.015356,-0.026536,0.53987,-0.39856,-0.29566,0.19084,0.026442,-0.1333,0.70952,0.031755,-0.024612,0.12902,0.54893,-0.083576,0.065329,-0.25144,-0.10967,0.18338,-0.1257,-0.096725,0.012091,-0.26523,0.15633,0.56102,-0.27181,0.10756,0.26766,0.28837,0.22342,0.018094,-2.2617,-0.21099,0.80782,-0.031188,-0.31844,0.17322,-0.0030691,0.048744,-0.53061,0.12368,0.34741,-0.2503,0.13651,-0.067065,-0.26771,-0.37056,0.046708,-0.15801,0.18093,0.73581,-0.19693,-0.10701,0.13193,-0.15782
village,-0.88831,-0.24847,-0.035535,-0.11018,0.21548,-0.70053,0.14956,0.58627,-0.26446,-0.74668,-0.61093,-0.20076,0.18943,0.52386,0.10063,0.63942,-0.28309,-0.21403,0.35035,0.096388,-0.093523,0.75472,-0.16215,0.53951,-0.6663,-0.76121,-0.25797,-0.45437,-0.0054813,0.74421,1.0319,-0.018951,-0.1185,0.74932,0.20616,0.078128,0.031989,0.13908,-0.26773,-0.48759,0.61117,-0.094445,0.15892,0.4927,0.35568,0.20945,0.25186,0.12791,0.51071,0.30899,0.20822,0.16118,0.30256,-0.17923,0.14017,-0.28901,-0.096863,0.18554,0.69649,-0.083635,-0.28252,-0.23795,0.46634,-0.49405,0.23949,0.049487,-0.28071,-0.15065,-0.26299,-0.51303,0.011826,-0.75807,-0.11069,-0.1935,-0.64345,0.10027,0.3163,-0.37825,0.021983,-0.33043,-0.094233,-0.17867,0.25249,0.22875,0.4397,-0.31489,-0.19762,-0.31542,0.52062,0.0090367,0.14237,-0.58686,0.55972,-0.083072,0.58393,0.29434,0.032711,-0.2222,-0.12657,0.56295,-0.022933,0.34153,-0.041229,-0.26297,0.15422,0.21936,1.2152,-0.18462,0.26961,-0.088415,-0.13874,-0.59549,-0.14081,0.24481,0.16634,0.46479,-0.099179,-0.32694,-0.17032,-0.030411,-0.13618,0.25169,0.30074,0.1807,0.35493,0.65518,0.043199,0.55073,-0.2939,0.10374,-0.33325,0.068827,0.27067,-0.017948,0.16919,0.052475,0.21649,-0.40263,-0.35258,-0.2973,-0.13619,-0.13528,-0.15556,0.18743,-0.80152,0.1192,0.72076,0.28448,-0.43976,0.062317,-0.039223,0.12008,0.10526,-0.25379,0.64493,0.25233,-0.082138,0.1368,0.49643,0.11426,0.46872,-0.20018,-0.33556,-0.75284,-0.94007,-0.04095,0.14382,-0.21984,0.43415,-0.53428,-0.24471,0.19795,0.24661,0.39519,-0.093223,0.58581,-0.43641,-0.69731,-0.14966,0.11102,-0.5859,0.29273,-0.37356,0.18866,0.71406,0.1159,-0.61602,-0.35341,0.0084677,0.58729,0.55372,0.15718,-0.18875,0.1767,-0.88332,0.044582,-0.1099,-0.54435,0.19992,0.032516,0.66936,-0.19279,-0.57641,0.40846,-0.18649,-0.60069,-0.23756,-0.29827,-0.083915,0.4019,-0.51357,-0.049196,-0.22017,-0.6769,0.027907,-0.49054,0.13538,-0.16726,-0.23334,0.51685,0.067235,-0.45029,0.047843,-0.37736,0.52009,-0.58511,0.13101,-0.11317,-0.2293,0.18137,0.30439,0.25011,-0.82401,0.056921,0.53447,0.087375,0.21354,-0.49881,-0.0039977,0.49147,0.4234,0.093959,0.64735,-0.022259,-0.4271,0.22782,0.34444,0.45112,-0.14915,-0.093861,0.20609,0.47919,0.0017008,-0.3953,0.64557,0.32716,-0.01897,-0.019451,-0.13607,-0.39974,0.34183,0.53283,0.22506,-0.23511,-0.32416,-0.49539,0.2707,-0.24875,0.36438,0.1486,-0.76946,-0.065518,0.33319,0.092336,0.19156,0.26303,-2.0785,0.41303,0.083145,-0.088859,-0.4232,0.29169,-0.11175,-0.60514,-0.25167,0.6537,0.27707,0.12059,0.35112,0.90694,-0.43187,-0.07399,-0.36021,-0.72952,-0.38699,0.67152,0.19731,0.23115,-0.19041,0.49545
dollar,-0.33393,-0.023995,-0.2514,0.37349,0.16201,0.41401,0.03774,-0.14957,0.2572,-1.8854,0.012101,0.039211,0.2696,0.5904,-0.011468,-0.56131,0.011466,-0.34384,0.066598,-0.66953,-0.2044,-0.37522,0.59049,-0.41825,0.04081,0.0025189,0.25073,0.17367,0.035524,-0.0038837,-0.23063,0.077081,-0.12165,0.93244,-1.177,0.013917,0.31686,0.096691,0.50376,0.55795,-0.87188,0.15354,-0.080106,0.61228,0.45469,0.29766,0.0030611,-0.41872,-0.35028,1.1653,0.22053,-0.59563,-0.39165,-0.25683,-0.031893,0.17071,0.09633,1.1568,0.28195,-0.21316,0.42115,0.18196,0.25906,-0.72704,0.19723,0.3855,-0.18405,-0.41333,-0.11643,0.075803,-0.026836,0.6434,-0.14146,0.28495,1.2423,-0.3982,0.22997,-0.10354,0.59899,-0.17449,-0.17072,-0.47568,-0.22648,0.46787,0.49967,0.19037,-0.26191,-0.19056,-0.38594,-0.23982,0.57064,-0.3837,-0.18295,-0.60336,0.32153,-0.16678,-0.37557,0.050182,-0.50848,0.4592,0.37681,-0.07898,-0.025122,0.32054,-0.018428,0.020998,-0.04745,-0.035758,-0.0068003,-0.16948,-0.26862,-0.3983,-0.067096,0.20109,0.94541,1.0029,0.62793,0.50561,-0.032719,-0.81434,0.45601,-0.76708,-0.66832,0.20942,0.049726,0.42131,-0.070273,0.11921,0.37176,0.0095735,-0.61583,1.1782,-0.025253,-0.26842,-0.37855,-0.12879,0.0058422,0.084877,-0.056979,0.044486,0.2978,-0.20064,0.48837,0.75892,-0.47346,-0.71106,-0.73983,-0.11791,0.6039,0.35558,0.43226,0.18731,-0.063573,0.2466,0.15673,0.13433,-0.75531,-0.74498,-0.9838,0.33089,-0.59224,-0.0079284,-0.063844,0.6961,0.14795,0.013701,-0.24328,-0.22654,0.0081516,0.3701,-0.16602,-0.48426,-0.55729,-0.017902,-0.16969,-0.20592,-0.42256,0.090275,0.39466,1.0217,0.10565,0.014982,-0.44635,-0.061075,-0.12448,0.068451,0.83841,0.0074921,-0.13811,-0.34646,0.38702,0.6367,-0.15824,0.44807,-0.83116,-0.70078,0.20667,-0.076185,0.43927,0.11096,1.4612,-0.12408,-0.34598,-0.23576,-0.21351,0.3773,-0.42571,0.10164,0.12759,0.026379,-0.29997,-0.37637,-0.18276,-0.75667,0.5406,-0.11886,-0.40956,0.81769,-0.17557,0.61652,0.63783,0.015024,-0.28222,-0.19552,-0.29035,0.30979,-0.45424,0.69322,0.1834,0.24468,0.35574,0.022064,0.050431,0.78913,0.24989,-0.32495,0.13669,0.45587,0.73523,0.40586,0.45839,-0.38486,0.19387,0.26478,-1.0048,-0.060123,-0.44067,-0.40705,-0.13638,-0.38523,-0.26924,0.53099,0.44283,0.42711,-0.0079399,-0.17969,-0.82733,0.22586,0.3333,1.0707,-0.18608,0.44689,-0.41371,-0.0081162,0.9366,0.19984,0.60473,0.7541,0.1528,-0.44118,0.19145,-0.56369,0.11212,-0.39321,-0.50046,-0.2429,-0.98084,-0.21202,0.096505,0.47289,0.22902,-0.17095,-0.26372,-0.65032,0.3687,-0.407,0.54652,-1.1361,-0.75568,-0.29469,-0.27741,0.042802,-0.45464,0.40499,0.32267,0.40026,-0.52001,-0.052256,0.11739,0.0031703
gold,-0.20251,0.16374,0.076373,0.22963,0.23929,0.020058,-0.042634,0.09955,0.22475,-1.0848,0.32613,0.0071448,-0.45235,0.59744,-0.05151,-0.36956,0.18705,0.3531,-0.43998,-0.40122,-0.2475,-0.21747,0.36874,-0.37033,0.48721,-0.6614,0.37061,0.24375,-0.15869,0.050708,0.17065,0.15164,-0.14019,0.3931,-1.3888,0.45497,-0.2891,0.15443,0.4295,0.30576,-1.1487,-0.56131,0.18957,0.62655,0.95906,-0.015095,-0.16575,-0.087152,-0.14551,0.33268,-0.43272,-0.013112,-0.027341,-0.069094,-0.12354,0.61634,-0.67351,0.12726,-0.02409,-0.6208,0.16886,0.56302,-0.016824,-0.67932,0.63499,-0.11326,-0.5625,0.20978,0.19099,-0.0057746,-0.28623,-0.31426,-0.32152,-0.01559,-0.84442,-0.059847,0.4841,-0.90333,0.29438,0.034394,0.21524,0.072725,0.046604,-0.20434,0.83263,-0.35077,-0.61816,-0.76075,-0.13703,-0.10267,0.46782,0.23534,0.32869,-0.35662,0.31671,0.49754,-0.72322,0.34064,0.11493,-0.078595,0.52996,0.10505,-0.80036,0.35805,0.10277,-0.24558,0.31727,-0.14377,-0.87175,-0.18705,-0.75178,0.42696,0.18627,-0.62755,-0.12241,0.54428,-0.031138,0.4581,0.36921,-0.057987,-0.023054,0.50564,-0.036837,-0.056734,0.10646,0.42664,0.058674,1.2125,-0.48425,-0.1994,-1.1465,0.39594,-0.12705,-0.32872,-0.32346,0.34997,-0.39777,0.12984,-0.020201,0.25896,0.24858,-0.17151,0.22667,0.11831,0.21914,-0.83256,0.21078,-0.066466,0.25547,-0.26466,0.70801,-0.0030845,-0.024307,-0.29822,0.26414,-0.13821,-0.92861,-0.49621,-0.51558,-0.39258,0.086551,-0.54039,0.54582,0.56513,0.6562,0.13328,0.035202,-0.0081717,0.48965,-0.017746,-0.47671,0.29972,-0.048425,-0.17323,0.4543,-0.37024,0.47742,0.34955,-0.51859,0.67322,-0.46807,0.6141,0.019216,-0.58036,0.70482,0.19536,0.43404,0.20331,-0.0074783,-0.081561,0.41586,0.18909,0.019232,0.18589,-0.19172,-0.6539,0.21829,-0.463,0.3532,0.55678,1.852,-0.061687,-0.59382,-0.10967,0.23398,0.23275,-0.053428,-0.28194,-0.041967,-0.074948,0.17308,-0.27558,0.13445,0.35778,0.70133,-0.02821,0.10017,-0.35654,-0.050799,-0.36278,0.094827,-1.0601,-0.057652,-0.014969,-0.287,0.043743,-0.62418,0.35405,-0.22578,0.28459,-0.32463,0.38974,-0.066317,0.22207,0.13919,0.35676,0.11762,-0.28101,-0.06213,-0.4686,-0.12427,1.0215,-0.33248,0.48392,-0.58134,-0.45677,-0.60421,-0.38873,-0.34259,-0.067208,-0.52378,-0.00054108,0.082693,0.18257,0.55332,-0.55421,0.013712,0.21429,0.12776,-0.40115,-0.48403,-0.40766,0.83437,0.36659,0.10131,0.87266,-0.05934,-0.0051016,-0.47836,0.25571,-0.4756,-0.827,0.47716,0.62516,-1.1489,-0.21872,-1.2229,-0.77257,-0.34083,0.17705,0.29334,-0.053574,-0.73523,0.32656,0.093496,0.033542,-0.22874,-0.15545,-0.55138,-0.20299,-0.51745,0.2326,-0.41856,0.569,0.03211,0.23589,0.71115,-0.019461,0.21158,-0.1042
investment,-0.10589,-0.34152,-0.17129,-0.14178,0.63072,-0.099786,0.367,0.80461,-0.3644,-2.1446,0.54234,0.19432,-0.19554,-0.39494,0.056915,-0.67052,-0.24025,-0.28055,0.1227,-0.34599,-0.41913,0.096945,0.22261,0.13425,-0.142,0.25892,0.0060226,0.46467,-0.14261,0.12659,-0.53453,0.6372,0.47792,0.078532,-1.3441,0.19615,-0.20127,0.21121,0.36538,-0.47119,0.16991,-0.098953,-0.2936,0.51489,-0.089256,-0.46023,-0.58153,0.63491,-0.25524,0.46804,-0.35463,-0.3614,0.018135,-0.39831,0.26571,0.42364,-0.02788,0.6351,-0.16862,-0.12621,0.36115,-0.49938,-0.34631,-0.25111,0.27494,0.82471,0.15279,-0.35209,-0.018231,-0.1494,-0.19363,0.47962,0.86136,0.62457,0.25636,0.26379,-0.040444,-0.37007,-0.1573,-0.36831,0.072772,-0.041904,-0.10612,-0.026332,0.67895,-0.07924,0.16307,-0.29326,0.0061581,-0.54785,-0.29161,0.7504,-0.91743,0.0098924,0.097476,-0.0073822,-0.57661,-0.050062,0.077726,-0.22159,-0.24607,0.27858,-0.14138,-0.22977,-0.42489,0.15908,-0.72621,0.071042,0.15344,-0.010505,-0.11817,-1.4124,-0.6209,0.32535,0.20074,-0.42242,0.28747,-0.12736,0.076983,0.31679,0.66624,-0.06617,-0.20364,0.11935,0.20173,-0.15592,0.41366,-0.18356,-0.84435,-0.35695,-0.12554,0.16017,0.3252,-0.33055,-0.47853,0.3386,-0.18596,-0.18366,-0.56714,-0.24008,-0.31355,-0.12358,1.0792,-0.14574,-0.055123,0.17654,0.014563,0.00075749,-0.40866,-0.034662,0.65867,-0.088748,-0.04345,-0.21214,0.067335,0.2361,-0.12176,0.11209,-0.52889,-0.082319,0.06969,0.50769,-0.18864,0.33888,0.30822,-0.51395,0.72761,-0.14773,0.064806,0.66104,-0.046441,-0.20472,-0.85962,-0.4268,-0.31375,-0.098687,0.16175,-0.55991,-0.16089,0.72927,0.039968,-0.40495,-0.013549,-0.11937,0.29043,-0.13438,-0.11725,-0.14679,-0.26959,-0.2438,0.060776,0.068505,-0.24824,-0.18256,0.27184,-0.43518,0.60727,-0.66639,0.207,-0.12089,0.34502,-0.1992,-0.11022,0.18662,-0.12701,0.31419,-0.11686,0.35737,0.64501,-0.43704,0.11271,-0.81736,-0.13703,-0.75506,0.34859,0.33059,0.61381,0.78544,-0.29501,-0.057139,0.42212,-0.047761,-0.14482,0.061228,-0.14312,0.0043938,-0.02476,0.27119,0.19969,-0.0033292,-0.7465,0.15153,0.066143,0.58672,-0.044056,-0.12042,-0.10338,-0.30575,-0.10506,-0.024704,0.71925,-0.39397,0.56253,0.051372,-0.49178,0.091612,0.36497,-0.67697,-0.068354,-0.26147,0.27529,-0.21635,0.36297,-0.27006,0.15776,-0.083443,-0.84922,0.18413,-0.2129,0.045947,0.43043,0.257,0.17751,-0.07703,0.03906,0.12076,0.57671,-0.04315,-0.1638,0.068963,-0.77893,-0.075699,-0.010338,-0.2417,0.089781,-0.53147,-0.95146,-0.37499,0.33457,-0.19326,-0.26782,-0.49285,-0.68393,-0.30697,-0.0019154,0.47622,0.44696,0.040397,0.46303,0.072794,-0.1045,-0.047439,-0.41224,0.30232,0.79978,0.797,-0.24328,0.15368,-0.13643,0.48892
mark,-0.011797,-0.18725,-0.099959,0.0099285,-0.22513,-0.085235,-0.37409,0.38075,0.64933,-0.90444,0.66635,0.1883,-0.25204,0.17883,0.25757,-0.20138,0.16654,-0.17335,-0.78618,-0.15184,0.24057,-0.27105,0.16378,-0.43033,1.0317,0.35483,0.020027,0.29301,-0.1517,-0.49297,0.056852,0.47816,-0.39495,0.61785,-1.7576,-0.50293,0.31623,0.010847,0.56277,-0.35279,0.027537,0.3425,-0.73001,0.15473,-0.041104,0.24678,-0.52163,-0.040757,-0.020004,0.40317,0.17106,-0.2235,-0.41527,0.38513,0.055423,0.48113,-0.37388,0.38012,-0.42198,-0.15294,0.54621,0.034686,0.45635,-0.22032,0.26215,-0.35605,0.04781,-0.034345,-0.016778,0.0028023,-0.27875,-0.055068,-0.51858,-0.059889,0.0081175,-0.16877,0.78071,0.95249,0.62291,0.21647,-0.074062,0.13799,-0.3228,-0.080531,0.26897,-0.047549,-0.26838,0.26972,0.45175,0.097107,0.51558,0.56709,-0.26439,-0.81766,0.43014,-0.2776,0.42865,0.24701,0.023204,0.095673,-0.079326,-0.55217,0.13245,0.084526,-0.15995,-0.39189,0.60796,0.67344,0.021995,-0.1928,-0.401,0.55032,0.18294,-0.081025,0.016536,0.075134,-0.024124,-0.1672,-0.11823,-0.78935,-0.4848,0.31211,-0.66144,-0.1054,-0.014033,-0.14746,0.53483,-0.33929,0.20648,0.29092,-0.015378,0.10433,-0.17927,-0.054158,0.30413,-0.025439,-0.0075792,-0.43798,0.65897,-0.27004,0.25714,-0.043228,0.75916,0.19911,-0.37071,0.008637,-0.36516,0.022605,-0.64281,0.31513,0.93144,0.037491,-0.40324,-0.13977,0.30213,0.059277,-0.40269,-0.62261,-0.34697,0.3386,0.052648,-0.33406,0.057008,-0.29806,-0.22352,0.51499,-0.061518,0.2735,-0.18232,0.27845,-0.0722,-0.011033,-0.28825,-0.19958,0.018753,0.38513,0.1681,0.22199,-0.17225,0.48521,0.56479,0.58232,0.19948,0.12466,-0.013976,-0.12788,-0.18301,0.065475,0.11799,0.96179,0.21078,0.093876,-0.38723,0.67621,0.57708,-0.1257,0.28357,0.0038985,0.2442,-0.090281,1.2612,0.26491,-0.51776,-0.64447,-0.12543,0.05864,-0.28771,0.39378,-0.23748,-0.11227,0.29612,-0.024253,0.21338,-0.40346,-0.012161,-0.48345,0.36435,0.56054,-0.24136,0.083216,0.19847,-0.08794,-0.355,-0.11066,0.54236,-0.18964,0.23175,0.49861,-0.16281,-0.10098,0.34352,0.10426,0.096485,-0.097658,-0.5078,0.22458,0.070584,0.46172,0.58669,-0.33017,-0.75761,-0.39734,0.52154,-0.10976,-0.24562,0.10391,-0.03083,-0.14006,-0.019074,-0.29473,0.51197,-0.23862,-0.042679,-0.39524,0.47672,0.013558,0.49097,-0.69034,0.36984,0.39372,0.094909,0.31634,0.5389,-0.11662,-0.085074,0.73377,-0.16329,0.01904,0.17381,0.3924,-0.4662,0.083188,-0.047934,-0.27353,-0.13906,-0.072744,-0.90152,-0.42256,-0.39767,0.032667,0.27079,0.10758,-0.17297,-0.5144,-0.36482,-0.080434,0.047131,-1.0522,-0.19034,0.64828,-0.073673,0.28364,-0.12098,0.53017,-0.51129,0.56399,-0.27893,0.19156,0.086576,0.22374
love,-0.45205,-0.33122,-0.063607,0.028325,-0.21372,0.16839,-0.017186,0.047309,-0.052355,-0.98706,0.53762,-0.26893,-0.54294,0.072487,0.066193,-0.21814,-0.12113,-0.28832,0.48161,0.69185,-0.20022,1.0082,-0.11865,0.5871,0.18482,0.045799,-0.017836,-0.33952,0.29314,-0.19951,-0.1893,0.43267,-0.63181,-0.2951,-1.0547,0.18231,-0.4504,-0.278,-0.14021,0.036785,0.26487,-0.66712,-0.15204,-0.35001,0.40864,-0.073615,0.6763,0.18274,-0.04166,0.015014,0.25216,-0.10109,0.031915,-0.11298,-0.40147,0.17274,0.0018497,0.24456,0.68777,-0.27019,0.80728,-0.058296,0.4055,0.39893,-0.091688,-0.5208,0.2457,0.063001,0.21421,0.33197,-0.34299,-0.48735,0.022264,0.27862,0.23881,0.097794,0.38023,-0.037744,-0.41966,-0.19145,-0.09583,0.26871,0.52876,-0.2687,-0.3445,0.25413,0.13606,0.36528,0.08196,-0.52224,0.034159,0.17019,-0.1052,-0.80873,-0.18095,-0.060823,0.26014,-0.078717,-0.15161,-0.68438,0.21809,0.04733,-0.12147,-0.33892,-0.018629,0.24546,0.27374,-0.27045,-0.087233,-0.47871,0.1963,0.023124,0.19453,-0.4686,0.44499,0.1836,-0.1648,0.38598,0.3607,-0.31108,-0.34627,0.19004,-0.098683,0.33821,-0.13978,-0.72723,-0.1066,0.0019208,-0.33093,0.35117,0.15491,0.1715,0.28933,-0.049213,-0.50567,-0.23513,-0.28005,-0.28487,-0.24393,-0.040838,-0.27223,0.094564,0.17332,0.18691,-0.13585,-0.46439,-0.45677,0.09789,0.039113,0.17901,-0.45629,0.4752,-0.20388,0.24123,0.67551,0.062105,-0.1894,0.15054,0.15875,-0.23365,0.37429,-0.23463,0.40692,0.14035,-0.42971,0.56713,-0.26706,-0.068028,-0.51264,-0.30945,-0.39065,-0.27004,-1.1802,0.6648,-0.24366,0.39183,-0.2897,-0.18839,-0.49282,0.14538,0.24467,-0.004434,0.23265,0.074544,-0.30006,-0.30272,-0.12394,0.33473,0.3388,0.097445,-0.33773,-0.54316,-0.47514,-0.15696,-0.93516,-0.087034,-0.26743,0.00064641,0.3194,-0.0062562,1.5854,0.12484,0.48481,0.075394,0.18963,-0.10226,0.47413,0.70402,-0.064418,-0.010181,-0.68619,0.015335,0.047851,0.3765,0.10487,0.22974,0.45352,0.31482,0.05888,0.067096,0.15679,0.13099,0.034581,-0.073896,-0.36433,-0.18847,0.041556,-0.20124,-0.073918,0.38752,0.16759,-0.40627,-0.01322,-0.71793,-0.22904,0.20474,-0.13648,0.37779,-0.40003,-0.050106,-0.37799,0.072109,0.023057,0.23879,-0.22423,-0.084834,-0.70726,-0.16182,0.26373,0.12226,0.080282,0.075963,-0.34695,0.37703,0.36612,-0.098416,0.474,-0.25085,0.18641,-0.25993,0.039035,-0.61394,0.14721,-0.67619,-0.12489,0.38031,-0.28061,-0.3968,0.024165,0.098706,0.24838,-0.45881,0.2031,-0.43515,-0.0077804,-0.024642,-1.3204,-0.41078,0.28145,0.028188,-0.2047,0.16037,-0.16696,0.13761,-0.36714,0.13801,-0.20688,0.38274,0.21289,-0.075001,-0.50367,-0.029295,-0.021254,-0.24253,0.3353,-0.35534,0.25358,0.038906,0.24314,-0.028696
fund,-0.6168,-0.24716,0.23551,0.2112,0.66057,0.13893,0.78714,-0.18769,-0.41859,-1.7625,0.59394,0.44318,-0.1563,-0.26435,-0.089317,-0.45827,0.4488,-0.28713,0.08363,-0.22602,0.14067,-0.33188,0.1164,-0.091251,0.24199,0.29154,0.072954,0.37862,-0.12071,0.15505,0.12346,0.33697,0.31044,-0.088236,-1.309,-0.066725,0.27081,0.73549,0.59992,-0.063553,-0.34193,-0.23225,0.34416,0.51015,-0.057329,-0.31114,-0.23932,0.054144,-0.058114,0.50012,-0.04805,-0.018245,-0.35854,-0.37975,-0.091368,-0.037474,-0.23199,0.69172,-0.2095,-0.1153,0.077141,-0.40839,0.14076,-0.075618,0.31821,0.62067,0.28374,-0.4233,-0.19682,-0.56573,-0.07461,0.79065,0.77349,0.6059,0.34431,0.020309,0.4892,0.35146,-0.15559,-0.48574,0.32731,0.47651,0.028682,0.23598,0.32576,-0.32543,-0.053236,0.29661,-0.62172,-0.65147,-0.45776,0.35119,-0.72125,0.24573,0.0082307,-0.11135,0.0067135,0.012849,-0.4334,0.27967,0.27098,0.31105,-0.15663,-0.20382,0.44045,-0.099144,-0.24014,0.13568,0.41287,-0.032946,-0.53088,-0.40433,-0.50166,0.68102,-0.098185,-0.24476,0.18983,-0.076597,-0.0089039,-0.21066,0.33547,0.33098,-0.23587,0.36193,0.51972,-0.041845,-0.089611,0.54384,-0.52579,-0.091863,0.15315,-0.068414,0.20607,-0.047935,-0.21862,-0.17906,-0.27758,0.25408,-0.64707,-0.16538,-0.12111,-0.44135,0.30774,-0.031554,0.462,0.013334,-0.34351,-0.33651,0.35559,0.082141,0.80061,-0.014973,0.33055,-0.13074,-0.52494,0.060103,0.17311,-0.5,-0.15674,0.011032,-0.13141,0.63496,-0.1815,-0.25847,-0.30601,-0.28689,0.36276,-0.48008,-0.026676,0.25953,0.25774,0.11155,-0.59942,0.31886,-0.22064,0.016142,0.096203,-0.11451,0.071652,0.98691,-0.079787,-0.21148,-0.090317,-0.011949,-0.10371,0.26986,-0.12356,0.084706,-0.20524,-0.36831,0.055266,0.20318,-0.56342,0.063962,-0.28913,-0.20901,0.79742,-0.18887,0.0076146,0.40689,0.61107,-0.40103,0.24763,0.15554,-0.11354,0.3149,-0.71702,-0.25658,0.40516,-0.47523,-0.0055581,-0.20829,-0.10328,-0.98059,-0.14498,0.49834,0.067119,0.014663,0.095139,0.38538,0.36953,0.1206,-0.33105,0.11623,0.14647,-0.30642,-0.16381,0.30141,-0.52425,0.42559,-0.57999,-0.1432,0.1653,0.94786,0.019818,0.48036,-0.45419,0.11621,0.17643,-0.16902,0.54559,-0.52586,0.78884,-0.21165,-0.71481,-0.053514,0.70844,-0.71016,-0.15414,-0.22251,-0.18638,-0.39692,-0.098966,-0.050884,0.36859,-0.21914,-1.0745,0.15096,0.021742,-0.16269,0.3123,0.89106,0.048487,0.17877,0.23374,0.11573,-0.024166,0.67147,0.18636,0.30534,0.081917,-0.15378,0.084573,0.15518,0.16811,-0.36369,-1.5937,-0.17681,0.56783,0.17539,-0.40842,-0.33863,-0.47865,-0.16803,-0.1896,0.66143,0.055602,-0.032349,0.24658,-0.46077,-0.12718,-0.21559,-0.69144,0.38253,0.21581,0.48399,-0.087125,0.034712,-0.018376,0.11221
income,-0.63459,0.25192,0.4761,0.32131,0.2231,0.46315,0.3454,0.40293,-0.82083,-1.6638,-0.60697,-0.023187,0.28686,-0.081395,-0.37281,-0.22349,0.18168,-0.20578,0.52112,-0.53556,0.13973,0.46029,-0.47247,0.29746,-0.46223,0.029533,0.24807,0.081306,-0.094635,0.44165,-0.55056,0.54808,0.11177,0.25192,-1.278,-0.74362,0.26759,0.34739,0.53857,0.17155,0.61581,-0.37296,-0.33625,0.32102,-0.16375,-0.30515,-0.41944,0.54737,0.013088,0.55601,0.57065,0.28323,0.31603,-0.25682,-0.34236,-0.4764,-0.053529,0.26567,0.032658,0.39507,-0.10026,-0.51564,0.31201,-0.33401,0.11583,-0.14688,-0.245,-0.0024511,0.02436,-0.14862,-0.25901,0.092428,0.074099,0.20651,0.25858,0.15171,0.18531,-0.28848,0.13907,0.21272,0.057692,-0.21978,0.16086,-0.41428,0.2828,-0.62856,0.31394,-0.51807,-0.39167,0.37984,0.059068,0.10485,-0.062996,-0.15409,0.0072215,-0.11167,-0.39054,-0.28897,-0.26916,-0.093416,-0.21476,-0.21809,-0.21893,-0.26461,-0.12262,0.3696,0.1601,-0.10662,0.002128,-0.17682,0.041923,-1.1672,0.38166,0.14475,0.024895,0.48657,0.7151,-0.63472,-0.29702,0.28399,0.47826,0.30749,0.32662,0.71359,0.35188,0.055845,0.60107,-0.13309,0.25814,0.63861,-0.40007,0.4368,0.0017599,0.36948,0.0068018,-0.41895,-0.48606,0.10138,-0.18457,-0.32848,-0.36307,-0.14878,0.85952,-0.20841,0.20054,0.68743,-0.25305,0.38639,0.49986,0.022387,0.37936,0.012212,0.028167,-0.19286,-0.51901,0.26238,-0.59885,-0.13934,0.19713,-0.77462,0.14342,0.13223,-0.019978,0.23735,0.098869,-0.17362,0.1645,-0.31955,0.21432,0.61122,0.022684,-0.15969,-0.39759,0.54485,-0.12553,-0.43527,0.14279,0.020058,0.28734,1.4357,0.45473,-0.47302,-0.48725,0.36416,0.30033,0.13579,0.32113,0.0067106,-0.49019,0.7228,0.11016,0.77986,-0.14518,0.036739,0.10516,0.13519,0.14376,-0.33302,0.51422,-0.27485,-0.076479,-0.083705,-0.1286,0.3211,0.028647,-0.0087032,0.083833,-0.10227,0.15683,-0.32542,-0.55403,-1.0431,-0.13199,-0.14802,0.099762,0.56067,-0.22559,0.68285,0.57491,0.63162,-0.21268,0.3415,0.12476,0.14077,0.11901,-0.037668,0.31763,0.42771,0.21337,0.37101,-1.31,-0.1522,0.062658,0.45076,-0.053078,-0.073455,0.013664,-0.072727,0.25258,0.44437,0.085899,-0.31322,1.2424,0.5884,-1.4065,-0.3647,0.86139,-1.0121,-0.10134,-0.32508,0.00347,0.49125,0.48805,-0.36376,-0.17,0.19243,-0.43616,0.68781,0.019373,0.29097,0.075511,0.50974,-0.10879,-0.12326,-0.11882,0.26346,0.9231,0.084493,-0.27477,0.39224,-0.2059,0.26933,0.062515,0.12388,-0.42218,-0.65361,-1.6226,0.70586,0.37553,-0.14929,-0.59494,0.13823,-0.27976,-0.19781,-0.52161,1.0327,0.3115,-0.16516,0.22004,0.33419,-0.045422,0.13709,-0.15938,0.28556,0.44018,0.06238,-0.17343,0.11609,0.28424,0.47326
