ConceptName,1,2,3,4,5,6,7,8,9,10,11,12,13,14,15,16,17,18,19,20,21,22,23,24,25,26,27,28,29,30,31,32,33,34,35,36,37,38,39,40,41,42,43,44,45,46,47,48,49,50,51,52,53,54,55,56,57,58,59,60,61,62,63,64,65,66,67,68,69,70,71,72,73,74,75,76,77,78,79,80,81,82,83,84,85,86,87,88,89,90,91,92,93,94,95,96,97,98,99,100,101,102,103,104,105,106,107,108,109,110,111,112,113,114,115,116,117,118,119,120,121,122,123,124,125,126,127,128,129,130,131,132,133,134,135,136,137,138,139,140,141,142,143,144,145,146,147,148,149,150,151,152,153,154,155,156,157,158,159,160,161,162,163,164,165,166,167,168,169,170,171,172,173,174,175,176,177,178,179,180,181,182,183,184,185,186,187,188,189,190,191,192,193,194,195,196,197,198,199,200,201,202,203,204,205,206,207,208,209,210,211,212,213,214,215,216,217,218,219,220,221,222,223,224,225,226,227,228,229,230,231,232,233,234,235,236,237,238,239,240,241,242,243,244,245,246,247,248,249,250,251,252,253,254,255,256,257,258,259,260,261,262,263,264,265,266,267,268,269,270,271,272,273,274,275,276,277,278,279,280,281,282,283,284,285,286,287,288,289,290,291,292,293,294,295,296,297,298,299,300
television,-0.010235,0.49734,0.43753,0.20773,-0.18519,0.42344,-0.9581,-0.00028301,-0.2469,-1.2283,0.17843,-0.037724,-0.017456,0.34462,0.97518,0.11627,-0.14798,-0.20885,0.86698,-0.76985,0.40339,-0.23947,0.11255,0.70827,0.27867,-0.081222,0.093359,-0.20819,-0.08127,-0.061335,-0.64506,-0.58936,0.025465,0.61317,-1.2134,-0.34435,-0.33753,0.18602,0.1318,0.46407,0.33519,-0.2612,-0.12323,0.39394,-0.33076,0.14562,-0.23713,0.31805,0.31377,-0.02129,-0.33171,0.10554,0.023664,-0.50646,0.14656,0.29308,0.085241,0.092037,0.43843,-0.53709,-0.26656,-0.0077511,0.29384,-0.11785,0.28125,0.61454,0.46773,0.21343,0.35156,0.17915,-0.058305,0.66567,-0.49871,0.13633,0.17414,0.24971,-0.048233,0.27852,-0.046773,0.43673,-0.51457,-0.54052,0.088176,0.44051,-0.35312,0.67685,-0.18453,-0.37993,0.23185,0.11563,-0.28498,0.18583,0.041751,0.69749,-0.24886,0.006283,-0.38335,-0.088715,0.49965,-0.93254,0.39211,0.35762,-0.2011,0.013919,0.48843,0.79096,-0.12271,0.34715,0.091224,-0.0071974,0.20313,0.46258,0.15282,-0.09015,0.37029,-0.21711,-0.55396,-0.35675,-0.52761,-0.4862,0.062435,0.44126,0.27192,-0.25893,-0.25663,-0.30598,-0.24872,0.1457,-0.47643,-0.24615,-0.31175,-0.28068,0.084084,-0.21753,0.2134,-0.37935,0.59934,0.19577,-0.16502,0.46881,-0.4601,0.22444,0.27332,0.27981,-0.013964,0.011548,0.27898,-0.15541,-0.020452,-0.16618,1.4072,0.38056,0.040763,0.32784,0.12551,0.31825,0.32836,0.39416,0.45028,-0.51102,0.39752,-0.014556,0.13926,-0.26396,0.42527,0.55799,-0.33864,-0.34028,-0.31718,0.35915,-0.0082957,0.17206,-1.3255,0.62806,0.066538,0.86808,-0.31477,0.19695,0.34765,0.24892,-0.1613,0.15044,0.77827,-0.15468,-0.50577,0.26224,0.14732,-0.025148,0.074137,-0.36948,-0.23049,0.41352,-0.27458,0.061316,0.33854,0.069341,-0.39601,0.52898,-0.31247,0.29258,1.5448,0.13966,-0.044574,0.20127,0.29153,-0.062741,0.06639,0.19381,-0.13462,-0.52804,-0.013603,0.06046,-0.18794,-0.20918,0.11973,0.14634,0.10833,-0.28146,0.2337,0.42859,0.35329,-0.094024,0.24547,-0.5054,0.3518,0.5812,0.62092,-0.73788,0.38094,-0.33929,0.47122,-0.15555,-0.10588,-0.037915,0.26489,0.19232,0.68074,0.20325,-0.75578,-0.7089,0.46471,0.29018,-0.12048,-0.259,-0.10763,0.062518,-0.26149,-0.58066,0.079358,0.051917,0.12877,-0.11517,0.034331,0.54275,0.51931,0.091482,-0.45389,-0.072484,0.24741,0.31063,0.31255,-0.27727,-0.21017,0.17578,0.38724,-0.65923,0.11933,-0.10008,0.40489,0.13793,0.39338,0.25883,-0.32686,-0.31868,0.24923,0.19641,-1.8937,0.43548,0.052984,0.22779,-0.44272,-0.79212,-0.091243,-0.7493,-0.028243,-0.28037,-0.047979,-0.10001,0.089329,1.0022,-0.16869,0.19447,0.29928,-0.40051,-0.60804,0.045025,0.071866,0.65143,-0.15551,0.2084
car,0.46443,0.3773,-0.21459,-0.50768,-0.24576,0.08134,0.10145,0.25155,-0.36152,-1.603,0.28219,0.36653,0.44611,0.2795,0.047722,0.30087,-0.16226,-0.026055,-0.26815,-0.46282,0.25012,0.60389,0.15111,-0.062823,-0.096755,-0.30548,-0.11376,0.53914,0.10966,-0.70618,-0.66316,0.43559,-0.048631,0.27755,-0.48685,0.11938,-0.54538,-0.29563,0.03447,0.53187,-0.001588,0.41692,-0.20742,-0.037833,0.43333,0.047521,0.83507,-0.065088,-0.29974,0.0047139,0.12339,-0.5066,0.2587,0.21264,0.19132,0.54204,-0.11385,-0.42384,-0.27808,-0.15105,-0.62104,0.27678,-0.054974,0.018479,-0.11744,0.33029,-0.35251,-0.21953,0.05514,0.16971,-0.36445,0.36383,0.20496,0.66512,-0.2254,-0.30347,-0.52782,-0.66115,0.11774,-0.14438,0.33886,0.2297,0.63072,0.76929,0.02536,-0.13685,0.084254,0.32036,-0.10431,0.7672,1.0674,0.42885,0.03032,-0.63375,0.70705,-0.17671,-0.1077,-0.31877,0.063781,-0.57507,-0.40656,0.55837,0.72376,0.2645,0.20313,-0.43949,0.53094,0.075492,-0.26951,-0.4277,-0.13859,0.28341,0.13153,-0.32371,0.22816,0.43016,-0.015529,0.13276,0.048239,-0.038536,0.013813,-0.24567,0.4658,-0.61963,-0.39568,-0.21261,0.11121,-0.19519,0.32773,-0.25276,0.87512,0.4986,0.25747,0.46459,-0.097237,0.42509,0.0080811,-0.79669,0.19793,-0.060157,0.06048,0.20092,0.46373,0.29617,-0.31812,0.12548,-0.17667,-0.29347,-0.59183,0.43081,1.0006,0.46858,0.11257,-0.56533,0.54729,-0.43424,0.22738,0.21527,0.087824,-0.073562,0.5316,-0.36782,-0.42531,-0.066561,0.34648,-0.13677,-0.26654,0.099056,-0.052121,-0.61409,-0.0036171,0.32633,0.3905,0.029416,-0.1119,-0.2118,-0.15688,-0.29308,0.23114,0.13873,0.66445,-0.26318,-0.25518,0.29499,0.70132,-0.3239,0.42109,0.27316,0.15021,0.058074,0.24201,-0.62194,-0.40832,0.038272,-0.35372,0.013934,-0.25013,0.42916,-0.039463,-0.29794,1.0178,-0.41685,0.15442,0.19598,0.44718,-0.25764,0.13438,-0.084223,-0.14142,-0.16001,-0.32541,-0.19588,0.13934,-0.44924,0.20827,-0.15747,0.035537,0.37097,-0.15336,0.20401,0.35981,-0.26311,-0.27436,-0.41229,0.45533,0.77527,0.29339,-0.27392,0.45037,0.060015,0.081354,-0.53969,0.31872,-0.082837,0.77918,0.094676,0.75256,0.33377,-0.55349,-0.15661,0.20791,-0.13498,0.4756,0.1218,-0.16496,-0.65669,0.52394,-0.43666,-0.0087235,0.52565,-0.12011,-0.21406,-0.15253,-0.22775,0.59701,-0.64509,-0.445,0.40937,0.11943,0.034467,-0.32471,-0.47915,-0.25264,0.26818,0.059601,-0.51842,0.33124,-0.29623,-0.28343,-0.41471,-0.04505,-0.0017776,-0.37654,-0.023911,0.55602,0.2044,-2.2391,0.14986,-0.098345,0.18714,-0.19265,-0.0061057,0.39897,-0.22392,-0.42168,1.0727,0.29344,-0.47384,0.30169,-0.15307,0.19966,-0.40979,-0.10325,-0.04361,0.17564,0.65709,-0.09986,0.49107,0.28215,0.34554
radio,-0.19867,-0.1851,0.22132,0.74438,-0.33748,-0.00021519,-0.35511,0.35482,0.051159,-1.78,0.26706,0.063777,0.46478,0.48666,1.6483,0.29776,0.11769,0.06109,0.37087,-0.32995,0.80061,0.12278,0.10111,0.66965,-0.37586,-0.44907,-0.18576,0.44363,-0.27511,0.26222,-0.91393,-0.86441,-0.5953,0.78667,-0.53579,-0.40418,-0.23105,0.10667,0.014171,0.24361,-0.19846,0.17628,0.24769,0.43188,0.082871,0.63573,-0.11075,0.10739,-0.43875,-0.16165,-0.33686,0.28414,-0.14858,-0.13205,-0.15784,0.0030506,-0.20702,0.080066,0.51159,-0.47976,-0.12728,-0.16729,0.057998,0.18961,0.034635,0.53081,1.0496,0.55141,0.24824,0.54495,0.29428,0.37093,-0.015752,0.26971,0.025217,0.36258,0.28156,0.14239,-0.12307,0.50223,-0.74836,-0.015704,-0.10224,0.062081,-0.50885,0.28664,-0.29948,-0.21559,0.011158,0.049567,0.33023,0.3961,-0.58373,-0.23225,-0.10846,-0.36974,-0.060746,-0.34459,0.43428,-0.57974,0.047928,0.50967,-0.15124,0.14331,0.29822,0.43509,-0.091915,-0.21935,-0.097618,0.65178,-0.2109,-0.0049338,0.28735,-0.039573,-0.085411,-0.53842,-0.86916,-0.35096,0.25537,-0.15708,0.63176,0.42039,0.27242,-0.9345,-0.51608,-0.45109,0.043477,0.64301,-0.63066,-0.32962,-0.010227,-0.43655,-0.11761,-0.50367,0.28811,-0.85252,0.42762,0.4717,0.18874,0.0011675,-0.59725,0.33083,0.38928,0.59977,-0.052541,0.098118,0.54671,-0.60168,0.42831,-0.25321,1.3543,0.15823,0.043324,0.49688,0.39144,0.17036,0.2575,0.28585,0.32741,-0.35292,0.30668,-0.44348,0.29265,-0.32631,-0.083519,0.35106,-0.46485,-0.61414,-0.35981,0.1333,-0.11612,0.18253,-0.5938,0.39154,0.20959,0.40941,-0.23343,0.23943,-0.31409,0.34043,-0.41554,0.2044,0.25944,0.020908,-0.41369,-0.017769,0.18643,0.33569,-0.4356,-0.075269,0.33378,0.25408,0.080332,0.13597,0.49616,0.078064,0.022527,0.12985,-0.094061,0.3192,0.7438,0.54756,0.21733,0.035447,0.10176,-0.086299,-0.19919,0.34745,0.25601,-0.30828,0.3085,-0.30668,-0.55224,0.008937,-8.05E-05,0.43234,0.012156,-0.14827,0.37601,0.24202,0.50969,-0.27689,-0.036324,0.013732,0.5851,0.89566,0.3521,-0.71374,0.87551,0.15396,-0.0061314,-0.19628,-0.15265,-0.68193,0.43063,0.065877,0.30383,0.69019,-0.69029,-0.32848,0.33685,0.7216,-0.28408,-0.55612,0.53587,0.3153,-0.27663,-0.66263,0.26818,-0.25008,-0.16814,-0.029979,-0.40645,0.88945,0.28212,0.5791,0.46845,-0.22366,-0.14344,-0.50336,0.60237,0.085129,0.21169,0.50527,-0.22138,-0.39729,-0.044458,0.31688,0.37232,-0.093263,0.16898,0.22733,0.1002,-0.18247,0.60042,0.14764,-1.7176,0.46528,-0.004945,0.59958,-0.59408,-0.26515,-0.43466,-0.073467,0.076246,-0.40361,-0.36187,-0.13563,-0.15131,0.34299,-0.6463,-0.33647,-0.075072,-0.38664,-0.34915,0.23485,0.20944,0.43995,-0.036064,0.50584
hospital,-0.87315,-0.62477,-0.096836,0.0025302,-0.010344,-0.62798,0.27553,-0.3222,-0.079265,-1.0792,-0.014579,-0.26003,0.43175,0.44445,0.25887,0.82802,-0.2883,-0.084824,-0.044044,-0.51482,-0.21527,-1.1139,0.095368,-0.092451,0.19605,0.49774,-0.14587,-0.14294,0.033318,-0.75449,-0.010173,0.43521,0.026128,0.7224,-0.19225,0.11353,-0.07629,0.2675,-0.37347,-0.58639,-0.21679,-0.88306,0.40573,0.35321,-0.1663,0.27841,0.019031,0.19198,-0.065682,0.092824,-0.38081,-0.53734,0.1071,0.79218,-0.1708,-0.58004,-0.085157,0.61353,0.025684,-0.20026,0.14171,-0.17291,0.25512,0.44978,0.26818,-0.64565,0.30296,-0.62844,-0.30417,0.42883,-0.42946,-0.076271,0.072835,0.054483,0.33122,-0.25047,0.1024,-0.3395,0.095338,-0.25875,0.23718,-0.068221,-0.183,0.48214,-0.36267,0.24409,-0.078066,-0.31192,0.26567,-0.048018,0.30646,0.18739,-0.060372,0.63944,0.45193,-0.018288,0.45653,-0.18235,0.095527,-0.33996,0.32651,-0.60442,-0.0028663,0.53842,0.21445,0.26638,0.76632,0.24095,-0.29167,0.71487,-1.0315,0.049593,-0.19358,-0.35463,0.61532,-0.11258,-0.40896,-0.3298,-0.38141,0.22971,-0.44154,0.34646,0.15105,0.030715,0.23981,0.035899,-0.20087,-0.26964,0.4347,-0.1839,1.0465,0.19077,0.36718,0.052784,-0.25089,-0.095778,-0.31386,-0.5821,-0.11441,0.44214,0.25378,-0.176,-0.16488,0.65603,-0.55105,0.0071867,0.25591,-0.12624,-0.21514,0.46905,0.87923,-0.36322,0.39679,0.32428,0.41056,-0.00036455,0.24719,0.16285,0.26919,0.0074066,0.033913,-0.30662,0.33828,-0.60505,0.19537,-0.19698,-0.39187,-0.046714,0.10814,0.53341,-0.28759,0.51072,0.52386,-0.037288,0.045546,0.57107,0.0060415,-0.15383,-0.25135,0.05126,-0.31801,0.52756,0.030468,-0.1968,-0.11314,0.52721,-0.96007,-0.26021,-0.0030147,0.017802,0.36414,0.68608,0.092319,-0.20976,-0.22779,0.81816,0.23336,0.16253,-0.61025,1.6524,0.29481,-0.26479,-0.13245,-0.21112,-0.49279,0.058178,-0.58899,-0.39956,0.096407,-0.35551,-0.24079,0.046395,-0.84276,-0.4637,1.4143,-0.14208,0.36481,-0.42457,0.25789,-0.09356,0.11945,-0.10817,0.57305,0.2976,-0.14296,-0.13674,-0.59677,-0.54347,0.014147,-0.047125,0.59981,0.042906,0.50307,-0.63361,0.46959,-0.20112,0.14059,0.20699,-0.28327,-0.083873,0.31069,-0.79643,0.7526,0.024208,-0.18883,0.042574,0.25988,0.019352,-0.084418,0.46944,0.090551,0.59646,0.12864,0.067598,0.76198,-0.087251,-0.43567,0.17166,0.089719,-0.23332,-0.16885,-0.020278,-0.39122,-0.062984,0.3325,0.38901,0.11978,-0.085066,-0.34083,-0.14266,-0.088631,-0.48103,0.22841,-0.86968,0.26701,-0.10763,-2.1609,0.32852,0.17944,0.85876,-0.10234,-0.21997,0.23761,-0.39328,-0.048456,0.94884,-0.27821,0.39056,-0.35283,-0.44045,-0.13083,-0.16716,-0.076024,-0.78403,-0.18077,-0.4682,0.28807,-0.30363,-0.062885,0.43288
saw,0.11598,0.37664,-0.12256,-0.28274,-0.12396,0.018777,-0.12283,0.31714,-0.10357,-1.1113,0.016172,0.40188,0.1831,0.070041,0.27279,-0.094017,0.20349,-0.12456,-0.19265,-0.10653,0.0043274,0.11373,0.1276,-0.16362,0.37904,-0.37299,0.082654,-0.33433,0.080402,-0.19119,0.029575,-0.0192,-0.1704,0.19469,-1.385,-0.12829,-0.21612,0.25155,0.27494,0.23101,0.22042,-0.54683,-0.040577,0.15337,0.26451,-0.21978,0.072236,0.15125,0.037342,0.05046,-0.16045,-0.21181,-0.036896,0.020515,0.17062,0.32156,-0.030862,-0.11712,0.22087,0.081467,-0.15811,-0.051949,0.13642,0.10716,-0.018894,-0.084302,-0.13459,-0.22548,0.16703,-0.4586,-0.21689,-0.022307,-0.5182,0.43613,0.093506,-0.066819,-0.30721,-0.02626,-0.49002,0.058538,-0.050905,0.0075525,0.50483,0.27998,0.2672,0.025789,0.0019542,0.18662,0.27983,0.10217,0.39579,-0.20762,-0.51509,-0.086687,-0.18202,-0.093993,0.038467,-0.066246,0.31387,-0.28274,-0.21534,0.23514,-0.16926,0.016878,-0.19109,-0.055397,0.17777,0.32279,0.09589,0.32724,-0.05442,-0.02186,0.11694,-0.43135,0.25823,0.17536,0.071277,-0.010177,-0.34175,-0.34033,-0.039469,-0.35404,0.17808,0.16626,0.13749,-0.098939,-0.10696,0.15175,0.2203,-0.10057,-0.050826,0.17139,0.17504,-0.0087253,-0.13254,0.34159,0.13998,-0.22376,0.010263,0.48267,0.10852,-0.044731,-0.067777,0.14916,-0.25848,0.060087,0.13516,0.57333,-0.3343,-0.092998,0.21972,0.031874,-0.17819,-0.16779,0.39998,-0.01388,-0.023483,0.27872,0.23339,-0.055511,0.064939,-0.38045,0.083286,0.13593,0.051056,0.17622,0.088656,0.26746,-0.13573,0.20164,0.18788,-0.26838,-0.015896,-0.3924,-0.16912,-0.030069,-0.26972,0.35284,-0.0062855,0.57767,0.12332,0.35368,0.16357,0.058329,0.21698,-0.010245,-0.40987,0.24644,0.40258,0.32908,-0.25408,0.12392,0.22781,-0.30792,0.20079,0.15729,-0.011843,0.037717,0.012977,0.0023084,1.1806,-0.38749,-0.023978,-0.099411,-0.23789,-0.09268,0.1361,0.13882,-0.096203,-0.11943,-0.35917,0.13263,-0.0081258,-0.052096,0.28902,-0.22874,0.17509,0.38253,0.16645,-0.12633,0.29349,-0.066943,0.053436,-0.11246,-0.019305,0.12535,0.19562,-0.17357,-0.034805,0.042619,-0.27971,0.025695,-0.26796,-0.38614,0.028431,-0.013275,0.15771,0.036934,-0.15028,-0.16555,0.16457,-0.25322,-0.34591,0.2596,-0.31562,-0.086123,0.50211,-0.62206,-0.040178,0.43786,0.15388,-0.25039,0.094865,-0.052271,0.64553,0.19144,0.10524,-0.10828,-0.22911,0.36394,0.31223,0.10197,0.20749,0.10142,-0.07664,-0.23359,-0.32732,-0.50468,-0.26918,0.25436,-0.15539,0.20275,-0.041827,-0.24643,0.38932,-0.36365,-1.5429,0.018547,0.072422,0.18589,-0.61101,0.028826,0.1765,-0.3736,0.30148,0.16267,-0.039505,-0.22908,0.06244,0.23931,-0.04458,0.065493,-0.29075,-0.075944,0.39196,0.23797,0.14912,-0.012162,0.31691,0.016065
bomb,0.33686,0.23996,-0.34485,-0.57554,-0.55883,0.32603,-0.16608,0.50245,-0.47843,-1.6081,0.57744,-0.041105,0.53456,0.53145,-0.070365,0.73027,-0.53084,0.5057,-0.3364,-0.31008,0.1673,-0.43954,-0.31671,-0.10285,-0.39961,0.20749,-0.26228,0.16735,-0.22786,-0.39928,-0.25711,0.33673,-0.16374,0.59231,1.0274,0.08239,-0.83801,-0.016624,0.27747,0.98632,-0.046678,0.49104,-0.087315,0.035253,-0.076977,0.0068549,0.864,-0.60959,0.3284,0.23534,0.74078,-0.16777,-0.11843,0.10763,-0.16406,0.21025,-0.64199,-0.025665,0.012647,-0.53046,-0.76922,0.059808,-0.33367,-0.31234,0.14331,0.14493,0.71504,-0.15601,-0.4554,0.19148,0.40484,0.17215,-0.22969,0.37994,-0.58149,0.39435,0.37392,-0.099237,-0.075271,0.59157,0.33804,-0.29801,0.34782,1.1586,0.30133,-0.46488,0.019173,0.19104,0.28142,0.36615,0.053114,0.53667,-0.21175,-0.60274,0.80202,0.1905,-0.16074,-0.38764,0.20412,-0.47323,-0.79306,0.345,0.043597,0.34167,0.42777,-1.4876,0.30889,0.046978,0.30166,0.053664,-0.30665,0.51262,0.40563,-0.60549,-0.0060995,1.022,0.13906,0.30228,0.26605,-0.60224,-0.28798,0.17763,0.33037,-0.23342,-0.75274,-0.073073,0.033209,-0.17154,0.15215,-0.16991,0.58784,0.30052,-0.18364,-0.032638,0.38149,-0.53716,-0.48113,-0.5452,0.19088,-0.28976,-0.19188,-0.067834,-0.091078,0.14116,-0.40312,0.54405,0.49191,0.051609,-0.48169,-0.27345,0.28274,0.11739,-0.34182,0.48067,0.583,0.42893,-0.0031803,0.30269,0.44093,0.73928,0.44429,0.065152,0.39594,-0.41775,-0.034677,-0.039154,-0.030394,-0.31423,-0.19396,-1.026,0.24919,-0.30709,0.67237,-0.57696,0.028488,0.16653,-0.45636,0.43408,0.27903,-0.47815,0.38995,-0.09658,-0.06071,-0.21426,-0.12217,0.91799,0.1449,0.73602,0.16973,-0.1793,0.48259,-0.46581,0.081321,-0.18604,-1.02,-0.32936,-0.065447,0.21806,-0.36549,0.789,0.3476,-0.038882,0.29729,0.035611,-0.080653,-0.076184,0.0090548,-0.088607,-0.09891,0.072893,-0.063836,0.14161,0.23774,-0.30376,-0.15139,-0.21924,-0.30011,-0.037464,0.0037699,0.41452,0.51146,0.82587,-0.1762,-0.43698,-0.074216,-0.34836,0.26154,-0.74448,0.12935,-0.13712,0.58565,0.31329,0.16619,0.059504,0.47492,0.14424,0.60703,0.17755,-0.051188,-0.37612,0.44353,-0.050375,0.45624,-0.18148,0.46023,-0.96383,0.40356,-0.21176,-0.3473,0.36607,-0.04802,-0.19358,-0.39147,0.30817,0.99693,-0.2029,0.44362,0.18102,0.060118,0.071543,0.13344,0.10807,0.34471,0.71246,0.29387,-0.18311,0.11657,-0.19017,0.07294,0.15407,-0.0025877,0.0087834,-0.20466,0.75418,-0.55678,-0.12212,-2.2365,0.42012,0.20923,0.15406,-0.36885,0.51505,0.34876,-0.45438,0.17133,0.58334,-0.029622,-0.034461,0.28207,-0.099557,0.53971,-0.72649,-0.19468,0.093486,0.23885,0.96717,0.16954,-0.48993,-0.60656,-0.20739
hotel,0.020612,0.3291,-0.016189,-0.067513,0.10189,0.21253,0.072707,0.015433,-0.21204,-0.80928,0.35213,-0.69487,0.82736,0.43258,-0.080733,0.12988,0.054376,-0.04901,-0.10223,-0.1249,-0.7112,0.22539,0.042698,0.11176,0.22551,-0.064663,-0.19306,0.19202,-0.096472,-0.31537,0.59413,0.40549,-0.35592,0.38056,-0.25624,0.2039,-0.25967,-0.21134,-0.071791,-0.80705,-0.9843,0.077613,-0.048356,0.94447,0.38246,-0.10311,0.45551,-0.03525,-0.27438,-0.0026211,0.16658,-1.0382,0.19947,0.10699,0.36202,0.19366,-0.32674,0.39758,-0.22041,-0.07299,0.14736,-0.13831,-0.19528,0.531,0.012696,-0.27669,0.35849,-0.19968,-0.39326,-0.70638,0.03305,0.26243,0.68025,0.25218,-0.46003,0.061691,0.20327,-0.60638,0.11391,-0.33757,-0.1253,0.34481,-0.06168,0.42095,0.054557,-0.32862,-0.5793,-0.50757,0.0079618,-0.30702,-0.0011501,0.07676,0.24766,0.79676,0.19321,0.33852,0.33403,-0.60944,0.21054,-0.27566,-0.61927,0.1813,0.17183,-0.26289,-0.39038,0.019963,0.11602,-0.27587,0.4379,-0.046124,0.35627,-0.17024,0.33733,0.36602,0.38792,0.028437,-0.17977,-0.031391,-0.39393,-0.20958,0.78384,-0.13867,0.015983,0.21671,-0.25705,-0.50399,-0.2986,-0.14149,0.037927,-0.8206,0.42109,0.52288,0.15049,-0.5221,0.029393,-0.11472,-0.41687,-0.29832,-0.31487,-0.46624,-0.67303,-0.35152,-0.17014,1.046,-0.16043,-0.25062,0.43575,0.14097,-0.36677,0.57508,0.86163,0.52138,-0.17842,0.21988,0.038103,-0.065138,-0.035276,0.016329,-0.016079,-0.19504,1.0978,-0.31059,-0.13505,-0.24637,-0.040984,0.16481,-0.10378,-0.082187,0.21428,0.46425,-0.54591,-0.11083,-0.054733,-0.2418,-0.54069,-0.025261,-0.37489,0.35675,0.021036,-0.11967,0.28734,0.010179,-0.23243,-0.090031,0.034342,0.080892,-0.056203,0.57299,-0.28113,0.47828,1.0616,0.31913,-0.79843,-0.69018,-0.073528,-0.42219,-0.63949,-0.016243,-0.79246,0.32603,1.1099,-0.50804,-0.26533,0.02108,-0.35249,0.042124,0.29164,0.1205,0.38784,-0.62002,-0.20592,0.16622,0.060024,-0.34549,0.66704,0.52324,0.24355,-0.7021,-0.039845,-0.0095097,0.68702,-0.093139,0.30453,0.62417,-0.47502,0.10272,-0.24875,-0.51306,-0.02449,-0.062296,0.1274,-0.48171,0.15287,0.14696,0.94464,-0.058976,0.31396,0.19746,-0.37186,0.084231,-0.13696,-0.064506,0.20357,0.1567,0.31853,-0.24944,0.19731,-0.37082,-0.67162,0.068721,0.44294,0.12355,0.44161,0.44983,0.0063436,-0.034676,-0.31354,0.27437,0.4947,-0.5423,-0.39596,-0.26639,0.010307,-0.23712,-0.18184,-0.37308,0.76858,-0.085008,0.47476,-0.31265,-0.31372,-0.48321,-0.30699,0.050056,0.51847,-0.39376,-2.0077,0.5544,-0.1082,-0.23317,-0.41144,0.062211,0.35108,-0.683,-0.2488,0.55764,0.31589,0.072688,-0.44307,-0.43571,0.53492,0.09862,-0.69979,0.14956,0.067493,-0.084656,0.074032,-0.080119,-0.20232,0.067889
phone,-0.83676,0.02264,-0.26628,0.066996,-0.080808,-0.059011,-0.4033,-0.64769,0.13826,-1.8536,-0.052263,0.39733,0.31059,-0.35486,0.43675,-0.35666,-0.58785,-0.23641,-0.44242,-0.14855,0.6067,-0.20749,0.061239,-0.12618,-0.35397,-0.53799,0.076128,0.26988,0.20476,-0.029956,-0.56326,-0.018098,-0.6328,0.080583,-1.4556,-0.16961,-0.39997,-0.56322,0.17458,0.065886,-0.31532,0.3409,-0.39951,0.65369,0.15508,-0.21009,0.42822,-0.35012,0.085638,-0.11859,0.47689,-0.078707,-0.22075,0.10929,-0.096483,0.054002,-0.14181,0.19796,-0.18045,-0.36265,-0.014547,-0.25569,-0.2287,0.43371,0.11293,0.013793,0.062204,0.53973,-0.045028,0.060697,0.030739,0.099317,0.23463,0.38278,0.23335,0.30506,-0.17692,-0.32007,-0.30721,-0.053576,0.15375,0.026483,0.20283,0.49023,-0.055638,0.13391,-0.83566,0.22102,0.63061,0.070702,-0.25442,0.19253,0.036107,0.13495,0.50216,-0.17864,-0.47337,0.077172,0.52401,-1.0304,-0.097647,0.0086465,-0.085165,-0.24212,-0.33183,-0.27228,0.82594,0.10419,-0.76113,0.27013,-0.19451,0.048645,-0.2831,-0.06955,0.49975,-0.26029,-0.38416,-0.10018,0.077935,-0.02875,0.12683,-0.30657,0.47648,-1.1656,-0.17341,-0.20736,0.1591,-0.12061,-0.3017,-0.44249,0.43662,0.33365,-0.21498,0.30954,0.041432,-0.20484,0.78401,0.15369,0.43017,-0.30552,-0.13096,-0.40072,0.27158,0.18101,-0.7509,0.030758,-0.070545,-0.25635,0.26579,-0.24258,0.59939,-0.35006,0.41524,-0.2704,-0.46394,0.22124,0.56229,0.13928,-0.27605,-0.18184,-0.14083,0.14165,0.24389,-0.0147,0.011785,0.50719,-0.11575,-0.24606,-0.09789,0.28466,-0.59483,0.20953,-1.031,0.58163,0.016852,-0.23416,0.089339,0.042269,-0.22984,-0.10775,0.044413,-0.23736,-0.13608,-0.11918,-0.6548,-0.19871,0.28461,0.39774,-0.18316,-0.63542,0.40964,-0.0084677,-0.20511,-0.34872,0.14818,0.22179,-0.55505,-0.14312,-0.53849,-0.35587,0.2881,0.13352,0.41783,0.092798,0.31248,-0.50168,-0.32329,-0.0049135,-0.23851,-0.35951,-0.14495,0.073095,0.27094,-0.45089,-0.3186,-0.065525,-0.0040442,0.37139,-0.30785,0.92653,0.36394,0.182,0.31018,0.24761,0.76145,0.4474,0.023041,-0.73861,0.092204,-0.22434,-0.0092131,0.095407,-0.1823,0.37275,0.45473,-0.33263,-0.1652,0.30943,0.099958,-0.19943,0.37124,0.26365,0.41526,0.17993,0.53914,-0.2179,0.039027,-0.50629,0.28302,0.21265,0.66273,0.22864,-0.38162,-0.10262,0.12739,0.043904,0.50605,0.6924,-0.17854,-0.004673,0.062543,-0.46399,-0.13503,0.4296,0.0091672,0.023894,0.30454,-0.13092,-0.55037,-0.016595,-0.38787,0.26279,-0.4611,-0.48115,0.20404,0.15355,-1.9748,0.31712,-0.23154,-0.59819,-0.68988,0.17071,-0.14022,-0.43718,-0.55124,-0.10043,0.44218,0.13766,-0.14821,0.29898,0.19834,-0.12393,-0.10039,-0.51767,0.1613,-0.19433,0.11298,0.18114,-0.26827,-0.0038284
van,0.16976,-0.49576,-0.4419,0.27587,0.0077253,0.087989,-0.073498,-0.87006,-0.70266,-0.5169,0.45516,-0.38958,-0.65182,-0.3711,-0.18673,-0.22453,1.3101,-0.1176,0.46725,-0.26643,1.3008,-0.20331,0.40699,-0.36044,-0.28626,0.5845,0.47638,0.48687,0.048979,-0.36988,0.12288,0.36748,0.63308,0.3968,-0.53889,-0.03505,0.14087,-0.031578,-0.23186,-0.059918,0.49155,-0.048538,0.04344,-0.3866,0.65774,0.48257,0.73957,-0.27063,0.26031,0.40485,0.25221,0.62904,0.088431,0.50322,0.41555,0.55628,-0.56382,0.54634,-0.68687,0.11247,-0.27827,0.25721,-0.048895,-0.43937,-0.065537,-0.48419,0.12281,-0.80668,-0.14837,-0.20356,-0.86299,-0.21619,0.61858,0.4321,-0.54428,-0.10105,0.7988,-0.53376,0.34529,-0.35864,0.31177,0.23445,0.3424,-0.20303,-0.077137,-0.74638,0.85246,0.61238,-0.66041,-0.061858,-0.11246,0.11449,-0.024007,-0.15678,0.58871,-0.2658,0.10201,-1.0808,-0.24565,-0.6773,-0.12276,-0.037409,0.52602,0.44104,-0.65805,0.11481,0.42826,0.75874,0.21573,0.35371,0.39526,0.060434,0.27911,-0.49649,0.030643,0.87663,0.39437,-0.36121,-0.045341,-0.25006,-0.32176,-0.33823,-0.32578,-0.20083,-0.22403,0.045249,0.51135,0.76543,-0.18479,-0.068863,0.52116,-0.35055,0.15788,0.91702,0.15747,-0.57748,0.61702,-0.22527,0.020546,0.32572,0.16598,0.58109,0.92311,0.0099698,-0.24986,-0.036036,0.53711,0.41086,-0.53265,0.54566,0.7474,0.62896,-0.12728,-0.57742,0.68163,0.23614,-0.25723,0.98751,0.11937,0.1265,0.25226,-0.24394,0.35813,-0.16646,0.38639,0.62247,-0.25183,0.040867,-0.0069319,0.16567,1.0633,0.554,-0.55121,-0.48473,0.56296,0.089673,0.34188,0.10678,-0.012713,-0.29998,-0.03375,-0.078773,-0.49698,-0.75535,-0.37482,-0.63143,-1.0954,-0.14367,0.26739,0.98511,0.4646,0.27818,0.30494,0.29034,-0.4344,-0.44569,-0.23178,-0.31021,0.18281,-0.18085,0.95833,-0.14744,-0.068844,-0.83297,0.49988,-0.38064,-0.46103,0.15927,-0.53172,0.66704,0.025027,-0.32287,0.56142,-0.43673,0.34399,-0.16646,0.62419,0.30758,-0.47049,-0.88857,1.1697,0.29879,0.022791,-0.01427,-0.14699,-0.45521,0.1276,0.10047,0.37769,-0.36966,0.29975,0.35381,-0.21758,-0.0051769,0.22176,0.2603,0.032428,0.55813,-0.31365,-0.1058,0.26808,0.58311,-0.37031,0.26522,0.0015952,0.46696,0.19008,-0.5843,0.43709,-0.47562,-0.067608,-0.25422,0.036456,0.48938,0.50831,-0.82721,-0.11156,-0.2634,0.040407,-0.37245,-0.099394,0.23387,0.35888,0.28874,0.040866,-0.44,-0.33096,-0.41113,-0.94102,-0.48709,-0.61004,0.11222,-0.70076,-0.00052918,0.41511,0.42196,-0.79593,-0.18161,-0.76749,0.61833,-0.41825,-0.048671,0.30363,-0.23947,-0.047508,0.70287,0.22161,0.58796,0.17929,0.392,0.80782,-0.26756,-0.1069,-0.74148,0.14083,0.41208,0.49952,-0.085774,-0.09816,0.35384
train,-0.037208,-0.066545,0.15115,0.20733,-0.54988,-0.34518,0.2834,0.27022,-0.5088,-1.0394,-0.084626,0.23702,0.12489,-0.35922,0.23249,0.18752,0.0068386,0.10559,-0.15962,0.16055,-0.085753,-0.24734,-0.2261,0.33685,-0.25894,0.31717,0.21515,0.74309,0.1979,0.021227,0.61479,0.26553,0.07976,-0.24881,0.06592,0.12981,-0.25408,0.03824,-0.35604,-0.32126,-0.16157,-0.32439,-0.24917,-0.48538,0.24629,0.40239,0.77611,0.35912,-0.093163,-0.56297,0.36385,-0.13283,-0.54324,-0.10297,-0.064387,0.46616,0.16046,-0.2098,-0.57115,0.18474,-0.38367,0.36445,0.33702,-0.18333,-0.34235,0.2952,-0.35158,-0.38302,-0.37233,-0.091789,0.32227,0.74101,0.0058726,-0.3944,0.36692,-0.2807,-0.062464,0.47065,-0.46306,-0.46929,-0.12082,-0.26196,0.14582,-0.095196,0.19254,0.12848,0.26423,-0.1729,-0.22615,0.97852,0.68577,0.75685,0.38375,-0.80246,0.38168,-0.42698,-0.059474,-0.35319,0.20814,0.18333,-0.48246,0.17623,0.34715,0.072314,0.614,-0.39507,0.18201,-0.24474,0.15938,0.27636,-0.17779,-0.16898,0.36007,0.20155,-0.11385,0.22808,0.26473,0.91927,-0.014439,0.23335,-0.061812,-0.35859,0.22861,-0.68287,-0.29856,-0.0082701,0.054037,0.50879,-0.039338,-0.1151,0.26896,0.12615,0.39685,0.17952,-0.057622,-0.092012,-0.36822,-0.21685,0.38764,0.21779,-0.054767,-0.0066571,-0.59126,0.055931,-0.35438,-0.4271,0.12342,-0.12744,-0.23917,-0.096023,0.70139,0.22881,0.67658,-0.0095265,1.4098,0.35996,0.31915,0.10252,0.058811,-0.22879,0.50346,-0.31664,-0.045476,-0.53157,0.2284,0.35297,-0.046187,-0.021077,-0.13007,-0.13725,0.17059,-0.057376,0.46945,-0.21053,-0.19357,0.056831,-0.074083,-0.20106,-0.37111,-0.093481,0.11301,-0.093582,-0.53763,0.098462,0.26987,0.33083,-0.33252,0.34223,0.29473,-0.78249,0.29528,-0.26601,0.28129,0.091495,-0.22845,-0.33429,-0.61063,-0.23515,0.12063,-0.28993,0.9213,-0.16497,0.31311,0.11759,-0.15121,-0.31124,-0.07801,0.17275,0.17785,-0.73449,-0.2224,-0.63445,0.19946,0.43619,0.40355,-0.66949,-0.18977,-0.11296,-0.12397,0.098508,0.97274,0.075722,0.18518,-0.61403,0.60613,-0.64075,-0.0035438,-0.51147,-0.15362,0.4816,-0.19733,-0.37129,-0.024329,-0.3885,0.6682,0.35067,0.52628,0.75115,-0.46395,-0.68918,0.0127,-0.26651,-0.11244,-0.28538,0.056248,-0.45361,0.20624,-0.12654,0.086825,0.37277,-0.60518,0.069185,0.18004,0.45202,0.68578,-0.44621,0.10332,0.22851,0.50332,0.031189,-0.21554,-0.068521,0.6732,0.57746,0.3023,-0.17233,0.04879,-0.41575,0.047974,-0.070041,-0.31752,-0.58365,0.36658,0.39735,0.063238,-0.16127,-2.1413,0.14167,0.11371,0.23592,-0.36878,-0.32378,0.28333,0.014445,0.010855,0.29021,0.23568,0.61793,-0.32671,-0.18965,0.41281,-0.64252,-0.65501,-0.021422,0.0086554,0.56191,-0.28474,-0.060458,0.44498,0.10385
bus,0.14822,-0.60022,0.22613,-0.21022,-0.17283,-0.13195,0.24592,0.17814,-0.064567,-0.8962,-0.68388,-0.036868,0.19367,-0.23229,0.60036,0.38259,-0.033599,-0.21816,-0.14735,-0.4909,-0.21016,-0.15241,-0.018773,0.01873,-0.1713,-0.0074645,-0.57133,0.50893,-0.2042,-0.37299,0.66467,0.31496,0.35763,0.2154,-0.16469,0.074403,-0.52319,-0.42386,-0.39825,0.16471,-0.045647,-0.020086,-0.083139,-0.5742,0.24685,0.34281,0.69048,-0.048247,-0.097276,-0.72689,-0.31496,-0.023692,-0.52892,0.23968,0.35578,-0.015941,-0.44998,-0.095123,-0.46226,0.14423,-0.32262,0.16818,0.079061,-0.25941,-0.17119,0.69086,-0.29274,-0.42699,-0.038065,0.1375,-0.037255,0.26598,0.50304,-0.24123,0.16936,-0.058232,0.051439,-0.15973,0.067744,-0.32709,-0.37132,-0.53417,0.483,0.070346,0.046934,-0.11341,-0.035402,-0.28817,0.14224,1.0233,0.57069,0.35778,0.29187,-0.71508,0.18075,0.23272,0.23469,-0.28209,0.23938,-0.2433,-0.20732,0.29383,0.63898,-0.22474,0.20249,0.20292,0.98209,0.29551,-0.012421,0.065041,-0.064249,-0.082404,0.5986,-0.15441,0.28549,-0.059635,-0.028892,0.17044,-0.31801,0.37184,-0.29469,-0.53125,0.41156,-0.62556,-0.57396,-0.2204,0.19994,0.31579,0.1611,-0.52681,0.36255,0.29632,0.63636,0.32282,0.16223,0.22062,0.16364,-0.26504,0.34057,0.16355,-0.38883,-0.28362,0.19593,0.31218,-0.80655,0.24608,0.4458,0.11585,-0.010622,-0.062775,0.64666,0.25096,0.84772,-0.072991,0.36464,-0.19748,0.18973,-0.040858,0.44445,-0.16096,0.17596,-0.15271,-0.23337,-0.31708,0.2094,0.214,-0.28242,0.36903,-0.26011,-0.16665,-0.40133,-0.19458,0.57946,0.49141,-0.54268,0.23524,-0.3403,-0.23627,0.20118,-0.10041,-0.27284,-0.33362,-0.09302,0.10536,0.21213,0.22773,-0.038106,0.26543,0.25857,-0.13102,0.41592,-0.09757,0.23423,-0.41573,-0.62525,-0.30484,-0.10326,-0.088723,-0.091432,0.15145,0.67503,-0.34324,0.39034,-0.21944,0.16631,-0.5166,-0.19707,-0.093644,0.3641,-0.16447,-0.96552,-0.4097,-0.2309,0.12408,0.11189,-0.45631,-0.051998,-0.0379,-0.12535,0.18605,1.0236,0.49152,-0.21698,-0.10576,0.85023,-0.17334,0.22324,-0.78585,-0.1382,-0.24876,-0.22311,-0.40433,-0.14436,-0.51802,0.91132,0.5277,0.77029,0.81531,-0.79686,-0.39351,0.38236,0.1203,-0.1027,-0.63183,0.047325,-0.15296,0.58927,-0.55075,0.3118,0.090457,-0.18564,0.0983,-0.14423,0.14476,0.37997,-0.50554,-0.14841,0.49737,0.10332,-0.41922,-0.30872,0.018226,0.71589,0.89567,0.59442,-0.6867,0.22016,-0.4855,-0.29461,0.38661,-0.2454,-0.17201,-0.20475,0.20649,0.61509,-0.27732,-2.1394,-0.11415,-0.12648,0.58212,-0.1907,-0.25279,0.52393,-0.51231,-0.7568,0.67596,0.33118,0.33685,0.40599,-0.056694,0.50836,-0.18065,-0.72307,-0.081516,0.32178,0.74172,-0.46137,-0.26075,0.29964,0.3998
table,-0.25609,0.50527,0.67024,-0.48323,-0.16092,0.40552,-0.57753,-0.61727,0.27748,-1.1638,-0.27712,-0.020295,0.028775,0.22266,-0.1247,0.21623,-0.34954,0.43872,-0.11429,-0.52088,-0.098776,0.36174,-0.10907,-0.33723,0.12478,-0.17476,-0.02806,0.29812,0.452,-0.15253,-0.083357,0.034761,-0.24092,0.32749,-1.4545,0.48006,0.33196,-0.15403,-0.69421,-0.27767,-0.11927,-0.43105,-0.4729,0.37034,0.34169,-0.053254,0.15647,-0.10772,0.016518,0.38009,0.34295,0.24507,-0.38753,-0.54323,-0.4624,0.33051,-0.55911,-0.27595,0.081592,0.63524,0.49964,-0.43429,0.067199,0.25352,-0.50933,-0.74638,-0.2585,0.23269,-0.25116,-0.10639,0.18584,0.12072,-0.30594,-0.38205,-0.78894,0.19583,-0.24714,-0.074624,-0.15969,-0.44592,-0.081552,0.31978,0.10503,0.0054446,0.26554,-0.75734,-0.5336,0.29012,-0.064118,0.07189,-0.1002,0.18323,-0.36721,0.051837,0.25615,0.11508,-0.20354,-0.024862,0.17289,-0.56787,-0.19497,0.16599,-0.02274,-0.12867,-0.162,-0.17048,-0.10432,-0.2535,0.22045,-0.45661,-0.13745,-0.030224,0.043699,-0.18161,-0.45375,0.060966,-0.56726,-0.039768,-0.26703,-0.063974,-0.26012,0.29441,0.30543,0.32773,-0.31902,0.31058,0.20736,0.020729,-0.34873,-0.16663,-0.11728,0.33342,0.41227,-0.085252,0.52065,0.19647,0.37802,0.29248,-0.44314,0.19523,0.082371,0.2787,0.13965,-0.069098,-0.11195,0.52143,0.43849,0.031215,0.089993,-0.20984,-0.46075,0.32158,0.31261,-0.081539,0.064099,0.020494,-0.068913,0.022847,-0.018045,0.47409,0.2556,0.28942,0.005349,0.22184,0.57588,0.27085,0.029017,-0.097821,0.13408,0.082636,-0.65026,0.37041,-0.1697,-0.52203,-0.075045,-0.40086,-0.1477,0.97495,-0.09886,-0.16054,-0.09224,-0.3793,0.36054,-0.10381,0.44901,0.082892,-0.079977,0.084356,0.042248,-0.096421,0.69179,0.49886,0.40619,-0.0778,-0.14788,0.052709,-0.097877,0.070828,-0.56296,0.052218,0.9761,-0.55365,-0.044514,-0.18417,0.30776,-0.63629,-0.10329,-0.73685,-0.37941,-0.057033,-0.34358,-0.26227,-0.21409,0.18885,0.54081,0.54312,-0.038653,-0.33017,0.16679,0.10521,0.23586,0.13128,-0.0023244,-0.14755,-0.6544,0.22532,0.27533,0.44426,-0.52244,-0.12012,0.061679,-0.12356,0.35028,0.033956,0.57603,0.26243,-0.31625,0.027057,0.068562,0.36305,-0.15707,-0.18638,-0.15245,0.51385,0.0030514,0.36363,-0.54279,0.544,-0.33033,-0.018278,0.034519,-0.3843,0.48172,-0.24719,0.17587,0.34042,-0.25866,0.11471,-0.42484,0.77577,-0.47343,-0.24318,0.66153,0.11481,0.027112,0.079763,-0.10656,0.30877,0.14645,-0.12334,-0.79755,0.082979,-0.10763,0.25616,0.60343,-0.2659,-1.6927,0.16208,0.27091,-0.28799,-0.22056,-0.14432,-0.59781,-0.55899,0.62319,0.10158,-0.069048,-0.35173,0.081867,-0.19861,-0.35076,0.29545,-0.18482,-0.10118,0.25697,-0.40751,0.69387,-0.4472,0.18864,0.18275
box,-0.31045,0.83514,-0.083951,0.28533,0.40734,0.33884,-0.64491,0.1049,-0.34581,-0.64457,-0.0091833,0.21941,0.14872,-0.1353,0.085626,-0.087283,-0.19865,-0.20836,0.16165,-0.041792,0.48708,0.11051,0.08164,0.068339,-0.46117,0.15479,0.10162,-0.13061,0.65408,0.11921,-0.1532,-0.10273,-0.15018,0.11232,-0.95244,0.38406,-0.4894,0.16068,-0.36775,0.39035,-0.18444,-0.21871,-0.17876,0.87372,0.099754,-0.19159,0.48185,-0.1287,0.0068078,0.50192,0.11867,-0.030571,-0.35299,-0.38679,-0.11608,-0.14797,-0.40048,-0.055626,0.17609,-0.046516,0.49469,0.59659,0.39001,0.30627,0.45339,-0.49283,0.23484,-0.30733,0.46927,-0.02351,0.17258,0.025408,0.4413,0.61165,0.24423,0.11261,-0.27297,-0.49071,0.057382,-0.078606,-0.12992,0.30653,0.24339,-0.10584,0.24255,-0.56245,0.59269,0.047788,-0.097227,-0.14536,0.40613,0.013309,-0.41749,-0.14435,0.81568,0.74148,-0.31932,0.33005,-0.19344,-0.73195,-0.011253,0.18741,-0.15248,-0.30491,-0.068201,-0.37743,-0.11583,0.18358,-0.022853,-0.089241,0.5874,0.42197,-0.37204,0.0405,-0.38664,-0.35424,-0.56706,0.38903,-0.18017,-0.78081,-0.046964,0.073211,0.7019,0.090911,-0.45092,-0.15378,0.057523,0.10668,-0.27174,0.28862,0.13439,-0.029777,-0.29494,0.14468,0.14577,-0.36866,-0.027902,0.2304,-0.36733,0.15829,-0.0095388,0.17852,-0.14775,-0.60169,-0.17552,-0.89121,0.058757,-0.24794,-0.071586,-0.89785,0.43252,-0.21932,-0.18499,-0.7972,0.28435,0.19671,0.39618,-0.0069301,-0.36466,0.017546,0.20361,-0.40322,0.66896,-0.25824,0.7055,0.49783,0.18918,-0.086636,-0.32737,0.30502,-0.17353,0.023268,-0.76711,-0.013381,0.028688,-0.18123,-0.11907,0.66097,0.073612,-0.9083,0.071118,-0.0015788,0.57832,0.419,-0.25147,-0.6855,1.0078,0.51647,0.41132,0.23935,0.31383,0.37765,0.46787,0.28157,-0.15047,-0.35782,-0.022628,-0.023754,-0.0085073,0.029149,1.1388,0.2904,0.33378,-0.51531,-0.096725,-0.43828,-0.05325,-0.2777,-0.56621,-0.047312,-0.39085,0.027591,-0.18341,-0.27696,0.27856,-0.0591,-0.14047,-0.12731,0.2731,0.30607,0.4342,0.055459,0.36103,0.19351,-0.039877,-0.37889,-0.25771,0.22716,0.33153,-0.25158,-0.39592,0.31216,-0.64001,-0.062477,0.38996,0.25095,-0.029845,0.46641,-0.29454,0.0055355,-0.44112,-0.22856,-0.1778,0.14852,-0.42273,-0.18629,0.76133,-0.0095869,0.027906,0.58302,0.5343,0.34149,-0.094434,0.39249,0.31677,-0.33517,0.19724,-0.62979,0.5082,0.074246,-0.19872,-0.22372,0.20128,-0.36063,0.026387,-0.52512,0.34324,-0.11051,0.098364,0.10818,-0.32562,-0.27405,0.25757,-0.1329,-0.033018,-0.82447,-1.4336,0.64452,-0.69427,-0.28663,-0.24444,-0.13048,-0.11648,-0.11641,0.19517,0.31537,0.13427,-0.45008,-0.048864,0.10622,0.31088,-0.13761,-0.32149,0.44625,-0.34907,0.60746,-0.39117,-0.077967,0.41402,-0.23853
bowl,-0.18025,1.2188,0.43132,-0.55592,0.065846,-0.12247,0.53082,0.096432,-0.0077394,-0.17044,-0.37541,0.12297,0.016171,-0.37462,0.15078,-0.16962,-0.2948,0.028761,-0.50629,-0.85121,-0.44371,-0.065644,-0.20541,0.15231,0.016898,-0.64971,-0.45292,0.032036,-0.37636,-1.2275,0.28395,-0.080256,-0.018416,-0.47347,-1.6784,0.50741,-0.28001,0.67068,-0.23198,-0.48675,0.037021,-0.16031,-0.12821,0.090712,-0.19473,0.14938,0.18027,0.042502,0.0065824,0.38304,0.32366,0.40862,-0.40859,0.14374,-0.50691,-0.072836,0.14622,0.0765,0.48745,-0.24155,-0.65079,-0.48856,-0.74346,0.81619,0.077148,-0.19432,0.38399,0.068993,0.49055,0.046938,0.77212,-0.15449,0.21033,0.25113,-1.0322,0.41712,0.77777,0.16526,0.40333,-0.14401,0.21773,0.46977,-0.90596,0.10853,0.273,-0.095949,-0.91938,-0.21197,0.38415,-0.5121,0.31984,0.59808,0.23737,0.043234,-1.2873,0.28474,0.56945,-0.16204,-0.119,-0.018792,0.37967,0.066985,0.25258,0.0068421,0.3867,0.29667,-0.099328,0.078981,-0.49848,0.21844,0.21844,-0.074144,-0.080939,-0.068501,-0.737,0.19227,0.022235,0.48565,-0.033772,-0.36815,0.31788,0.22229,0.57303,0.17731,-0.37763,-0.43894,-0.11039,0.64045,-0.52048,0.27697,-0.20235,0.72753,-0.041255,0.37131,-0.18154,-0.12885,0.080354,0.25751,-0.44132,0.52351,0.37371,0.808,-0.096627,0.22209,-0.11508,0.85951,-0.3598,0.053304,0.58665,0.29786,0.03275,-0.045364,-0.18007,-0.52945,0.54804,-0.26797,-0.30046,-0.44228,-0.51209,0.31132,0.054777,0.11164,-0.55255,-0.2962,0.3827,0.42302,0.46361,0.46747,-0.25786,-0.58828,0.33025,-0.12786,-1.1599,-0.16857,0.069272,0.29421,0.25196,0.066452,1.1006,-0.20721,0.56967,-0.048295,0.29224,-0.25053,-0.30944,-0.77365,0.28983,0.1468,-0.45558,-0.042676,0.5471,1.1413,-0.3129,0.62806,-0.40251,-0.54877,0.15699,0.51757,0.39451,0.51669,1.9618,-0.070997,0.55242,-0.33413,0.042032,-0.42581,0.5599,-0.14998,0.44134,-0.078311,0.341,0.94759,-0.19864,0.46994,-1.1959,-0.55921,-0.59851,-0.6438,0.20689,-0.38198,0.87134,-0.064378,-0.37848,0.076918,-0.38424,-0.53916,0.59272,-0.48463,0.27683,0.049513,-0.041363,-0.31285,0.25008,-0.57368,0.19718,-0.572,0.44859,-0.72965,-0.21428,-0.82854,-0.23883,-0.051164,0.494,0.097428,-1.2195,-0.33844,-0.0012721,-0.20866,-0.5801,-0.11131,0.078133,-0.53683,-0.16872,-0.10731,-0.31853,0.16014,0.36023,-0.14278,0.10346,0.10557,-0.40448,-1.3466,0.48105,0.050177,0.072228,-0.37526,-0.22673,-0.28315,0.33149,0.23278,-0.53948,-0.32715,0.46342,0.653,0.21684,-0.70045,-0.98198,0.079915,-0.51954,0.1208,-0.30332,0.0089076,0.49861,0.34186,-0.1329,0.1145,-0.59077,-0.7939,0.031343,-0.083538,0.024854,-0.17023,0.064608,0.14943,0.56697,-0.34062,-0.18314,-0.37227,-0.62374,0.1943
gun,0.21619,0.34991,-0.30952,-0.23855,-0.37102,0.6418,0.75417,0.063657,0.091098,-1.3249,0.20073,0.033796,0.23227,0.29238,0.079282,0.75695,-0.24345,0.14714,-0.40556,-0.16031,0.26556,0.42653,0.33706,-0.12864,0.18263,0.089003,0.058391,-0.37937,0.19895,-0.36259,0.20673,0.31366,0.38212,-0.063668,-0.23816,-0.51148,0.38826,-0.37084,-0.19367,0.26934,0.36041,-0.04991,0.44304,-0.11688,0.35819,-0.10509,0.39297,-0.74246,-0.044145,0.11403,-0.20977,-0.012256,-0.6759,0.55902,0.0039503,-0.17237,-0.10212,-0.55859,-0.096442,0.041865,-0.13748,0.13482,-0.12179,0.38499,0.21063,0.26811,-1.2568,0.057878,0.73093,-0.23343,-0.40888,-0.23216,-0.29944,-0.04868,0.4893,0.49827,-0.26756,0.098375,-0.34512,-0.29872,-0.040675,0.62892,0.90393,0.10908,0.15986,-0.054368,-0.44773,-0.17271,-0.56547,-0.48586,0.7705,-0.16004,-0.5439,0.2457,-0.027284,0.36667,-0.61403,0.66121,0.53277,-1.0478,-0.71313,0.4461,-0.37432,0.1288,-0.06303,-0.48529,-0.1216,0.15421,-0.306,0.51476,0.1521,0.54791,0.28692,0.19631,0.43008,0.16568,-0.22101,0.40725,-0.022671,-0.39982,0.059766,0.3009,0.19176,-0.19016,-0.094759,0.47696,0.4295,-0.34423,0.050137,-0.17996,0.666,-0.09772,0.38375,0.24367,0.54128,0.40238,0.10897,0.26495,1.0592,-0.014233,-0.1234,-0.33254,-0.65352,0.35978,-0.71179,0.27346,0.55437,0.23138,-0.29156,0.37289,0.19187,0.16513,0.2508,-0.20339,0.20126,0.30611,0.76292,-0.1,-0.095164,0.39109,0.80858,-0.053826,-0.069164,-0.15294,-0.21028,-0.18627,0.27342,0.13349,-0.46667,-0.26469,0.17077,0.38245,0.054924,-0.07529,0.25489,-0.33432,-0.65974,-0.44085,-0.029443,0.23356,0.7178,0.12814,-0.22251,0.12567,-0.17827,-0.095076,0.41488,0.28515,0.9437,-0.15072,-0.26045,-0.57889,-0.14029,0.095171,0.11947,-0.36913,-0.14082,-0.44442,0.33055,-0.46224,0.44792,0.3553,0.19427,-0.2672,0.3062,-0.40517,-0.15113,0.0037033,0.10834,0.37355,0.41334,0.061648,-0.20599,0.18837,0.044698,-0.44022,-0.60113,0.74621,0.075337,-0.2614,-0.79189,0.14372,0.55804,0.16206,-0.71183,0.9,0.24522,-0.786,0.81749,0.060734,0.71144,-0.05081,-0.28997,-0.10603,0.29236,-0.0349,-0.37872,-0.26121,-0.48318,0.62607,0.10936,-0.052213,0.030607,-0.16042,-0.44406,-0.31857,-0.42084,0.16011,-0.061294,-0.67131,-0.13806,-0.21301,-0.16643,0.18041,0.74889,-0.29554,-0.067171,-0.54496,-0.24641,0.14212,-0.071991,-0.095101,0.16979,-0.036265,-0.1756,-0.15394,-0.38109,-0.017561,-0.97624,0.20183,0.33508,-0.28341,0.12835,0.63005,-0.14237,0.02761,-2.0655,0.52345,-0.52896,0.43022,0.28496,-0.22174,-0.24342,-0.58001,-0.4764,0.32626,-0.10224,-0.13874,-0.084837,-0.33157,-0.21139,-0.58844,-0.32838,-0.019083,-0.14467,0.81432,0.27134,0.18831,-0.26762,0.70784
missile,-0.20887,0.41045,-0.0089995,-0.52725,-0.045935,0.34317,-0.017264,0.24039,0.10945,-2.4719,0.94241,-0.13688,-0.057255,-0.24632,0.61293,1.3626,-0.10285,0.57634,-0.21189,0.35508,-0.15575,-0.48621,0.1896,0.14675,-0.11249,-0.13391,-0.076165,0.50494,-0.17234,-0.13351,0.82689,-0.15381,-0.031899,0.11508,0.88891,-0.11258,-0.63632,-0.093982,-0.19485,0.99435,0.10216,0.36233,0.13716,0.69709,-0.57893,0.21807,-0.0554,-0.73786,-0.13547,-0.30196,0.52403,-0.54639,-0.44362,0.12778,-0.46313,0.13414,-0.26808,-0.45235,0.20783,0.4679,-0.57878,0.27108,0.33184,-0.72966,0.12244,0.93509,-0.078949,0.42087,0.46514,0.63193,0.096834,0.059174,-0.039004,0.11325,0.0013725,0.55534,-0.17852,0.71069,-0.18748,0.51118,-0.055528,0.37142,-0.041834,-0.10398,-0.39667,-0.10422,-0.43957,0.027207,-0.15321,-0.85357,0.40073,0.17875,-0.33784,0.011762,-0.13984,0.18729,-0.9441,0.61555,0.010104,-0.24043,-1.1395,0.02508,-0.069117,0.2945,-0.039797,-0.511,0.14469,0.2065,0.33327,-0.11988,0.47959,0.29298,-0.018732,-0.041224,0.15739,-0.50681,0.015694,-0.22762,0.30594,0.13233,0.51613,-0.93272,-0.13454,-0.41809,0.038856,0.26356,-0.75618,0.46498,0.2383,0.017937,-0.079948,-0.16062,0.014264,-0.20551,0.71776,0.0166,-0.49385,-0.16343,0.092914,0.204,0.13002,-0.41165,-0.11277,-0.10668,-1.0427,1.1279,-0.30961,0.075764,-0.47299,-0.20978,0.61647,0.054595,-0.68602,0.63839,0.17122,-0.40632,0.12817,0.26078,-0.31193,0.30241,0.060871,-0.2612,-0.80515,-0.11566,0.12092,-0.48971,-1.2382,0.10951,0.085958,0.01147,0.13104,-0.20179,0.57751,-0.62215,-0.88913,0.12289,-0.1726,0.018262,0.38354,-0.47948,0.55417,-0.58338,0.38307,0.50977,-0.099106,0.63518,-0.17222,0.39449,-0.26098,-0.22719,-0.83455,-0.60092,-0.60485,-0.13595,0.027192,-0.19445,0.29589,-0.57058,0.35789,-0.16344,0.78598,0.01379,-0.66649,-0.57445,0.2131,0.18249,0.42081,-0.61079,-0.53476,0.04191,0.28604,0.011699,-0.95815,0.148,-0.67395,-1.2013,0.22679,0.38162,-0.73691,0.66124,0.33615,0.28297,-0.2152,-0.21437,0.093196,0.82993,0.18587,-0.39898,0.28807,-0.10973,0.29911,0.14277,-0.035646,0.88626,0.12196,-0.39497,-0.011766,-0.27527,0.47333,0.64477,0.20972,-0.097569,0.50155,-0.064587,0.22756,-0.50571,-0.44028,-0.20659,0.21082,-0.019214,-0.6878,0.70952,-0.40781,0.4098,0.53055,-0.40503,-0.30001,0.12294,-0.21485,0.53848,0.40304,0.61642,-0.26814,-0.39839,0.52754,-0.17221,-0.2238,0.43882,0.66294,0.29364,0.56044,0.017023,-0.75898,0.56669,-0.14496,-0.31968,-1.7318,-0.076359,-0.10347,-0.26574,0.0282,-0.073592,0.32414,-0.70879,0.68843,0.24899,-0.28531,-0.067306,0.20435,0.23089,-0.68097,-0.57258,0.24223,0.004072,-0.32392,0.4131,-0.11309,-0.58838,-0.15382,-0.19081
fox,-0.1157,-0.025048,-0.11013,-0.04806,-0.085504,0.37308,-0.9479,0.59662,-0.020006,-0.30469,0.24997,-0.20005,0.19284,0.47197,0.27099,0.3419,-0.29186,-0.39718,0.55653,0.32774,0.09486,-0.46588,0.62119,0.20709,0.082332,-0.10175,0.32067,-0.31875,0.17941,-0.24127,-0.017961,-0.087154,0.33423,-0.045026,-1.2193,0.19321,0.21427,0.23893,-0.18084,-0.1592,-0.10387,0.2206,0.25423,0.20815,-0.33072,-0.20672,-0.31424,0.026498,0.21955,-0.31157,-0.078914,-0.015089,-0.040848,-0.23807,0.31983,-0.074173,0.22983,0.055735,0.0056743,-0.77368,0.27412,-0.18999,0.53825,-0.19784,-0.10898,-0.34022,0.31582,0.50317,0.33955,-0.27143,-0.033026,0.34279,-0.49815,0.25056,-0.12791,-0.15912,-0.0087541,0.1045,0.21969,-0.059077,-0.376,0.060835,0.18427,-0.083592,0.11632,0.75145,0.065186,-0.33258,0.14249,-0.65348,-0.0026661,0.10233,-0.38731,0.60529,-0.27326,-0.35777,-0.53533,0.049589,0.20224,-0.32805,0.39305,-0.2754,-0.13042,0.95833,0.38853,0.59884,-0.30503,-0.10708,0.4567,0.72182,-0.044221,-0.068201,-0.29903,0.26483,0.006681,0.14919,-0.53155,-0.61697,-0.54271,-0.41103,-0.17534,0.13229,0.026958,-0.15111,-0.16844,-0.30684,-0.051189,0.9294,-0.60882,-0.11373,-0.42237,-0.40481,-0.34182,0.38472,-0.11566,0.022679,0.44793,0.18849,-0.19598,-0.068914,-0.4452,0.41643,0.058319,-0.39575,-0.40471,0.42855,0.16339,-0.16965,-0.057793,-0.10358,1.0223,0.90564,-0.55851,-0.24856,0.075582,-0.27374,0.38838,0.51561,0.060029,-0.05199,1.0113,0.0083607,0.49764,0.032839,0.025892,0.40404,-0.37393,0.13384,-0.29458,0.34668,0.052114,0.10785,-0.847,0.40936,0.38801,0.45079,-0.4388,0.19777,0.19102,-0.07658,0.25788,0.35642,0.23305,-0.16206,-0.050847,0.13708,0.051338,-0.38552,-0.25497,0.053901,-0.62922,0.3278,-0.20383,-0.17265,-0.099668,0.24485,0.0327,0.32325,0.23912,0.0077014,1.289,0.06803,0.020671,0.26268,0.19434,0.56238,0.071863,-0.065502,-0.22858,0.092883,0.39936,-0.28038,0.35633,0.15203,-0.27883,0.038225,-0.39636,0.32488,0.24332,0.22621,0.23518,-0.064747,0.62858,-0.11848,0.1271,-0.12697,1.0015,-0.25693,0.2045,-0.18789,-0.12913,-0.096456,0.12301,-0.13377,-0.12808,0.041857,0.86418,0.36137,0.090372,-0.010687,0.44736,0.078975,-0.32992,-0.1447,-0.61296,-0.41543,-0.26104,-0.84169,0.47352,-0.4764,-0.34393,0.082156,-0.24477,0.79361,0.26183,0.46648,0.19135,-0.055033,0.23492,0.11178,-0.37291,0.26764,0.11074,0.68041,-0.0010361,-0.042537,0.94006,-0.28939,-0.20841,0.33001,0.073318,-0.51902,-0.36412,-0.41372,0.20266,0.43162,-1.0174,0.25093,0.38136,-0.14332,-0.20525,-0.18724,0.59925,0.35604,-0.91457,-0.22401,-0.042382,-0.13299,0.61671,0.44886,-0.11361,0.20483,0.25485,0.27581,-0.87158,-0.13156,0.26117,0.15815,-0.32199,0.71042
library,-0.68122,-0.35798,-0.4063,-0.2,0.74704,0.2271,-0.029903,0.024385,0.26242,-0.90463,0.26275,0.049628,0.4355,-0.13678,0.19377,-0.045098,0.012177,-0.16112,0.16721,0.07945,0.23475,-0.60962,0.051913,0.2846,0.41384,0.47747,0.0035384,0.087306,-0.068518,0.21844,0.50751,0.16121,-0.29472,1.2226,-0.52677,-0.11074,0.08852,-0.18236,-0.33008,-0.54383,0.039699,-0.42128,-0.25302,0.99862,0.34643,-0.028196,0.84536,0.12466,0.044327,-0.59932,0.11842,-0.021544,-0.16092,-0.018458,0.41756,-0.34332,0.15159,0.17769,-0.34892,0.16966,-0.16986,0.1916,0.55266,0.4237,0.3735,-0.30148,0.028538,0.06972,-0.30862,-0.48402,-0.51447,-0.34977,0.35005,0.40172,-0.24162,-0.25482,-0.30749,0.1383,0.51085,-0.30649,-0.3436,-0.25996,0.11883,-0.79753,0.14449,0.034823,-0.34217,0.3954,0.11995,-0.33662,0.05649,-0.23091,-0.20438,0.47653,0.47175,0.19396,0.4088,0.15428,-0.37011,-0.63714,0.1765,-0.39953,0.00046428,-0.033203,-0.057908,-0.37017,0.11917,0.20662,0.18944,0.25914,-0.54843,0.13956,-0.053076,0.098664,-0.89808,-0.061037,-0.26355,0.14067,0.25178,0.04418,0.025203,0.88968,-0.071839,-0.073751,0.1405,-0.12965,-0.23968,-0.21064,0.44086,0.43048,-0.068526,-0.14073,0.13989,-0.54546,0.26029,0.09465,-0.10552,0.34872,-0.55986,0.21573,-0.1043,-0.35651,-0.22976,0.30323,0.9207,-0.48946,-0.32257,-0.61099,-0.37295,-0.086901,0.51579,0.00033131,0.26226,-0.18087,-0.37651,-0.053141,-0.11698,0.16742,0.075069,-0.37094,0.34342,0.50411,0.30226,0.14509,-0.07381,-0.21881,0.038052,0.23757,0.20104,0.57422,0.034957,-0.68731,-0.48475,0.38479,0.38633,0.37428,-0.1218,-0.22977,0.12418,-0.92524,-0.097613,-0.016,0.2187,-0.5592,0.15838,0.019918,-0.12957,-0.13701,-0.20486,0.44865,0.064416,0.56226,-0.22144,-0.8769,-0.35555,0.15305,-0.18978,0.24435,-0.51835,0.10973,-0.016398,-0.23467,-0.14761,-0.18651,0.21012,-0.83854,-0.75484,-0.42714,0.096843,-0.37908,0.154,-0.00026077,-0.30159,0.072779,0.087236,0.39132,-1.0256,-0.21863,0.044161,-0.25545,-0.69388,-0.095192,-0.99168,-0.15194,0.21043,-0.3143,-0.54007,0.12345,-0.055586,-0.062424,-0.38888,-0.55077,-0.41949,0.16346,0.34042,0.29461,0.44867,0.24368,-0.45101,-0.26411,0.049711,0.22883,0.20203,-0.37849,-0.56254,0.24904,-0.63232,0.12873,-0.24663,-0.34467,0.47578,-0.35716,-0.22472,-0.56002,0.19918,-0.33084,0.074049,-0.18491,0.74349,-0.2041,-0.20005,0.7168,0.12378,-0.15663,-0.30726,-0.070305,0.28629,0.22409,0.072502,0.087407,-0.2024,-0.15236,0.52081,-0.5298,-0.30445,0.0062337,-1.7772,0.11753,0.66765,0.096245,-0.47349,-0.34314,0.46301,-0.84262,0.032507,0.57201,-0.45559,0.53726,0.06559,-0.29495,0.4085,-0.061119,-0.67523,-0.052092,-0.041854,0.051137,0.85856,-0.40234,-0.31178,-0.0061116
restaurant,0.35742,0.56207,0.27672,-0.27069,-0.12394,-0.024457,-0.15826,-0.019772,-0.064504,-0.21117,0.28405,-0.47347,0.45848,0.83991,-0.23648,0.25805,-0.080355,0.47572,-0.32733,0.48004,-0.22358,0.69471,0.16072,-0.14528,-0.25594,-0.076546,-0.064702,0.17555,0.056521,-0.34085,-0.018677,0.62599,-0.40321,0.38924,-0.72295,0.48619,-0.40818,-0.48128,-0.16998,-0.37359,-0.16939,0.093502,-0.176,0.83523,-0.30145,0.10441,0.65235,-0.011919,-0.50997,0.19974,-0.041026,-1.0006,0.46897,0.039861,0.19878,0.15004,-0.0029425,0.14582,-0.15327,-0.27542,-0.1665,-0.42142,0.26591,-0.070482,-0.25048,-0.59418,0.10496,-0.081021,-0.42091,-0.25545,0.085001,-0.30073,0.21074,-0.25141,-0.48927,0.09887,0.084611,-0.0030114,-0.19425,-0.52203,-0.1532,0.48835,0.018117,-0.047893,0.59851,-0.56435,-0.20948,-0.094167,-0.18636,-0.23022,0.33743,-0.075362,0.15141,0.24026,0.15029,0.3269,0.085173,-0.33012,0.20257,-0.62892,-0.33878,0.20684,0.36754,-0.31881,-0.0020192,-0.29709,0.23106,0.18754,0.62201,-0.035953,0.041499,-0.094827,0.506,-0.32947,0.18223,-0.40003,-0.70044,-0.72691,-0.54261,0.30653,0.28759,0.41015,0.68801,0.17788,-0.090579,-0.12681,0.14052,-0.14766,-0.1672,-0.15081,0.26302,0.18727,0.12718,-0.3281,0.11716,-0.28453,0.18569,0.1237,0.17838,0.00095851,-0.21753,0.097465,0.26275,0.14822,-0.28813,-0.0079066,-0.1068,0.21513,-0.27501,0.017391,-0.046579,0.4323,0.35435,-0.28059,-0.12377,-0.12253,0.013425,-0.03853,-0.058925,-0.47086,1.1684,0.23803,-0.16687,-0.038222,-0.11496,0.058903,0.024011,-0.57298,0.029663,0.062546,-0.4041,-0.015699,-0.14463,-0.35214,-0.43062,0.163,-0.45333,-0.099706,0.44939,-0.3428,0.29355,0.14557,-0.43225,-0.073713,0.45248,0.27508,0.042577,0.42043,0.25067,-0.19249,0.55049,0.14904,-0.87127,-0.33383,-0.32837,-0.23651,-0.61972,-0.13838,-0.95811,0.12206,0.83905,-0.63275,0.12111,0.12788,-0.31671,0.17507,0.24849,0.045343,0.35742,-0.25066,-0.14088,-0.52569,0.30595,-0.53146,0.45373,0.46881,0.5335,-0.54957,-0.16234,0.32348,0.45995,0.34042,-0.28232,-0.089943,-0.29306,-0.22897,-0.10879,-0.42491,-0.25079,0.32295,0.32426,-0.07057,-0.44612,0.27402,0.49155,0.20515,0.56265,-0.098591,-0.49346,0.31152,-0.14933,-0.13803,0.031465,-0.44079,-0.21774,0.035549,-0.18635,0.11286,-0.70793,-0.1494,0.5883,-0.070127,0.37433,0.52803,0.28278,0.098357,-0.57656,0.56818,0.138,-0.0093835,-0.23518,-0.16316,-0.1371,-0.59166,-0.14229,-0.39928,0.41881,0.25817,0.51241,-0.65548,-0.70226,0.086456,-0.0070882,0.011519,0.59984,-0.38907,-1.8324,0.81626,-0.92975,0.17371,-0.31335,0.16724,-0.085097,-0.56092,-0.57318,0.44113,0.5494,-0.19262,-0.027492,0.13754,0.6905,-0.015363,-0.696,-0.14001,-0.31321,-0.26246,0.20454,-0.33347,-0.30843,0.027418
truck,0.080162,0.16016,-0.015111,-0.29049,-0.53734,0.25311,-0.15411,0.3673,-0.53192,-0.63364,-0.16293,-0.26667,-0.081698,0.40369,-0.11245,0.070164,0.082526,-0.36753,-0.25358,-0.7338,0.26115,-0.13551,0.54614,0.19516,-0.41794,-0.28609,0.051255,0.28393,0.15776,-0.30341,-0.55216,0.57508,0.22576,0.053976,0.29303,0.42358,-0.46763,-0.48824,-0.060898,0.33472,0.027543,0.27529,0.2925,-0.34314,-0.018314,0.069312,0.32538,-0.29455,0.084841,-0.069638,0.10501,0.33524,-0.28506,-0.085132,0.15723,0.3557,-0.028213,-0.19021,-0.24054,0.23226,-0.39804,0.35845,0.29252,-0.18199,-0.69723,0.15065,-0.81626,-0.072851,0.073932,0.053463,-0.15263,0.25267,0.12776,0.60782,-0.27639,0.018811,0.12987,-0.48215,0.11294,-0.28164,0.41912,0.075526,0.27259,0.42098,-0.23127,-0.49405,0.202,0.11384,0.057963,0.44925,1.0421,0.15288,0.044557,-0.54011,0.21191,0.0016892,-0.27172,-0.49172,-0.21873,-0.40479,0.14816,0.86062,0.5747,-0.37419,-0.28109,-0.39957,0.87196,0.39676,-0.041147,-0.14733,-0.3265,0.21321,0.012099,-0.38939,0.030398,0.68041,0.1504,0.34164,0.15001,0.20197,-0.03112,-0.28325,0.48824,-0.29441,-0.47162,0.087114,0.14649,0.0238,0.4848,-0.17849,0.66042,0.62385,0.27744,0.53068,0.18484,0.073737,-0.16196,-0.37376,0.36163,0.48505,0.021201,0.031057,0.35559,-0.30444,-0.57902,0.23569,0.0089053,-0.24334,-0.42471,0.097177,0.75037,0.6003,0.33978,-0.22573,0.75843,-0.22683,0.25099,0.054731,0.41466,-0.067308,0.44999,-0.37303,-0.23007,0.1837,0.012485,-0.068989,-0.091872,0.15866,-0.036528,-0.16163,0.14373,0.12308,0.5265,-0.036521,-0.15154,0.017352,-0.068427,-0.38201,0.49812,-0.16565,0.5586,-0.31604,0.28425,0.12304,0.20929,-0.3943,0.25627,0.50806,0.70322,-0.19361,0.11396,-0.31443,-0.31969,0.063196,-0.028755,-0.36959,-0.30577,0.26514,-0.012159,0.053308,0.80645,-0.59331,0.4574,-0.091902,0.17221,-0.30309,0.29903,-0.2227,0.17574,-0.12562,-0.88392,0.23772,-0.10665,-0.16469,-0.0062413,0.063471,-0.0058363,0.47822,-0.14436,0.21022,0.80716,0.086879,0.24595,-0.20572,0.61024,0.13077,0.23811,-0.47863,0.41579,-0.39772,-0.05297,-0.28165,0.089076,-0.33072,1.0201,0.57433,0.40642,0.24504,-0.79313,-0.52615,0.44464,0.095385,0.065037,-0.50919,-0.16802,-0.74846,0.63281,-0.38644,0.1505,0.55398,-0.14744,-0.14602,-0.46417,0.20039,0.8419,-0.5875,-0.67576,0.37965,-0.0062809,0.064515,0.13857,-0.0041967,0.079328,0.44888,0.16233,-0.3393,0.58521,-0.33205,-0.88563,-0.68177,-0.24485,0.092827,-0.5021,0.52723,0.596,-0.30737,-1.5395,0.074287,-0.12636,0.203,-0.48863,-0.06816,0.79146,0.034857,0.098285,0.86643,0.1949,-0.48001,0.23473,0.28675,0.64705,-0.42507,-0.10396,-0.46367,0.51039,1.0218,0.10866,-0.0028738,0.080376,0.64677
horse,0.36644,0.044491,0.15735,-0.096563,-0.28673,0.38474,0.014717,-0.032079,-0.5931,-0.758,0.37954,0.19648,-0.12906,0.47898,-0.22356,0.83269,0.036926,0.64044,0.0035343,-0.37028,0.098275,0.36589,0.069618,0.47442,0.21356,-0.70693,0.48244,-0.73257,0.44024,0.37384,-0.2011,-0.33331,0.058148,-0.48068,-0.70045,0.35382,-0.048946,0.21268,-0.31971,-0.27298,-0.38031,-0.14426,0.32441,-0.48592,0.25828,-0.13681,0.67602,0.07865,0.22718,-0.39585,-0.46659,0.093791,0.13611,0.1599,0.27122,0.18914,-0.5265,0.36636,-0.41394,-0.1947,0.15396,0.26031,0.65253,0.1192,-0.07087,-0.33097,-0.50355,-0.0369,0.055362,-0.48271,0.0087827,0.64673,-0.0072435,-0.63788,-0.14221,-0.40526,-0.060919,-0.69815,0.12783,-0.22633,0.29314,0.36234,0.14002,-0.04038,0.088464,-0.44306,-0.16378,0.038109,0.082347,0.51784,0.57216,-0.15847,0.37392,0.2311,0.064005,-0.027121,0.053415,0.22671,0.098136,0.19454,-0.053678,0.067613,-0.28538,-0.25086,-0.070512,0.18141,-0.30241,-0.61756,-0.24724,0.59232,-0.22673,0.28033,-0.23974,-0.025559,-0.25066,0.25601,-0.24743,0.32439,0.35437,-0.15191,0.0079952,0.14701,-0.0010967,-0.38891,0.18957,0.17553,-0.2942,0.91866,-0.55162,-0.2183,0.41183,0.20676,-0.18071,0.83647,0.019069,-0.13811,0.33211,-0.21253,0.047446,0.36905,0.30453,0.15333,-0.30717,-0.41002,0.14689,-0.81757,-0.24733,-0.31988,-0.58598,0.45272,-0.1094,0.9277,-0.44646,-0.15616,0.084289,-0.51624,-0.12726,-0.037546,0.47568,0.13031,0.067664,-0.17915,-0.2041,0.10553,0.25395,-0.044308,0.71205,0.12581,-0.27402,0.29444,0.035155,0.68323,0.050133,-0.18257,0.29659,-0.72355,0.076414,-0.021217,0.19489,0.063135,0.19866,0.26378,-0.36751,-0.18225,0.23068,0.037336,0.19641,-0.26196,0.50887,-0.41845,-0.67548,-0.072357,0.1701,-0.65653,0.10725,-0.089212,-0.40815,-0.47787,-0.20753,-0.11294,2.0469,0.18843,-0.026986,-0.36119,0.80353,0.63043,0.3051,0.0044293,-0.11349,-0.10417,-0.06007,-0.34464,0.22453,-0.33838,-0.057661,-0.32224,-0.28334,-0.23185,0.41329,-0.092918,-0.10947,-0.57018,-0.011696,-0.97895,0.19359,-0.087294,-0.14663,-0.3612,-0.0021043,0.84799,-0.32889,-0.45002,-0.18276,-0.062633,0.56348,0.37458,-0.47577,-0.55301,-0.34315,0.69743,-0.26164,-0.35123,0.20328,-0.26569,-0.71323,-0.44505,-0.56525,0.50282,0.01507,0.049888,-0.69307,0.12744,-0.34952,-0.24252,1.4932,-0.43323,0.17232,0.3376,-0.065503,-0.088749,-0.069387,0.058888,0.0053,0.20457,-0.042053,-0.4791,0.37696,-0.26835,-0.42893,0.242,-0.44046,-0.16824,0.82183,-0.24433,-0.2336,0.0074017,-1.5593,0.070477,-0.10252,-0.067595,-0.26432,-0.22202,0.58198,0.42261,-0.086291,0.36847,-0.24741,-0.10417,0.20434,-0.45977,0.1471,0.60233,-0.56922,-0.063424,0.0093679,-0.1252,-0.075303,0.21883,0.36608,0.31938
bear,0.086177,0.054755,-0.44714,-0.022551,0.31183,0.032818,-0.1387,0.96572,0.4888,-0.75099,-0.093661,-0.1336,-0.26967,0.55778,0.37184,-0.064235,-0.12886,-0.56015,-0.064247,-0.04161,0.25533,-0.21695,0.55944,0.48287,-0.19714,0.071537,0.03649,-0.33761,0.16172,-0.018566,-0.0043925,0.056882,0.0011434,-0.63518,-0.63945,-0.37049,-0.057871,0.29946,-0.21265,-0.14464,-0.62084,-0.59919,0.14505,-0.056854,-0.65216,0.23424,-0.16002,-0.13723,0.42255,0.029473,0.40331,-0.43748,0.015834,-0.20973,0.20679,0.7093,0.19593,0.52424,0.29056,0.0074849,0.10345,-0.16943,0.25786,-0.26626,-0.19976,-0.11185,-0.56724,-0.42329,-0.3765,-0.23901,-0.29483,0.37444,-0.52309,-0.15593,-0.11413,0.019484,0.26711,0.057639,0.31101,-0.37802,0.31136,0.07225,-0.020555,-0.43391,0.75394,0.012868,0.050244,0.24589,-0.15259,0.015661,-0.10038,-0.39596,-0.37438,0.1895,-0.41529,0.3433,0.00052799,-0.32638,-0.36392,0.29913,0.34003,0.39086,-0.043513,0.11121,-0.11696,0.4289,0.1319,-0.016068,0.69789,0.51215,-0.43074,0.43994,-0.40824,0.045821,0.33181,0.15766,-0.24087,0.24838,0.28098,-0.041602,-0.33382,-0.44646,0.22765,0.42093,0.02171,-0.072948,-0.45207,0.14919,-0.049597,-0.80394,-0.10511,0.13964,0.17542,0.40328,-0.18582,0.17392,-0.16662,0.42739,0.18718,-0.34434,0.42817,-0.13119,0.14407,0.33895,0.12115,-0.093308,0.20792,0.31744,0.1549,0.39081,-0.25048,0.93391,-0.18456,-0.60641,0.68932,0.18998,0.3024,-0.42275,-0.56295,0.87063,0.63141,0.35814,0.45692,-0.19333,-0.5555,0.33449,0.70025,0.55328,-0.2277,-0.42977,-0.029074,-0.21067,-0.040413,0.19193,0.13761,-0.48582,0.31657,-0.15511,-0.095555,-0.1836,0.46821,-0.27362,-0.17751,-0.15138,-0.056687,-0.055984,-0.043698,-0.36201,0.18331,0.043327,0.38919,-0.4632,-0.28213,-0.12515,-0.53886,-0.41216,0.45824,-0.091527,0.11683,0.2362,1.3584,-0.4163,0.40883,-0.34517,0.050401,0.25273,-0.41,0.69973,-0.0296,-0.041195,0.11202,-0.49028,0.010992,-0.48199,0.43843,-0.51231,0.39979,0.60083,-0.40575,-0.045183,-0.24098,0.41361,-0.14578,-0.20145,-0.084186,-0.2331,0.30997,0.066423,0.30231,-0.12041,-0.51375,-0.2107,-0.40638,-0.23156,-0.40672,0.4184,-0.32911,-0.83878,0.10276,0.29788,-0.24293,0.61889,0.54026,-0.12752,-1.1992,-0.29751,-0.21392,-0.53084,-0.33414,-0.26834,-0.051812,0.34437,-0.40659,0.04144,0.64159,0.2142,-0.36101,-0.035513,-0.078942,-0.048973,0.010626,0.092643,0.042826,0.036211,-0.4253,0.25897,0.42135,-0.0092855,0.044883,0.33648,-0.46076,0.24866,-0.096073,0.26531,-0.0072007,-0.6796,-1.3896,-0.27316,0.034969,-0.20169,-0.1349,0.24364,-0.080494,-0.24458,-0.59143,0.13549,0.054295,0.058038,0.72197,-0.62493,-0.23878,-0.14983,0.29795,-0.5429,-0.2496,-0.019161,0.229,0.53021,0.35338,-0.074899
castle,-0.1766,-0.1067,0.092728,-0.20036,0.75693,0.34978,0.89944,-0.19057,-0.64138,-0.72918,-0.40051,-0.86575,0.44892,0.17342,-0.4232,-0.16546,0.12554,-0.27228,0.40462,-0.025895,0.07331,0.23048,-0.079999,0.67545,-0.068248,-0.84058,-0.37904,0.34066,-0.41394,0.88082,1.049,0.065289,-0.40803,0.27394,0.26686,0.26161,0.30516,0.17292,-0.12226,-0.45172,0.27072,0.12072,0.10309,0.62633,0.15424,0.066492,0.27402,-0.011359,0.035617,-0.36971,-0.27212,0.30419,-0.029469,0.21454,0.18798,-0.25581,0.642,0.26257,0.25794,0.25696,0.19073,-0.91469,0.28297,0.79458,0.50367,-0.33143,-0.035559,0.19906,0.48963,-0.90898,0.0005973,0.41427,0.31812,-0.38192,-0.26507,-0.32503,-0.158,-0.64354,0.14049,-0.38244,0.010944,0.032187,0.15313,0.47306,0.017877,0.33693,0.084287,0.26406,-0.12575,-0.191,0.67717,-0.058757,0.65674,0.55578,-0.21128,-0.092988,0.4982,0.051024,-0.016139,-0.35792,-0.53124,0.37358,-0.041506,0.48738,-0.048687,-0.10883,-0.071626,-0.28086,0.065326,0.29398,0.34477,-0.020806,-0.34124,0.066034,-0.012288,-0.1318,-0.37959,-0.082541,-0.10266,-0.72796,0.37446,-0.26081,-0.60018,-0.37344,-0.26588,-0.29281,-0.082863,0.38763,-0.53015,-0.34863,0.40823,1.0277,0.034781,-0.17896,0.2413,-0.19571,0.20633,-0.24294,-0.46921,-0.80199,-0.22872,-0.43396,-0.59649,0.29551,0.61474,-0.39356,0.94736,-0.028329,-0.70155,-0.31723,0.15434,0.22621,-0.30668,-0.2208,0.31167,0.49716,0.028341,-0.15126,0.21325,-0.030593,0.51088,0.031773,-0.036586,-0.82842,-0.4306,0.38013,-0.19725,-0.48461,0.13519,0.46354,0.53655,-0.26734,0.3301,0.2189,-0.48593,0.84784,-0.47738,0.30026,0.036953,-0.46037,-0.85765,0.66755,0.16102,-0.31633,1.0019,-0.40952,-0.6383,-0.089439,0.24416,0.29266,0.058041,0.17817,0.39374,-0.17105,-0.30128,-0.013123,-0.54731,-0.10412,0.18202,-0.22939,1.0907,-0.39347,-0.62627,0.46059,0.096033,-0.24106,0.2416,-0.27603,-0.21604,-0.26311,-0.15565,0.24759,-0.06195,-1.2176,-0.17199,-0.3758,-0.10238,0.041263,-0.19856,0.20708,0.12977,-0.31001,0.32096,0.0048009,-0.91647,0.11584,0.1819,0.17233,0.20033,-0.41215,0.046023,-0.29671,-0.5012,0.2904,0.51771,0.051429,0.18696,0.75157,0.19385,0.84962,-0.22297,-0.081425,0.75273,0.013327,-0.56611,0.57694,0.17466,0.52977,0.29932,-0.8365,-0.52412,0.04469,-0.049929,-0.46511,0.35855,0.18596,0.46436,-0.45896,0.36921,-0.069515,-0.30176,0.37188,-0.086323,0.10444,-0.93572,-0.87929,0.53891,-0.46165,-0.021852,0.16686,0.043925,-0.60307,0.34406,-0.19295,-0.49632,0.12572,-1.1451,-0.38721,0.20842,-0.27649,-0.48455,0.19812,0.018238,-0.7914,-0.12803,0.24342,-0.33021,0.39221,0.083528,0.10218,0.17657,0.25415,-0.32362,-0.27281,-0.31909,-0.35497,0.7523,0.64619,-0.26,0.53911
helicopter,-0.28809,-0.094536,-0.31041,-0.69948,-0.44834,-0.27219,0.20871,0.2575,-0.37175,-0.99229,0.063094,-0.32549,0.40957,-0.17615,0.37664,1.0476,0.12169,-0.017579,-0.51683,-0.40927,-0.071822,0.2143,0.43753,-0.22334,0.70011,-0.41117,0.17089,-0.1053,-0.46706,0.094743,0.0091942,-0.80089,-0.033494,0.1149,0.36348,-0.48022,0.052723,-0.22787,0.19835,0.38683,-0.38648,0.17715,0.25656,-0.017231,-0.046175,-0.11633,0.98649,-0.41064,0.66817,0.0087365,-0.070647,-0.75679,-0.062527,0.48326,-0.9617,-0.089696,-0.12504,0.098155,0.26847,0.50695,-0.6891,0.015221,0.62741,-0.1791,0.016146,0.546,0.15695,-0.12272,-0.040666,-0.07042,0.40293,0.35223,-0.25816,0.4216,0.01684,0.63667,0.32387,0.48169,0.52112,0.25466,-0.10873,-0.10871,0.13322,0.2876,0.14336,-0.42187,0.15328,0.3609,-0.27074,-0.22478,1.1386,0.29823,0.30816,0.030412,0.37428,-0.13882,-0.53705,0.5506,0.12624,0.49927,0.23788,0.57373,0.51448,1.0947,0.23526,-0.16327,0.41356,-0.12821,-0.19411,0.17585,0.075483,-0.015821,-0.087758,-0.42452,0.60752,-0.13522,-0.029077,-0.17149,-0.34816,0.58271,-0.12023,-0.4127,0.31546,-0.081592,-0.22704,-0.023658,0.18315,-0.11062,0.76964,0.030724,-0.15806,0.85981,0.19563,0.45898,0.12327,0.61011,-0.081385,0.13215,-0.36584,-0.14057,-0.12865,0.1693,-0.34227,0.036532,-1.4718,-0.31428,0.83071,0.31364,-0.1179,0.28819,0.61062,-0.24206,0.6733,0.086587,0.7334,-0.42932,0.90205,0.1691,0.53746,0.086072,-0.22338,-0.95224,0.030119,0.083641,0.096431,0.16389,0.48705,0.35183,-0.46415,-0.0041998,-0.49784,-0.24217,0.50255,-0.032127,-0.70201,0.54642,-0.036858,-0.3352,0.10609,-0.24518,0.09135,0.20445,0.18951,0.072609,-0.34657,-0.10064,-0.2903,0.162,0.11915,-0.43893,-0.33284,0.35404,-0.64481,-0.070744,0.19677,0.13687,0.016199,0.25775,0.49769,0.26468,0.41874,-0.28199,-0.55185,-0.32197,0.29926,0.18101,0.15283,-0.22527,-0.15379,0.38429,-0.11796,-0.17025,-0.67826,-0.47031,0.55183,-1.1245,0.17766,0.0016233,0.015505,0.39144,0.90767,0.25957,0.95858,-0.12266,-0.17319,0.124,0.51789,-0.77826,-0.098059,-0.23292,0.13863,0.38319,-0.20051,0.10793,0.86641,-0.081559,-0.064856,0.066476,-0.32088,0.21029,0.76741,0.19046,0.35569,-0.39395,0.6153,-0.054379,-0.1765,-0.57774,-0.0061976,0.39002,-0.91981,0.45332,0.19388,-0.29813,0.57121,0.04791,-0.44652,-0.020915,-0.091194,-0.23003,0.011306,0.14703,-0.40692,-0.2356,0.74315,0.22697,-0.38685,0.24296,-0.52517,0.037216,0.19508,-0.013224,0.12607,-0.062472,0.19398,-0.30846,-1.7767,-0.51524,-0.16945,-0.18995,-0.061007,0.037484,0.42444,-0.17937,-0.29873,-0.023601,-0.42787,0.45943,0.31539,0.28303,-0.13913,-0.28848,-0.24108,-0.47327,-0.3724,0.9617,-0.43451,-0.39482,-0.5805,0.31492
apple,-0.20842,-0.019668,0.063981,-0.71403,-0.21181,-0.59283,-0.15316,0.044217,0.63289,-0.84821,-0.21129,-0.19763,0.19029,-0.56226,0.27126,0.23782,-0.5189,-0.24518,0.035243,0.096833,0.24898,0.71279,0.038279,-0.10514,-0.4779,-0.39515,-0.27194,-0.44428,0.06113,-0.2318,-0.35901,-0.18239,0.035507,-0.087719,-1.0816,-0.42521,0.003224,-0.45991,-0.043462,-0.39031,0.519,0.21139,-0.25527,1.1805,-0.19041,-0.12156,0.034186,-0.062316,0.14421,-0.53366,0.47425,-0.4471,0.58047,0.43578,0.1321,-0.095712,-0.37182,-0.013837,0.20601,-0.10099,0.10685,-0.33723,0.10986,0.34796,-0.099839,0.36942,-0.52917,0.12407,-0.46127,-0.38483,-0.10114,-0.17634,0.37574,0.16377,-0.2198,-0.26841,0.84706,-0.35619,-0.083992,-0.20276,-0.56542,0.19112,-0.14134,-0.7812,0.69188,-0.083628,-0.54293,0.16437,0.037606,-0.68896,-0.68711,-0.13367,-0.4779,0.20125,0.085122,-0.063865,-0.17104,-0.32432,-0.17623,-0.514,-0.50289,0.23204,-0.11324,-1.064,-0.035359,-0.5068,-0.27118,-0.16621,-0.63016,0.054252,-0.048178,0.29282,-0.030666,-0.24645,-0.27084,-0.42563,-0.39171,0.18428,-0.017772,-0.35334,-0.49075,-0.90782,0.13872,-0.76521,-0.46318,-0.32124,-0.086228,1.0448,-0.39919,0.69478,-0.10377,0.86715,0.22742,0.4384,0.085767,-0.22846,0.4309,0.064187,-0.027926,-0.093056,0.65188,0.59143,-0.3376,-0.37732,0.0052212,1.1193,-0.23845,-0.16029,0.42877,-0.16228,-0.12202,-0.1061,0.015761,0.022745,-0.17734,-0.091711,-0.29158,0.19034,-0.35168,0.27563,-0.20577,0.11472,-0.34126,-0.0065915,0.14896,-0.026762,0.0019373,0.53279,-0.76088,0.063085,-0.72089,-0.04128,-0.96164,0.020769,0.16123,-0.34342,0.69713,-0.16018,-0.11701,-0.070239,-0.30774,0.39741,0.39994,-0.678,0.57684,-0.48099,0.59317,-0.42262,0.28613,-0.26203,0.052727,0.61659,-0.36801,-0.28429,-0.40054,-0.30055,-0.27444,-0.045729,-0.56105,0.24176,0.86631,-0.83715,0.13562,0.26196,-0.43055,0.34558,0.059441,0.61845,0.11837,-0.019168,0.47697,-0.32465,-0.15463,-0.23556,-0.64263,-0.092156,-0.19622,0.40666,0.18009,0.094309,0.046917,0.26369,-0.50727,0.37491,-0.66773,0.35095,-0.033835,0.30534,0.23166,0.023526,-0.68365,0.26078,-0.22526,-0.2656,0.59967,0.2598,0.36248,0.15564,-0.45549,0.11153,-0.33287,0.081364,-0.36989,-0.25543,-1.1628,-0.14622,-0.032971,-0.55619,0.47717,-0.29021,0.42688,1.2397,-0.81391,0.21084,-0.25426,-0.08684,-0.078412,0.26035,0.3281,-0.23777,0.05138,-0.030247,-0.15669,0.057147,0.33902,0.12795,-0.21468,-0.75208,0.41422,0.0062719,-0.52904,0.92193,-0.42179,-0.69638,0.074115,0.19071,-1.2031,-0.081333,-0.4914,-0.22159,-0.29876,0.30094,0.018634,0.18786,-0.45429,-0.29296,0.3695,-0.24218,-0.11803,0.071775,0.44026,-0.59978,0.45354,0.17854,-0.17155,0.018811,-0.62354,-0.014163,0.16799,-0.064392
jet,0.41851,0.30423,0.097914,-0.62273,-0.20197,-0.086799,0.32338,0.82683,-0.49267,-1.3716,0.2015,-0.17095,0.30762,-1.0875,-0.51522,0.65083,0.51989,0.67589,0.047592,0.081267,-0.43307,0.72925,-0.08488,0.33194,0.090652,0.0032748,0.5123,-0.26715,-0.12664,-0.61814,0.52819,0.1074,0.016534,0.28681,-0.41951,-0.24331,-0.69514,-0.25701,0.19653,0.74578,-0.73948,0.34317,0.02286,0.003666,0.30548,-0.048929,0.79477,0.063329,0.82976,-0.13165,0.37738,-1.0744,-0.077519,-0.19655,-1.2314,-0.21381,-0.017453,-0.10583,0.13537,-0.070715,-0.69956,0.11071,0.44495,-0.069478,0.11379,0.67761,-0.28107,0.042696,0.31324,0.3732,0.84254,0.51201,0.088007,-0.069637,-0.15175,0.65572,-0.43863,0.004191,0.089711,0.76313,-0.83849,-0.3034,-0.18291,0.32937,0.38187,-0.44604,0.50407,0.042462,-0.34834,-0.25875,0.65045,0.76244,0.20862,-0.37513,0.48552,-0.089904,-0.4483,-0.075054,-0.27693,0.63872,-0.34343,-0.093134,0.38503,0.40421,0.098305,0.0074977,0.070594,-0.025757,-0.55236,0.064901,-0.43979,-0.054015,0.17046,-0.16119,-0.27522,0.033879,-0.014426,0.5104,-0.63918,-0.53052,0.31227,-0.14183,-0.14079,-0.20666,-0.24106,0.0066268,-0.19691,-0.072235,0.6074,-0.28299,-0.082671,0.25755,0.087216,0.14161,0.30527,0.47528,-0.45196,0.52647,-0.41143,-0.20571,0.18785,-0.40883,-0.25899,0.37552,-0.62488,0.25682,0.23746,0.019934,-0.071923,0.66766,0.81861,0.16974,0.22691,0.26334,1.0928,-0.26734,0.33898,-0.020846,0.055769,0.014759,0.36185,-0.61597,-0.57612,0.14885,0.089242,-0.091015,0.15265,0.075513,-0.87563,-0.080846,-0.2792,-0.37342,0.16256,0.24048,-0.80284,0.1857,0.55932,-0.48324,0.71601,0.090929,0.079133,0.31696,0.51172,0.50291,0.26499,-0.2663,-0.25751,0.64138,-0.48452,-0.25397,0.20687,0.4883,-0.45693,0.13283,-0.22306,-0.41431,-0.57225,-0.064503,-0.19692,-0.14816,0.44222,-0.52335,0.19829,-0.58635,0.20407,0.080624,-0.68944,0.55,-0.69107,0.0214,-0.14536,-0.17134,-0.19007,0.063821,0.10329,-0.50647,0.097057,-0.52351,0.087698,0.24066,1.0649,0.58947,0.38267,-0.26062,-0.41001,-0.098317,-0.2762,0.38611,-0.027188,-0.28485,0.66444,-0.35205,0.076855,0.29482,0.51562,0.0035108,-0.17545,0.16944,-0.20677,-0.0033178,0.081197,0.19872,-0.08709,0.18091,0.24046,-0.55471,0.14088,-0.63466,0.29353,0.31015,-0.69329,-0.22825,0.036209,-0.17325,0.23058,-0.12085,-0.46928,0.34343,0.34122,-0.33685,0.37968,-0.064025,-0.31736,-0.36179,0.8535,0.2375,-0.20813,0.27682,-0.023608,0.69593,0.57824,-0.074792,-0.15732,-0.2364,-0.14434,-0.10285,-1.1611,0.16881,-0.18803,-0.41478,-0.48543,0.83564,0.27642,0.10355,-0.23853,-0.10679,-0.21353,0.40171,-0.14925,0.24383,0.09989,0.23612,-0.35899,-0.38662,0.11553,0.50818,-0.60655,-0.32167,-0.21575,0.14662
fighter,0.11439,0.3935,-0.021309,-0.3576,-0.49983,-0.25101,0.36899,0.50568,-0.75061,-1.4255,0.85779,-0.57553,-0.17032,-0.31253,-0.22633,0.087211,0.21069,0.29242,-0.16223,-0.030009,0.25104,0.49481,-0.090723,-0.2797,0.055222,-0.43126,0.42703,-0.30982,0.026497,0.46685,0.25333,-0.42627,-0.065955,-0.087457,-0.28038,-0.47266,0.03095,0.01058,0.0042353,0.54642,0.24872,-0.10526,-0.36481,0.33467,0.20439,-0.077813,0.61238,-0.11733,0.53565,-0.29815,-0.062409,-0.93653,-0.071199,0.24365,-1.1892,-0.44238,0.30494,0.65612,0.5393,-0.20509,-0.50086,-0.48799,-0.32945,-0.34765,-0.044388,0.78153,0.0023572,0.064147,0.88962,0.48149,0.18083,0.70729,-0.40251,-0.26488,-0.41283,0.79311,-0.38848,0.27753,0.017767,0.57708,0.30223,0.2603,0.67779,0.10198,-0.37056,-0.051798,0.10097,0.11784,-0.132,0.08166,0.29939,0.21047,0.13825,-0.22323,0.22726,0.11188,-0.82855,-0.016733,-0.39247,0.6912,0.082838,-0.5719,0.42905,0.2845,0.49317,-0.48423,0.018793,0.15986,0.38008,0.062312,0.15311,0.19197,0.0009189,-0.07406,-0.56199,0.53308,-0.18203,0.14711,-0.81623,-0.25171,0.35735,0.49849,-0.32667,-0.11395,-0.21315,-0.074184,-0.29465,-0.14875,0.56985,-0.4273,-0.57839,0.071617,-0.033365,0.11719,0.054955,0.0036702,-0.45082,-0.13498,-0.095854,0.11733,0.46136,0.70101,-0.33226,0.79594,-0.28278,0.4955,-0.22415,0.12253,-0.58652,0.27522,0.54549,-0.2555,-0.20106,0.2276,0.83211,-0.19726,0.19289,0.68413,-0.073497,0.16595,-0.13511,-0.050373,-0.48336,0.20457,-0.22375,-0.17435,0.092889,0.42489,-0.35539,-0.25555,0.13512,-0.53504,-0.16037,-0.0033699,-0.59037,0.15185,-0.050236,-0.55099,0.53918,-0.19579,0.35551,0.43285,0.38571,0.50236,0.16983,0.43891,-0.45979,0.44462,0.16975,-0.30385,-0.38005,0.33169,-0.1874,0.27364,0.049076,-0.25845,-0.62407,-0.285,0.57886,-0.52758,1.3516,-0.39979,0.23623,-0.84958,0.22273,0.29033,-0.54976,0.25733,0.12974,0.86074,0.099633,-0.4326,-0.97934,-0.060467,-0.44366,-0.45216,-0.3071,-0.14061,-0.062442,0.46875,0.42307,0.2559,0.64879,-0.34378,-0.14091,0.16506,0.54568,-0.22983,0.027605,-0.040481,0.44694,-0.30451,0.20813,0.55101,0.29823,-0.060425,-0.30208,-0.091191,-0.0839,0.67179,0.25147,-0.53126,0.32502,-0.17798,0.45108,-0.20413,-0.29329,-0.4403,-0.093639,0.011879,-0.57613,-0.50715,-0.9635,0.29099,0.47027,0.50392,-0.14036,0.068538,0.0042608,-0.036507,0.099698,0.10777,-0.19988,-0.41826,0.19089,0.39337,-0.81447,0.37852,-0.04006,0.12481,0.36696,-0.048884,0.30056,-0.15134,-0.92572,0.39864,-0.92442,0.014506,-0.3667,-0.36908,-0.10062,0.77948,0.38426,0.22913,0.64524,0.12304,-0.37033,0.32395,-0.34383,-0.04271,-0.43542,-0.060628,-0.412,-0.6378,-0.025666,1.184,-0.058468,-0.15521,-0.48322,-0.40471
tiger,0.31805,0.38612,0.10725,0.28261,-0.044965,0.010612,0.43426,1.1006,0.15124,-0.75199,0.54254,-0.25544,-0.164,0.16128,-0.01706,-0.2241,0.12682,0.84087,-0.27631,0.04431,0.26123,-0.038948,-0.14925,-0.60481,-1.1059,-0.11135,-0.059403,-0.22909,0.67889,0.18288,0.06961,-1.3831,0.05736,-0.33441,-0.26577,-0.34069,0.17086,0.59148,-0.83631,0.48743,0.24388,-0.42785,0.39639,-0.18224,-0.31574,-0.41929,0.43294,-0.315,-0.2339,-0.0095833,0.96671,-0.18473,0.15179,0.35956,-0.05443,0.24032,-0.017691,1.0346,-0.23621,-0.046284,-0.63183,-0.26131,0.22495,0.65933,0.097632,-0.14428,-0.51098,-0.6434,0.22279,0.47017,0.06845,0.34013,0.050337,0.024793,-0.013726,0.22475,0.53832,-0.60123,0.24434,0.35062,0.14058,-0.24493,0.10419,-0.49484,0.32629,-0.63158,-0.81345,-0.035166,0.23366,-0.26914,-0.015012,-0.091551,-0.35173,0.032239,0.44592,0.3262,0.20522,-0.4646,-0.56885,-0.4661,0.0977,0.371,0.55914,0.33662,0.55955,-0.026679,0.020628,0.16219,-0.079194,0.21179,-0.081665,0.096164,-0.82605,-0.16286,0.098834,0.089302,0.18239,0.52664,-0.64723,-0.27549,-1.049,-0.5939,-0.20139,0.5816,-0.29544,-0.23005,0.19733,0.31993,0.040029,-0.42565,-0.26076,0.28575,-0.10009,-0.020921,-0.16854,0.23219,0.012139,-0.16396,-0.22856,0.31307,0.044448,0.027773,0.42594,-0.4287,-0.39471,-0.40541,0.06398,0.55482,0.048681,-0.26031,-0.25607,-0.068518,-0.21721,-0.21251,0.48762,-0.4804,-0.39291,-0.26542,0.30685,1.3879,0.31551,0.37906,0.048222,-0.26885,-0.67447,-0.058845,0.014894,0.31901,-0.8533,-0.53998,-0.65799,-0.22534,-0.099321,0.70429,0.11255,-0.28921,0.14851,0.25052,0.53332,-0.013101,0.060388,-0.15534,-0.16244,0.18062,-0.0025835,0.10043,-0.14026,0.29892,0.26348,-0.07395,0.37324,0.15981,0.20407,0.10287,0.066057,0.096447,0.4999,-0.032505,0.11403,-0.30171,1.8904,-0.42511,-0.14158,-0.54888,-0.20008,0.37909,-0.6607,-0.20747,-0.36918,0.068243,0.056493,0.067445,-0.21361,-0.9983,0.32986,-0.55691,0.17576,0.35422,-0.065196,-0.016417,0.83042,0.26428,0.29994,-0.5164,0.12353,-0.46543,0.38272,-0.36424,-0.36278,-0.56585,0.23366,-0.72896,0.35874,-0.0062963,-0.080878,-0.1936,0.21159,-0.090342,-0.79771,0.30855,-0.48318,0.13295,0.040856,0.95406,-0.73737,0.46077,-0.082662,0.22545,0.25722,-0.57956,-1.1102,-0.24182,-0.53534,-0.39995,0.89786,-0.4703,0.68895,-0.0644,-0.30525,-0.24539,0.10649,0.00011519,0.052123,-0.23651,-0.27918,0.12954,0.13222,0.45636,-0.1659,-0.16413,0.21242,-0.098367,0.27643,-0.35059,0.42767,-0.36123,-0.53538,0.11485,-0.25226,-0.17993,-0.14363,0.12369,0.23747,0.20453,-0.61958,-0.23841,-0.57274,-0.22474,0.21683,-0.28839,-0.35495,-0.44978,-0.7392,-0.10828,0.0060953,0.94683,0.36775,0.1424,0.2597,0.25982
guitar,0.008284,0.36789,-0.58912,0.093717,-0.2134,-0.34377,-0.0095159,-0.24794,0.052299,0.020636,0.049564,0.078079,0.055378,0.50125,0.64519,-0.22208,0.01999,-0.32922,0.38824,0.40742,0.76214,0.68502,-0.90847,0.41976,-0.17447,0.17177,0.14099,0.29285,-0.046111,-0.16916,-0.60155,0.27017,-0.15886,0.15255,-0.9834,-0.12289,0.38797,-0.38123,0.45624,0.64703,-0.11843,-0.090831,-0.11158,-0.085796,0.66144,0.68681,0.80822,-0.72685,0.52863,0.24645,0.14631,0.48943,-0.098963,0.64942,-0.26052,0.35765,0.088856,-0.21148,0.10664,0.15701,0.70036,0.41755,0.41065,0.12012,0.053675,-0.30975,0.43444,0.4063,0.13185,0.57017,-0.035658,-0.22433,-0.23129,0.71116,-0.12894,-0.48666,-0.36729,0.53898,-0.063079,-0.26669,0.50031,-0.06057,0.068305,-0.79713,-0.34677,0.23502,0.45375,1.2648,-0.31186,-0.091715,0.93827,0.5691,-0.1509,-0.39118,0.015724,-0.18145,-0.027135,-1.0554,0.12195,0.011341,-0.50688,0.15566,0.33631,-0.57598,-0.40677,-0.027967,0.31769,0.13986,-0.89856,-0.62884,0.37097,0.44297,0.10843,0.60167,-0.19726,-0.17766,-0.063599,0.29599,-0.46488,-0.81673,-0.34308,-0.18182,-0.42274,-0.95114,-0.35367,-0.24176,-0.3944,-0.34507,-0.59583,0.10978,-0.53598,0.40846,0.45302,-0.72778,-0.26542,-0.39902,0.32205,0.29477,0.12528,0.086056,0.27417,-0.3232,0.12761,-0.94171,0.097128,0.078083,0.31463,0.22311,-0.13753,0.51823,-0.14584,-0.2017,-0.053295,-0.42873,0.26813,-0.26223,0.31436,0.12558,0.37848,0.53579,0.74436,-0.42968,0.028819,0.0035708,-0.35707,-0.41109,-0.16468,0.39187,0.054876,-0.10679,-0.32464,0.10921,0.17481,0.47638,0.1601,-0.14011,-0.021327,0.063822,-0.37969,0.094655,-0.73448,0.073924,0.020332,0.5816,-0.43094,-0.6469,-0.43174,0.08018,-0.21051,-0.12606,-0.47337,0.51988,0.26472,-0.0066471,0.17208,-0.21051,-0.3979,0.09464,0.28739,-0.58009,0.99099,0.50364,1.0571,-0.020297,0.075333,0.66519,0.037875,0.75121,-0.32384,-0.072457,0.75111,0.22892,0.73955,-0.010704,0.47067,0.78709,0.64758,-0.1952,-0.60057,0.10367,-0.35989,-0.074318,-0.35712,-0.10475,-0.32425,0.47901,0.056825,0.026876,-0.11882,-0.1907,0.29251,-0.17181,-0.23311,-0.33798,0.6587,0.52436,-0.16444,0.01868,-1.2003,0.41808,0.49656,0.11868,-0.25057,0.054232,-0.34524,0.051732,-0.27384,-0.10538,-0.26133,0.19604,0.06711,-0.25717,0.088991,0.04917,0.023725,0.52406,0.69912,-0.10015,0.70778,-0.51488,0.23333,0.01082,-0.47649,0.44944,-0.061012,-0.086104,0.17894,-0.067669,-0.25651,-0.12751,-0.16291,0.030346,0.64533,-0.39402,0.45287,-0.16087,-0.98521,-0.19189,-0.41428,-0.16458,-0.20541,0.32515,-0.90294,0.27232,0.18372,0.29531,-0.86746,0.24132,-0.28063,-0.62796,0.7194,0.23181,-0.43325,0.51609,0.017489,0.39173,0.37685,0.21668,-0.30959,-0.28287
bed,-0.20441,-0.082417,-0.056366,-0.17798,-0.33011,0.22672,0.29838,-0.19279,0.30875,-0.83188,-0.23715,-0.019056,-0.05655,0.40601,-0.088462,0.13436,0.17642,-0.26913,0.26743,0.0013045,-0.17153,0.14414,-0.45097,0.23472,-0.01161,-0.21644,0.29732,-0.11061,0.32046,-0.044161,-0.20623,0.4507,0.030282,-0.24265,-0.38689,0.43395,-0.50332,0.012602,-0.25647,-0.12819,-0.28424,-0.36896,0.19886,-0.20929,0.2832,0.14226,0.84719,-0.065723,0.16936,-0.067254,0.34013,0.14643,-0.10263,-0.061908,-0.31589,-0.15444,0.31813,-0.30563,-0.042976,0.30693,1.0147,-0.054988,0.33041,0.49589,-0.32104,-0.60152,-0.16177,-0.20192,-0.78095,0.524,-0.17222,0.062206,-0.69885,-0.13636,-0.033465,-0.20192,0.20644,-0.30579,0.08963,-0.27777,-0.17064,-0.22823,-0.076898,0.14335,-0.0018081,0.39695,-0.11852,-0.087846,-0.39646,0.028137,0.71535,0.4504,-0.27695,0.49229,-0.22587,0.0175,0.213,0.0024181,0.57229,-0.37186,0.11366,-0.023166,-0.21359,-0.0068227,0.082164,0.52396,0.70948,0.14341,-0.22588,-0.27252,-0.22364,0.041681,-0.41411,-0.44792,-0.12249,0.30971,-0.11554,-0.065807,0.24319,-0.34266,-0.34077,-0.18612,0.031894,0.1824,-0.10614,0.10779,-0.20198,0.0039624,-0.34138,0.18654,0.9514,-0.086021,0.18654,0.20607,-0.26246,-0.28321,-0.27812,0.11389,-0.66292,0.046997,0.1876,-0.29742,0.20945,0.21125,-0.96606,0.078958,-0.046497,0.17539,0.026295,-0.19446,0.077567,0.75708,-0.15892,0.32255,0.24556,0.1022,0.15842,0.10227,0.497,0.21543,0.42346,-0.47693,0.085513,0.23091,0.46833,0.49582,0.21895,0.17707,0.0099555,0.27899,-0.5443,0.78735,0.65066,-0.00059914,-0.69341,-0.21176,-0.2596,0.47523,-0.14068,-0.81551,0.058556,-0.25762,0.40318,-0.15714,0.10363,0.12526,0.35582,0.65428,0.6251,0.23995,0.5432,0.92605,-0.3816,-0.50507,-0.3199,0.35812,-0.26064,0.032249,-0.27478,0.03419,0.61503,-0.26811,0.012246,0.0027715,0.39224,-0.45584,-0.093542,-0.5964,-0.41432,-0.29589,-0.42946,-0.49058,0.44673,-0.24123,0.5226,0.2642,0.053704,-0.41188,-0.11574,-0.059676,0.48033,0.20761,0.2092,0.45453,-0.19549,0.23308,-0.26016,-0.50384,-0.069664,-0.16674,0.52601,-0.38847,0.046023,-0.5001,1.0733,-0.47006,-0.42299,0.27519,-0.43659,-0.44483,0.036219,0.080173,-0.50382,0.46914,-0.67205,-0.18639,0.21913,0.085951,-0.63234,-0.077438,-0.407,0.71969,0.56099,-0.5419,0.723,0.29343,0.38554,0.10165,0.28322,0.0064789,-0.11846,-0.313,0.09041,-0.058312,-0.48567,-0.30149,0.75886,-0.27481,-0.23522,0.38376,-0.21882,-0.75113,-0.42509,-0.079655,0.25668,0.056252,-1.5539,0.24891,-0.69593,0.010845,-0.37691,-0.18424,-0.2984,-0.34224,-0.050046,0.36633,0.064514,0.25401,-0.31907,-0.58837,-0.02952,-0.092347,-0.05096,-0.34635,-0.10296,-0.31531,0.72788,0.21168,0.047181,1.0278
chair,0.26288,-0.34735,-0.066811,-0.54137,-0.16543,-0.4113,-0.15191,-0.72511,-0.091526,-1.0731,-0.21672,0.18074,0.007132,-0.37416,0.43462,0.40037,0.22786,0.65643,-0.021995,-0.23408,0.01183,0.50484,-0.35343,-0.048301,-0.16914,0.10821,0.26714,-0.19253,0.14933,-0.36426,0.22751,-0.3485,0.41123,0.44848,-1.0098,0.56136,0.28445,-0.46063,-0.21184,0.26158,0.05406,-0.39451,-0.72516,-0.24419,0.22813,-0.040664,-0.17153,-0.34963,0.2377,0.23925,-0.35809,0.22285,0.045329,-0.16477,-0.16048,0.16004,-0.1487,-0.28536,0.067689,0.16285,0.16503,0.41007,0.19622,0.43399,-0.17326,-0.84547,-0.48517,0.18441,-0.48347,-0.16789,-0.39367,0.22717,-0.012973,0.0057874,-0.11799,-0.071603,-0.027664,0.62465,0.11688,-0.85215,-0.16934,-0.061497,-0.23912,0.16618,0.24263,-0.40026,0.10968,0.9017,-0.53714,-0.061908,0.27383,0.021373,-0.089779,-0.18124,0.015042,-0.43666,-0.049903,0.034739,0.10566,-0.066265,0.26143,0.30489,0.093483,-0.075748,0.32563,-0.055995,0.084774,0.027318,-0.26122,-0.56515,-0.14591,0.032099,-0.63133,0.025946,-0.24346,0.18219,-0.12268,-0.16399,0.090297,0.38321,-0.59827,0.25702,-0.41777,-0.32479,0.073994,-0.29516,-0.13135,-0.39541,0.11669,0.14214,0.23187,-0.29866,0.087262,-0.38218,-0.49865,-0.25824,-0.064516,0.58431,-0.5667,0.082143,0.2922,0.4655,0.22288,0.016992,0.21744,0.35655,0.067358,-0.019023,-0.35232,-0.12151,0.62931,0.36017,0.50084,-0.26696,-0.6836,0.25891,0.08095,-0.43374,0.052471,0.39305,0.16622,0.71774,0.11808,-0.32932,0.40801,0.0064573,-0.043032,0.29342,0.25567,0.42705,-0.53552,0.67649,-0.10678,-0.3978,-0.12916,-0.30146,-0.14089,0.99601,-0.1305,-0.55658,0.1782,-0.13925,0.057779,0.43664,0.35001,-0.22999,-0.62618,0.40345,-0.032496,-0.022293,0.58286,-0.15579,0.11272,-0.26909,-0.43672,0.459,-0.081416,0.6542,-0.24707,0.1447,0.80749,0.13562,0.1922,0.031007,-0.071341,-0.40361,0.41713,-0.10426,-0.19787,-0.022537,0.42874,-0.11561,0.12082,-0.13225,0.095848,0.32152,-0.597,-0.75548,-0.25992,-0.63549,-0.31303,0.047325,-0.19442,0.11598,-0.14563,0.26155,-0.18572,0.23458,-0.44775,-0.03043,0.40137,-0.11638,-0.15205,0.06029,0.21925,-0.067026,-0.35741,0.17171,-0.33893,-0.30232,0.13413,0.090298,-0.38746,0.10396,-0.21244,0.60908,-0.095747,-0.26722,-0.58356,-0.1392,-0.2757,-0.37958,0.50873,-0.53531,0.26426,0.24384,-0.58849,-0.2261,0.1312,-0.065072,-0.53058,-0.41471,0.37223,0.59929,-0.16639,-0.80862,0.43086,0.54674,0.00027524,0.71967,-0.63574,-0.22461,-0.1246,-0.35363,-0.12981,-0.34682,-1.0077,0.49169,0.16506,0.28804,-0.66238,-0.42212,-0.26845,-0.51605,0.031118,0.49397,-0.039259,0.43592,-0.0017542,-0.32901,0.40113,0.05714,-0.22851,-0.014979,-0.50594,0.62951,0.10739,0.10382,-0.21384,0.83684
bomber,-0.26919,-0.23364,-0.60478,-0.3106,-0.1535,0.26533,-0.14803,0.75536,-0.80921,-1.116,0.87649,-0.30524,0.33509,0.12137,-0.46458,0.20546,0.26078,-0.23126,-0.30415,0.44887,-0.44441,-0.24574,-0.027659,-0.11774,-0.6871,-0.14616,-0.14675,-0.40168,-0.35009,-0.075716,0.016958,-0.59123,0.289,0.20792,0.85319,-0.60338,-0.59029,0.40598,0.066643,0.6041,0.034201,0.61061,-0.31625,0.20706,0.29637,-0.26343,0.33364,-0.31542,0.15569,-0.29755,-0.19869,-0.19994,-0.35943,0.34577,-0.65719,-0.21231,-0.33932,-0.47734,0.46448,0.31319,-0.82836,0.011548,-0.15639,-0.88017,-0.094455,0.52509,-0.11617,-0.31096,-0.12653,0.78626,0.58081,0.42317,0.09434,-0.0698,-0.4092,0.51292,-0.0078751,0.055217,0.1184,0.39839,0.20041,0.1784,-0.22566,0.71706,0.0054323,-0.67678,0.23959,0.33535,0.73745,0.63112,0.0095425,-0.0033771,-0.26936,-0.41478,0.75461,0.49511,-0.14733,-0.48544,-0.23955,-0.07833,-0.11111,0.15527,0.45497,0.21449,0.12717,-0.40851,0.51427,0.60961,0.64527,-0.35804,-0.16696,0.91448,0.0097429,-0.2059,-0.65196,0.40324,0.10886,0.028132,0.18916,-0.53715,-0.35969,0.40592,0.48313,-0.28695,-0.13671,-0.38697,-0.10153,-0.032198,0.76258,-0.99135,0.42504,0.36426,-0.45825,0.17322,0.12334,-0.43222,-0.62719,-0.43234,-0.036375,-0.28563,-0.11848,0.70716,0.1201,0.92344,-0.6291,0.45482,0.012279,-0.1101,-0.10457,0.056435,0.25549,-0.12515,-0.26226,0.02319,0.78391,-0.69123,-0.27131,0.19126,0.61649,0.80669,0.60896,-0.14339,0.064523,-0.68999,-0.15235,-0.59626,-0.52983,0.71878,-0.29218,-0.66663,0.44753,0.032246,0.52735,-0.74795,-0.59239,0.34204,-0.045968,0.31353,0.49403,-0.24685,1.0331,0.35211,-0.29541,0.29708,-0.0066629,0.62471,-0.25423,0.38143,0.27437,0.1779,0.2679,-0.020213,-0.1567,-0.14029,-0.40191,-0.40181,-0.38271,0.13118,-0.42242,0.03146,0.53239,-0.98464,0.5378,0.13872,0.023562,0.17126,-0.30342,0.057235,0.14896,0.63888,0.05887,0.054039,-0.44049,-0.21731,-0.3723,-0.49006,0.10434,-0.00021148,0.09355,0.15065,0.58743,1.2721,0.31427,-0.48434,0.21507,0.045491,0.33442,-0.64276,0.36167,0.17244,0.5895,0.10503,0.36086,0.2373,0.45637,0.21502,0.99568,0.24673,-0.46354,0.17484,0.27385,0.13802,0.018163,-0.095517,0.50813,-0.33964,0.19331,-0.74197,-0.059576,0.27685,-0.44664,-0.50493,-0.16583,-0.0055445,1.1533,-0.31781,-0.22366,0.95336,0.073657,-0.52639,0.30571,-0.15283,0.58532,0.82308,-0.40714,-0.24452,-0.26576,-0.2268,-0.36079,0.3863,0.034109,-0.061366,-0.23258,0.44728,-0.66435,-0.70005,-1.1764,0.24749,-0.10769,-0.32843,-0.41721,0.68263,0.47671,-0.60753,-0.22437,1.1522,-0.39166,0.53381,0.10548,-0.098202,0.079115,-0.79079,-0.52494,-0.057935,0.17939,0.86247,-0.42553,-0.25559,-1.1357,-0.24805
dress,-0.62674,-0.10394,-0.35119,0.21756,-0.2812,-0.041454,-0.20956,0.0082139,0.014152,-0.98683,0.29653,0.23973,-0.16281,0.69732,-0.28166,-0.57722,0.61489,0.18432,-0.53598,-0.026746,-0.091363,-1.07E-05,0.3905,0.29741,-0.69476,-0.56674,0.046048,-0.044878,0.27778,0.11571,0.28423,-0.24554,-0.12412,0.12969,-0.91579,0.75868,0.1009,0.075075,0.37597,-0.28849,-0.091504,-0.72007,-0.0026172,-0.2264,-0.1684,-0.23273,0.18469,-0.26558,0.071328,-0.099455,0.05771,-0.14206,0.33873,-0.58049,-0.44895,-0.65174,-0.69426,-0.9766,0.28653,0.014345,0.52344,-0.39445,-0.12764,-0.035318,-0.36866,-0.78688,0.29448,-0.053418,0.27507,0.20595,0.11045,-0.17787,-0.2407,-0.26643,0.18166,0.33613,0.18843,0.24558,-0.43306,-0.4282,-0.28667,0.29037,-0.39065,-0.20201,0.73041,0.13969,0.19305,0.026546,-0.075088,0.20489,-0.53729,0.095659,0.15826,0.22857,-0.003734,-0.061572,0.31135,0.060075,0.25046,0.10783,0.69073,0.56754,-0.22793,-0.11157,-0.36071,0.18694,0.47157,0.3127,-0.0057754,0.040416,0.17807,0.73345,-0.059468,0.398,-0.1101,0.20406,0.11429,0.41487,0.15558,-0.91342,0.15613,0.33057,0.82833,0.16657,-0.011297,-0.1406,0.027715,0.17255,0.10299,-0.037639,0.15663,-0.39614,-0.14953,-0.006815,0.026054,0.3038,-0.34322,-0.23277,-0.17795,0.26048,0.05577,0.16868,-0.024158,-0.42382,-0.095212,-0.044879,-0.1938,-0.099206,0.41231,0.39928,0.010378,0.12136,0.36942,-0.71826,0.27203,-0.16864,-0.22169,-0.31295,0.55455,0.24566,0.093537,-0.24791,-0.30417,-0.10839,-0.20591,-0.1426,-0.48406,0.48612,0.28556,0.13601,-0.49919,0.015521,-0.098815,0.030341,0.13729,-0.35768,0.061841,0.68095,-0.25306,0.073388,-0.041408,0.019299,0.19628,-0.26353,0.31297,0.35845,0.42479,0.34665,0.078535,-0.4331,0.16497,-0.18932,-0.37463,0.16856,0.095496,0.18139,-0.79567,-0.27234,-0.31023,-0.90079,0.97775,0.039661,0.7141,0.71496,1.0651,-0.050777,0.49358,0.51251,-0.57751,-0.16322,-0.074272,-0.1813,0.023794,0.60541,0.049659,-0.3179,1.1442,-0.9231,-0.054919,-0.28874,0.25827,0.13271,0.33707,0.54579,-0.068313,-0.1549,0.15591,-0.008288,0.3456,0.043123,0.54711,0.089527,-0.4717,0.22176,0.56354,0.093359,0.19982,-0.33911,-0.10226,0.46815,0.40148,-0.10855,-0.27517,0.80044,-0.16396,0.86628,-0.53153,-0.49585,0.49227,-0.13488,0.24167,0.34727,-0.082801,-0.2127,0.35837,-0.63224,0.10822,0.52492,0.1153,-0.37781,-0.16894,-0.045417,0.46968,-0.30187,-0.82696,-0.51131,-0.16794,0.24929,-0.1773,-0.072442,0.034033,-0.33523,0.28609,0.043064,-0.47368,-0.024811,-1.2771,0.072154,-0.54013,-0.25883,0.4089,0.14222,0.30463,-0.2101,-0.2411,0.4229,-0.31118,0.61183,-0.22644,-0.27363,0.35295,-0.33466,-0.56336,1.1848,-0.10471,-0.58642,0.44058,0.39987,0.9989,-0.096597
corn,-0.34935,-0.11234,-0.26714,0.023943,-0.19485,0.18333,0.15329,-0.14471,-0.029271,-0.31614,-0.3777,-0.47992,-0.32679,0.24296,-0.32469,-0.13532,-0.15617,-0.053656,-0.14306,-0.019348,-0.54722,0.0058541,0.49176,-0.024525,-0.056165,-0.087314,-0.35136,-0.30423,-0.57448,0.20628,-0.23059,0.36253,-0.86068,0.42352,-0.39691,1.1799,0.10356,0.19563,-0.095417,0.50561,-0.16929,0.141,0.16047,0.6227,0.19559,-0.33153,-0.11513,-0.34013,-0.070928,0.24939,0.45811,0.766,-0.10784,-0.0031801,-0.48138,-0.40442,0.13786,-0.42364,0.34526,-0.41329,-0.096881,-0.15948,0.46478,0.19213,-0.78874,0.10875,0.13474,0.087171,-0.30385,0.14966,0.26803,0.72606,-0.27369,-0.49723,-0.60811,-0.28795,0.36755,-0.47366,-0.32018,0.50837,0.47991,0.076536,-0.2092,0.20321,0.14098,-0.31638,-0.24675,0.15149,0.14832,-0.62039,0.27212,-0.44366,0.36586,-0.028204,-0.2592,0.1802,-0.4593,0.79719,-0.35764,0.83066,-0.050565,0.47649,0.32707,-0.40328,-0.80331,0.22766,-0.47879,0.82981,-1.0268,0.58232,0.025879,-0.44747,-0.30498,-0.4374,-0.39685,-0.019086,0.22681,0.37591,0.28404,0.3769,-0.88867,-0.35171,-0.019131,0.70795,-0.30632,-0.080128,0.49817,0.50982,0.40206,0.26888,0.14922,1.1521,-0.52285,0.25567,0.29366,0.25043,0.33312,0.49003,0.13684,0.42864,0.10956,0.581,-0.034714,-0.74765,-0.6171,0.64106,-0.10931,-0.13817,0.24885,-0.71455,-0.49574,0.64023,-0.3041,-0.025347,-0.48937,0.73273,-0.49748,-0.12813,-0.013178,-0.051756,0.39798,0.021744,-0.20752,-0.24841,-0.088683,0.26411,0.18895,-0.77057,-0.13659,-0.44896,0.093182,0.050504,-0.15934,0.10756,1.0896,0.015545,0.56541,-0.082993,-0.39625,0.023945,-0.46915,0.61342,-0.26852,-0.47405,-0.45145,-0.27547,0.68477,0.2553,0.49937,-0.51478,-0.82942,0.99139,-0.39661,0.15383,-1.0169,-0.13396,0.13172,-0.36033,0.0034929,-0.24335,0.19491,-0.29378,0.50722,0.82579,-0.16012,-0.049314,0.47027,0.65678,-0.32312,-0.21402,0.14409,-0.76517,-0.13409,-0.10163,-0.27218,0.62252,0.12621,0.0046489,0.5244,-0.3131,0.73052,-0.65409,-0.47542,-0.48143,-0.27801,-0.046237,0.3835,0.5773,0.15172,-0.067585,-0.029667,0.60199,-0.062157,0.86018,0.32762,0.3261,0.43263,0.37085,-0.76824,-0.014688,-0.55601,0.41437,-0.51001,0.14107,-1.3303,-0.77512,0.10986,-0.45034,0.013793,-0.86271,0.18343,0.025191,-0.41781,0.11452,0.15423,0.36855,-0.55834,-0.012858,0.22809,-0.13042,-0.096663,-0.23081,-0.22396,-0.37544,0.34596,-0.15013,-0.39367,-0.24251,-0.6138,0.19944,0.16964,0.29732,-0.10597,0.36942,0.073573,-0.33854,-1.233,-0.60855,-0.6722,0.11709,-0.33662,-0.4806,0.044666,0.23558,-0.10611,-0.12961,0.91651,-0.57846,0.16422,0.092347,0.76394,-0.035915,0.049794,0.2794,0.36798,0.10543,-0.39714,-0.96946,0.35315,0.6557
bag,-0.087167,0.23817,0.1477,0.11442,0.31066,-0.24725,-0.16221,0.18462,-0.068427,-1.048,-0.23832,-0.17433,-0.1502,0.041428,-0.20486,0.12536,-0.46615,0.33844,-0.19524,0.0013127,0.36929,-0.63668,-0.49941,0.023309,-0.58039,-0.086316,-0.42041,0.14441,0.72673,-0.34767,-0.055667,-0.11566,0.050934,0.13927,-0.67478,0.71605,-0.50479,0.41031,-0.9804,0.71022,-0.58329,-0.60172,0.25114,0.18577,0.080545,0.14683,0.64657,-0.51276,-0.1757,0.47405,0.32912,-0.34448,0.07519,-0.073344,-0.049369,-0.045919,-0.14913,-0.5057,0.30735,-0.24232,-0.0074066,0.10638,0.06893,0.47667,-0.11929,-0.37295,-0.54608,-0.46485,-0.34325,-0.10604,-0.074453,-0.41857,0.021897,0.071248,-0.18841,-0.036258,0.083648,-0.53704,0.28698,-0.19628,-0.021577,0.30862,0.35096,0.21743,-0.25861,-0.32333,-0.32377,-0.051723,-0.8106,-0.44959,0.27534,-0.19636,0.036794,-0.14299,0.24473,-0.0097748,-0.4097,0.42981,0.1067,-0.66172,-0.18403,0.57346,-0.29616,-0.84139,-0.33983,-0.83538,0.44457,0.28584,-0.45882,-0.20305,-0.29717,0.42332,-0.061232,0.016469,0.034832,0.38043,0.17538,0.14917,0.21717,-0.98132,0.080728,-0.1207,0.67886,0.21742,-0.079411,0.20531,0.19669,-0.12681,0.26542,0.40689,0.24016,0.017693,0.090591,0.28353,-0.019994,-0.24986,0.099543,-0.031665,-0.39682,0.30546,0.050731,0.26762,0.042585,-0.59308,-0.38078,-0.04971,0.086126,0.164,-0.079296,-0.0059037,-0.31682,0.65398,0.052255,-0.44544,0.18627,-0.077004,-0.15702,-0.25422,-0.026992,0.47692,0.4824,-0.53336,-0.076978,0.41504,0.55361,-0.3507,0.024066,0.752,0.1634,-0.2598,0.159,-0.079672,0.095038,-0.047044,-0.037625,-0.55361,-0.02846,0.26768,0.03285,-0.75517,0.74226,0.16412,0.1196,-0.010566,-0.16921,0.17623,0.84869,0.34773,0.21756,-0.60021,0.43147,0.49159,-0.1075,-0.2008,-0.80069,0.20163,-0.34593,0.38318,-0.12851,0.38837,0.40354,0.094573,0.888,0.047391,0.042887,-0.61893,0.11916,0.20922,-0.62785,-0.22108,-0.27163,-0.078794,-0.0066592,0.68371,0.08685,-0.94722,0.099736,-0.37245,-0.44365,0.25768,0.27601,0.48745,0.16116,0.26417,0.39504,0.33554,-0.38993,-0.21519,0.58444,-0.36399,0.082276,-0.11985,-0.29837,0.25864,0.59802,0.47588,-0.091404,0.22592,-0.53319,0.19722,0.1206,-0.0091282,-0.22209,0.09918,-0.40208,-0.4056,0.37567,-0.55753,-0.2055,-0.21993,-0.17928,0.16726,0.3593,-0.51497,0.46273,0.41899,0.16882,-0.22336,0.0033178,-0.25876,0.22727,-0.34178,0.018632,0.3862,-0.023223,0.15013,0.065243,0.15685,-0.40526,0.34639,0.046407,0.23672,0.048853,0.47095,-0.47889,-0.55064,-1.3133,0.25153,-0.63816,0.27686,-0.40941,0.21585,0.34266,-0.32461,-0.48904,0.32415,0.44784,-0.43599,-0.54295,-0.097701,0.087269,-0.044279,-0.13235,0.11473,0.029608,-0.36812,0.33768,-0.15555,-0.12961,0.068955
cathedral,-0.27809,-0.38249,-0.45826,-0.32121,0.26862,0.30372,0.16577,-0.31008,-0.39587,-0.39906,-0.36336,0.59628,0.08986,0.42875,0.32238,-0.12948,-0.30404,-0.4214,-0.02722,-0.18278,-0.66154,-0.073654,-0.47636,-0.21334,-0.084286,0.29675,-0.16486,-0.29592,-0.51374,0.24262,0.88978,0.30761,-0.54001,1.0517,-0.10594,0.063153,-0.085685,-0.31171,-0.2324,-0.17635,-0.36037,-0.088282,-1.0545,0.55365,0.26984,0.27804,0.53222,0.17946,0.14261,-0.26206,-0.037773,0.60876,-0.30891,0.29306,-0.48444,0.57447,0.48794,0.44707,0.06668,0.14927,0.10207,0.29644,0.71254,1.1216,0.32586,-0.37624,0.22256,-0.03388,0.19183,0.0093314,-0.34914,-0.38604,-0.44826,-0.38717,0.20058,0.09379,-0.14347,0.36909,-0.0059863,-0.16836,-0.54156,0.46383,-0.79179,0.18656,-0.34785,0.7384,0.26656,0.48682,0.23117,0.61473,1.1772,-0.67779,0.068112,0.098681,-0.20655,0.0078498,0.43373,0.010328,-0.19168,0.37113,-0.2818,0.16936,0.034675,0.54896,0.46444,-0.42513,0.17535,0.67467,-0.27528,-0.34086,-0.23979,-0.086908,0.049797,0.3314,-0.21743,-0.92079,0.31411,-0.45308,0.067711,-0.37865,0.63104,-0.69992,0.23048,-0.096515,0.15187,-0.83578,0.4325,0.45775,-0.13178,0.23217,0.44002,0.18633,-0.14186,0.2422,0.35192,-0.071918,-0.40603,-0.20466,-0.42617,-0.20362,-0.22046,0.072879,-1.1655,0.25344,0.44799,-0.7437,-0.085422,-0.19332,-0.72658,-0.36789,0.74765,-0.042355,0.020459,0.034946,-0.11998,0.50684,-0.4097,0.018499,-0.29449,0.16805,0.14265,0.58011,0.62056,-0.20318,-0.7046,-0.027657,-0.20429,-0.37516,1.0751,-0.12725,0.020679,-0.18599,0.36658,0.11089,0.1514,1.025,0.025556,0.62129,-0.31369,-0.18743,0.11212,0.42436,-0.25465,-0.20623,1.3591,0.11873,-0.42524,-0.32969,-0.16447,0.54846,0.20024,0.066896,0.097878,-0.26183,0.25129,0.060166,-0.29328,-0.2516,-0.30364,0.1872,0.63008,-0.54186,0.20693,-0.097387,0.14389,-0.34789,-0.36782,-0.34779,-0.31409,-0.0076889,0.81748,0.70049,-0.51051,-0.96348,-0.2368,0.314,0.17335,-0.7948,-0.31021,0.17293,0.34072,-0.067543,-0.20436,-0.42325,-0.46367,-0.22301,0.037713,-0.17031,-0.40602,-0.16812,-0.17648,0.79773,0.067221,-0.2169,0.65153,0.035339,0.79034,0.086686,-0.59052,0.4498,-0.36817,-0.55531,0.42204,-0.3451,-0.23574,0.67204,0.15845,-0.2502,0.16144,-0.11529,0.22858,-0.19478,0.79708,-0.01491,0.12962,0.2056,0.43666,-0.31414,0.13119,-0.44472,-0.06736,0.21505,0.4637,0.29591,0.38669,-0.82413,-0.4203,-0.42819,0.088554,-0.26725,-0.48726,-0.12812,0.45099,-0.16413,-0.4823,-0.044043,-1.3093,-0.72619,0.35339,0.37125,0.33298,0.058999,0.21805,-0.70011,-0.13178,0.7449,-1.1041,0.22179,0.43022,-0.20134,0.34855,0.030223,0.65046,0.42458,0.012147,-0.72644,0.56212,0.19721,-0.42819,0.10946
piano,-0.29595,-0.045198,-0.82513,-0.25787,-0.56528,-0.22412,-0.095299,-0.78178,-0.44269,0.034927,-0.17096,0.44287,0.1873,0.5776,0.30757,-0.8435,0.15376,-0.10658,0.53491,0.21752,0.27796,0.9927,-0.51741,0.47596,-0.40394,0.77503,0.21247,-0.0526,-0.41088,-0.24896,-0.5669,0.23323,-0.22458,0.14012,-0.61862,0.31136,0.12732,-0.25999,-0.18934,0.29657,0.33066,-0.081755,-0.26297,0.1418,0.16474,0.45936,0.77331,-0.0095346,0.035169,0.15476,0.74152,0.58075,-0.09283,0.33132,0.46675,-0.13856,-0.0067538,-0.21858,0.39139,0.31725,0.32736,0.70412,0.51046,0.31816,-0.16413,-0.067281,0.48206,-0.008775,-0.24871,0.46989,-0.023901,-0.14099,0.091091,0.28321,-0.13275,-0.41738,-0.30634,0.25038,0.11585,-0.10207,0.22091,-0.0828,-0.17991,-0.70088,0.0141,0.059093,-0.31875,0.60373,-0.21988,0.41794,1.2076,0.2413,-0.31941,0.33059,0.54153,0.041705,-0.22964,-1.1795,-0.5215,0.059449,-0.2282,0.33217,0.023255,-0.88418,-0.62658,-0.3323,0.11109,-0.033156,-0.42854,-0.56795,0.40398,0.35045,0.31038,0.59835,-0.98895,0.075053,-0.42882,0.52346,-0.5976,-0.27973,-0.015101,0.10957,-0.1092,-1.1992,-0.086124,-0.44566,-0.38702,-0.31299,-0.44698,-0.37823,-0.28143,0.44542,0.4181,-0.57217,-0.42314,-0.23449,0.34767,0.36005,-0.33332,-0.038644,0.53305,-0.13361,0.20615,-0.26139,0.69406,-0.45987,0.077682,0.062017,-0.0077074,0.33647,-0.16378,0.1227,-0.13797,-0.53308,-0.23667,-0.16061,0.23736,0.34385,-0.21727,0.22467,0.39903,-0.29231,0.095321,-0.18427,-0.0035275,-0.31128,-0.61754,0.13568,0.35245,0.11858,-0.3446,0.035989,-0.076362,0.44711,0.24817,-0.44657,0.20217,-0.0010123,-0.85961,0.08886,-0.52206,0.29387,-0.71715,-0.023295,-0.39928,-0.10734,-0.74863,0.22354,-0.5193,0.38991,0.051033,0.076845,0.71293,0.055643,0.0038799,-0.033862,-0.65432,0.24138,0.06283,-0.86678,1.1732,0.90847,0.29235,-0.45536,0.1359,0.58652,-0.46777,-0.046018,-0.3459,-0.73456,0.5795,0.36563,0.36002,0.2075,0.73037,0.72943,0.33103,-0.38326,-0.53207,0.013111,0.12677,0.10543,-0.65505,0.15568,-0.3979,0.43339,-0.17388,-0.079413,-0.067378,0.18446,0.39855,-0.29137,-0.28261,-0.50989,0.4752,0.83126,-0.50153,0.31935,-0.69467,0.090192,0.13812,0.0066253,-0.2638,0.26869,-0.49201,-0.16407,-0.34237,0.19666,-0.46781,0.14172,0.52459,-0.17662,0.52094,0.050948,0.41115,0.0054962,0.58918,0.35161,0.90001,-0.050029,0.21321,-0.34015,-0.043137,0.45631,0.0749,-0.45512,-0.10245,-0.17385,-0.18546,-0.10356,0.097171,-0.38044,0.48925,-0.51199,0.4441,0.004124,-1.1605,-0.46174,-0.58062,-0.55631,-0.18433,0.76694,-0.5132,-0.29225,0.6396,0.25993,-0.68392,0.59276,-0.38373,-0.42732,0.21514,-0.06482,-0.04205,0.15128,0.0087593,-0.017614,0.99468,-0.12871,-0.21366,-0.082472
villa,0.33213,0.94673,-0.32224,0.17364,0.43556,-0.39702,-0.71483,-0.23282,-0.14085,-0.48537,0.015631,-0.35507,0.12165,0.65165,-0.4746,-0.13194,0.50117,-0.36722,0.36183,-0.052114,-0.13451,0.32662,-0.22103,-0.23617,0.54135,-0.44498,0.24323,0.32935,-0.23733,0.041961,0.42513,0.5213,0.19408,0.37547,-0.36944,-0.12439,0.40169,-0.042298,-0.47941,-0.92286,-0.16582,-0.53733,-0.21769,0.84156,0.31609,-0.21556,0.71227,0.34501,0.37253,0.37639,-0.89222,-0.52796,0.14799,0.30019,0.27658,-0.60855,-0.23295,-0.70664,-0.30502,0.11824,-0.27985,-0.14236,-0.2432,0.37705,0.11442,0.18729,0.11252,0.29967,0.0030808,-1.2424,-0.30682,0.1696,0.092712,0.088106,-0.70562,0.36505,0.37834,-0.18074,0.58107,0.12411,0.083307,0.068299,-0.33905,-0.38275,-0.45359,0.41414,0.23793,0.27864,0.41344,0.29974,0.84561,-0.3286,0.47782,0.18271,0.11218,0.12664,0.8932,-0.40907,-0.40647,0.15699,0.20162,0.29224,0.095243,0.62563,-0.63658,0.12677,0.68436,-0.37586,0.27149,-0.034714,0.2686,-0.11015,0.52119,-0.57263,-0.19608,-0.0062313,-0.64791,-0.048172,0.011457,-0.31804,-0.14273,-0.20548,0.066667,0.39788,0.46736,-0.40311,-0.26053,-0.15647,-0.44348,0.14426,0.35837,0.26126,-0.68092,-0.0046702,0.54605,0.26142,-0.10684,-0.15194,-0.47214,-0.20827,-0.27771,-0.76742,-0.40509,0.75207,-0.19051,-0.4151,0.25926,0.088619,-0.82258,-0.078246,0.33432,0.037666,-0.055959,0.28804,-0.4949,-0.23908,0.064685,0.76027,-0.28224,0.066928,0.73305,-0.32164,0.33577,-0.06026,0.54071,-0.090029,-0.36582,-0.14661,0.86197,0.17417,-0.51934,0.25676,0.21288,-0.00055992,-0.17067,0.41859,-1.0077,0.59358,-0.24731,0.22874,-0.3328,-0.18401,0.17832,-0.26494,0.16506,-0.5063,-1.314,-0.014251,0.22538,1.0167,0.45851,0.4468,0.041759,0.19753,-0.51686,-0.40104,-0.11442,-0.35782,0.17708,-0.13768,0.77455,-0.45588,-0.39482,-0.19482,-0.37859,-1.0045,0.30351,-0.098621,-1.1481,-0.20985,-0.0074911,0.21271,0.36595,-0.32831,0.70988,0.24622,0.073049,-0.14911,0.26647,0.3659,0.56789,-0.41494,-0.18327,0.43248,-0.62007,-0.12481,0.60929,-0.22395,-0.070464,-0.05618,-0.26091,-0.24678,0.62427,0.20341,0.62052,0.0014831,-0.097213,0.40571,0.28684,0.34952,0.71149,-0.27284,0.24337,0.22909,0.21121,0.76798,0.035205,-0.4965,-0.15094,-0.31885,0.50339,0.53605,0.38954,0.29859,0.44229,0.60074,0.091112,-0.73506,-0.062344,0.070085,-0.58541,0.22835,0.11562,0.25013,-0.58636,0.28596,0.19288,-0.086006,0.37713,-0.40168,0.35412,-0.37425,-0.4927,-0.15817,0.50749,0.010089,-0.78062,0.15347,-0.21567,-0.07361,0.44521,0.7145,0.20839,-0.00021149,-0.22461,-0.10425,-0.17398,-0.4898,0.23092,-0.20586,-1.0223,0.37605,0.084922,0.04892,0.78679,-0.26227,-0.34425,-0.79461,-0.30322,0.32541
