ConceptName,1,2,3,4,5,6,7,8,9,10,11,12,13,14,15,16,17,18,19,20,21,22,23,24,25,26,27,28,29,30,31,32,33,34,35,36,37,38,39,40,41,42,43,44,45,46,47,48,49,50,51,52,53,54,55,56,57,58,59,60,61,62,63,64,65,66,67,68,69,70,71,72,73,74,75,76,77,78,79,80,81,82,83,84,85,86,87,88,89,90,91,92,93,94,95,96,97,98,99,100,101,102,103,104,105,106,107,108,109,110,111,112,113,114,115,116,117,118,119,120,121,122,123,124,125,126,127,128,129,130,131,132,133,134,135,136,137,138,139,140,141,142,143,144,145,146,147,148,149,150,151,152,153,154,155,156,157,158,159,160,161,162,163,164,165,166,167,168,169,170,171,172,173,174,175,176,177,178,179,180,181,182,183,184,185,186,187,188,189,190,191,192,193,194,195,196,197,198,199,200,201,202,203,204,205,206,207,208,209,210,211,212,213,214,215,216,217,218,219,220,221,222,223,224,225,226,227,228,229,230,231,232,233,234,235,236,237,238,239,240,241,242,243,244,245,246,247,248,249,250,251,252,253,254,255,256,257,258,259,260,261,262,263,264,265,266,267,268,269,270,271,272,273,274,275,276,277,278,279,280,281,282,283,284,285,286,287,288,289,290,291,292,293,294,295,296,297,298,299,300
cup,0.2853,1.1604,0.43643,-0.79668,0.23233,0.22757,-0.27564,0.26498,0.023262,-0.46187,1.0063,-0.10185,0.12593,-0.020709,-0.91027,0.50722,-0.20742,0.3516,-0.57072,-0.46228,0.067776,-0.60861,-0.28019,0.0084597,-0.96253,-0.72114,-0.35653,0.73386,-0.76149,-0.4418,-0.67738,-0.37454,0.39863,-0.067284,-1.8498,0.68255,0.55923,0.38049,-0.011131,-0.29923,-0.13439,-0.66876,0.44993,-0.24541,0.66881,-0.16055,-0.192,0.77019,-0.14898,0.13029,-0.17713,0.41051,-0.17535,0.45315,-0.20813,1.1535,-0.028449,-0.11565,0.8639,0.16563,-0.42576,0.48639,-0.81553,-0.46676,0.0024678,-0.080823,-0.34134,0.2558,0.28274,-0.93934,0.084133,0.41559,-0.34715,0.075209,-1.053,0.16022,0.57484,-0.73144,-0.5188,-0.0010427,-0.20773,0.19792,-0.2249,0.0146,-0.24591,-0.55164,-0.55517,-0.25533,0.35597,0.037868,0.29384,-0.32517,0.59217,-0.8257,0.12662,0.34547,0.40732,0.16164,-0.24598,-0.27376,0.69831,0.52995,0.61227,-0.52018,-0.21611,0.41228,0.33894,-0.20567,-0.77231,0.35031,0.49462,-0.037678,0.19305,-0.58204,-0.40802,-0.71015,-0.42189,-0.010852,0.25941,-0.58284,-0.5853,-0.33403,0.82914,-0.50926,0.33638,0.70237,-0.55605,-0.46317,-0.50367,0.95343,-0.31,1.0283,-0.15086,0.47539,-0.058367,0.17502,0.39958,0.30438,-0.89135,0.14009,0.53989,0.32184,-0.17468,0.54296,-0.18855,-0.41389,-0.085185,-0.048573,0.19943,-0.030215,0.073024,0.57384,-0.12603,0.12976,0.23277,-0.61188,-0.81838,-0.40354,-0.15092,0.13556,0.059412,0.063882,-0.18439,-0.034213,0.2401,0.23676,-0.11862,0.21139,0.13449,-0.6916,0.63003,0.47592,-0.80335,-0.36965,-0.39664,-0.08252,0.12224,-0.47266,0.44712,1.4268,-0.21617,0.2422,0.85212,-0.47456,0.18944,-0.46897,-0.46172,0.17428,0.22709,-0.49439,1.0814,0.59221,0.46875,0.2641,-0.37066,-0.11895,0.98609,-0.24899,0.31108,0.24488,2.4071,-0.1926,-0.28679,-0.68879,0.38207,-0.5294,0.6217,-0.37949,-0.16647,-0.33112,0.14067,-0.039168,-0.15921,0.020751,0.067745,-0.40599,0.11435,-0.82253,-0.067925,-0.60754,0.37455,-0.25916,-0.35349,-0.13939,-0.24969,-0.62065,0.22201,-0.068314,-0.78246,0.26541,-0.55596,0.39105,0.007787,-0.23908,0.91554,0.25126,-0.11295,0.59261,-0.036863,0.19107,-0.018507,-0.38583,-0.094539,0.011538,-0.21448,-0.0033476,-0.2413,0.5137,0.16778,-0.67994,0.36503,-0.013352,-0.060538,-0.015175,-0.82886,-0.55515,0.39338,-0.57883,0.24877,0.64317,-0.0498,-0.2249,0.10157,0.34393,0.18026,-0.16555,-0.43312,-0.90053,-0.31166,-0.035667,0.22476,0.5387,0.19424,0.53535,0.38113,0.32646,-1.3502,0.26764,0.38671,-0.50099,-0.080637,-0.048833,0.46068,-0.1358,0.35048,-0.14744,0.18264,-0.68311,-0.5534,0.17641,-0.51124,0.44536,-0.39929,0.15475,0.85655,-0.22964,0.13523,-0.39542,0.1836,0.24845
car,0.46443,0.3773,-0.21459,-0.50768,-0.24576,0.08134,0.10145,0.25155,-0.36152,-1.603,0.28219,0.36653,0.44611,0.2795,0.047722,0.30087,-0.16226,-0.026055,-0.26815,-0.46282,0.25012,0.60389,0.15111,-0.062823,-0.096755,-0.30548,-0.11376,0.53914,0.10966,-0.70618,-0.66316,0.43559,-0.048631,0.27755,-0.48685,0.11938,-0.54538,-0.29563,0.03447,0.53187,-0.001588,0.41692,-0.20742,-0.037833,0.43333,0.047521,0.83507,-0.065088,-0.29974,0.0047139,0.12339,-0.5066,0.2587,0.21264,0.19132,0.54204,-0.11385,-0.42384,-0.27808,-0.15105,-0.62104,0.27678,-0.054974,0.018479,-0.11744,0.33029,-0.35251,-0.21953,0.05514,0.16971,-0.36445,0.36383,0.20496,0.66512,-0.2254,-0.30347,-0.52782,-0.66115,0.11774,-0.14438,0.33886,0.2297,0.63072,0.76929,0.02536,-0.13685,0.084254,0.32036,-0.10431,0.7672,1.0674,0.42885,0.03032,-0.63375,0.70705,-0.17671,-0.1077,-0.31877,0.063781,-0.57507,-0.40656,0.55837,0.72376,0.2645,0.20313,-0.43949,0.53094,0.075492,-0.26951,-0.4277,-0.13859,0.28341,0.13153,-0.32371,0.22816,0.43016,-0.015529,0.13276,0.048239,-0.038536,0.013813,-0.24567,0.4658,-0.61963,-0.39568,-0.21261,0.11121,-0.19519,0.32773,-0.25276,0.87512,0.4986,0.25747,0.46459,-0.097237,0.42509,0.0080811,-0.79669,0.19793,-0.060157,0.06048,0.20092,0.46373,0.29617,-0.31812,0.12548,-0.17667,-0.29347,-0.59183,0.43081,1.0006,0.46858,0.11257,-0.56533,0.54729,-0.43424,0.22738,0.21527,0.087824,-0.073562,0.5316,-0.36782,-0.42531,-0.066561,0.34648,-0.13677,-0.26654,0.099056,-0.052121,-0.61409,-0.0036171,0.32633,0.3905,0.029416,-0.1119,-0.2118,-0.15688,-0.29308,0.23114,0.13873,0.66445,-0.26318,-0.25518,0.29499,0.70132,-0.3239,0.42109,0.27316,0.15021,0.058074,0.24201,-0.62194,-0.40832,0.038272,-0.35372,0.013934,-0.25013,0.42916,-0.039463,-0.29794,1.0178,-0.41685,0.15442,0.19598,0.44718,-0.25764,0.13438,-0.084223,-0.14142,-0.16001,-0.32541,-0.19588,0.13934,-0.44924,0.20827,-0.15747,0.035537,0.37097,-0.15336,0.20401,0.35981,-0.26311,-0.27436,-0.41229,0.45533,0.77527,0.29339,-0.27392,0.45037,0.060015,0.081354,-0.53969,0.31872,-0.082837,0.77918,0.094676,0.75256,0.33377,-0.55349,-0.15661,0.20791,-0.13498,0.4756,0.1218,-0.16496,-0.65669,0.52394,-0.43666,-0.0087235,0.52565,-0.12011,-0.21406,-0.15253,-0.22775,0.59701,-0.64509,-0.445,0.40937,0.11943,0.034467,-0.32471,-0.47915,-0.25264,0.26818,0.059601,-0.51842,0.33124,-0.29623,-0.28343,-0.41471,-0.04505,-0.0017776,-0.37654,-0.023911,0.55602,0.2044,-2.2391,0.14986,-0.098345,0.18714,-0.19265,-0.0061057,0.39897,-0.22392,-0.42168,1.0727,0.29344,-0.47384,0.30169,-0.15307,0.19966,-0.40979,-0.10325,-0.04361,0.17564,0.65709,-0.09986,0.49107,0.28215,0.34554
ship,0.090276,-0.62887,-0.082061,-0.26153,-0.44084,0.0070647,0.4469,0.20776,0.07351,-1.6808,0.10643,-0.17911,0.21949,-0.44242,-0.038451,0.54534,0.60264,-0.32188,-0.60718,0.083054,-0.43061,-0.24205,0.12016,0.53291,0.020667,0.19787,-0.19777,0.51523,-0.0009799,0.64924,-0.029786,0.71136,-0.045325,-0.24968,0.33512,0.141,0.22442,-0.19491,-0.11967,0.47788,-1.0932,-0.61149,0.36168,0.29466,-0.47743,0.34246,0.95459,-0.60072,-0.23092,-0.01087,0.097073,0.067283,-0.2212,-0.042155,-0.57402,0.31096,-0.13121,0.24895,-0.34213,0.38338,-0.38972,0.30262,0.6702,-0.16729,0.18099,-0.18068,-0.41315,0.032917,-0.2844,-0.13995,0.08118,-0.0042365,0.20218,-0.30575,-0.16762,0.37823,0.59981,0.1684,-0.10339,0.16432,-0.22728,0.58684,-0.25853,0.65854,0.22946,-0.12532,-0.019261,-0.28782,-0.23141,-0.61275,0.11367,0.029846,0.032876,-0.36063,-0.30332,-0.074071,-0.18017,0.0094304,-0.088921,-0.73436,-0.21147,0.34219,0.10942,0.35987,0.31389,-0.033258,0.18902,-0.50961,0.12644,0.22431,-0.10939,0.33487,0.089567,-0.29453,-0.11692,-0.38972,0.010628,0.33254,0.51766,0.5768,-0.052645,-0.53678,-0.18526,0.3457,0.36116,0.30246,-0.33478,0.17487,0.77766,0.14638,0.2208,0.8073,0.26441,-0.27597,0.6595,0.89649,0.059965,-0.18589,-0.33386,0.20424,0.038158,0.30968,-0.10947,0.5518,-0.34559,-0.26177,0.28794,0.40372,-0.048606,0.21929,0.63493,0.033772,0.17229,-0.36568,0.8402,0.28232,-0.023228,-0.27472,-0.26306,-0.20145,0.26399,-0.11329,0.044703,-0.1581,0.1798,-0.18133,-0.031487,0.0095067,0.028666,1.2562,-0.53969,0.065687,0.10399,-0.37981,0.40069,0.12676,-0.53979,-0.049505,-0.0066819,-0.5154,0.046687,0.27136,0.27773,-0.15912,0.41431,-0.35681,0.015248,0.45567,0.43292,-0.30718,-0.11777,0.053106,0.097706,-0.16811,0.58617,-0.17871,-0.29484,-0.47876,-0.29327,-0.18905,0.74687,0.3569,-7.04E-06,0.027832,0.68602,-0.15624,0.14126,0.2631,0.082468,-0.50047,0.11869,-0.21223,-0.47688,-0.25776,0.032656,-0.28496,0.095366,0.34154,-0.3711,-0.074519,0.90757,0.4197,0.62218,0.142,-0.33773,0.26215,0.34463,-0.75464,0.35909,0.21999,0.18796,-0.15626,-0.58072,0.7596,0.70768,0.10343,-0.5693,0.16626,-0.14422,-0.092532,0.076177,-0.13199,0.047372,0.03106,0.20158,0.21563,0.14514,0.40268,0.13811,0.53284,-0.46239,0.4547,-0.54299,0.83347,0.7721,0.02504,-0.30307,-0.35974,0.35539,0.0379,-0.18045,-0.49012,-0.45,-0.03472,0.15642,0.3323,-0.0089475,-0.78335,-0.36606,-0.046916,0.21833,-0.43265,0.41055,0.5501,-0.037539,-0.071622,-1.3406,-0.018996,-0.029946,0.22102,-0.31002,0.73818,-0.1402,-0.040738,0.51566,-0.14731,-0.64199,-0.072008,0.2233,0.27861,-0.38005,-0.2077,-0.34554,-0.53109,-0.21552,0.50793,-0.16541,-0.42141,0.064007,0.03159
telephone,-0.58148,-0.03986,0.052344,0.28815,-0.047111,0.04219,-0.66717,-0.59511,0.19552,-1.7918,-0.2446,0.20951,0.43813,-0.11386,0.48977,-0.22028,-0.22918,-0.24772,-0.46469,-0.059991,0.26379,-0.32844,0.22605,0.017048,-0.33978,-0.27786,0.030101,0.0016153,0.042179,0.067032,-0.53625,-0.34644,-0.51354,-0.041933,-0.99438,0.020979,-0.2428,-0.22895,0.068665,0.028704,-0.336,0.37316,-0.12082,0.62913,-0.13458,-0.07391,0.0038671,-0.052391,0.20721,-0.20634,0.62579,0.17851,-0.19597,0.22384,0.30117,0.094298,-0.44422,0.39713,0.048881,-0.1515,0.051814,0.077449,-0.12864,0.25354,0.010453,0.12647,0.043755,0.36103,-0.23528,0.26788,0.26231,0.21512,0.27592,0.36788,0.019571,0.5738,-0.12858,-0.14624,-0.025176,-0.078119,0.44391,0.25727,-0.18347,0.30464,-0.59835,0.33857,-0.69475,-0.025454,0.7267,0.092857,-0.26972,0.1479,0.12108,0.29543,0.71221,-0.19034,-0.40259,0.22309,0.14239,-0.39958,-0.01547,-0.24984,-0.11093,-0.40873,-0.31453,0.16998,0.67437,0.025163,-0.60645,0.35794,0.10183,-0.38004,-0.0060261,-0.12594,0.69491,-0.19599,-0.41799,-0.017146,0.0084391,0.33752,0.48639,-0.16046,0.57645,-1.1828,-0.20848,-0.12669,0.052382,-0.25625,-0.57056,-0.36193,0.23086,0.21546,-0.0010892,0.13907,0.13873,-0.039756,0.37935,0.24316,0.54517,-0.45223,-0.27591,-0.36508,0.19005,-0.010166,-0.61332,0.18558,0.17686,-0.20943,-0.097853,-0.39029,0.80942,-0.12066,0.42563,-0.070107,-0.30059,0.28162,0.80858,-0.3487,-0.1785,-0.21025,-0.1354,0.13344,-0.16384,-0.32398,-0.1041,0.81454,-0.079499,-0.31978,0.050837,0.40935,-0.84454,-0.12898,-0.87029,0.46997,0.026063,0.09269,0.18946,0.17052,-0.16446,0.2544,0.021592,0.11989,-0.1529,0.085387,-1.0334,-0.074179,0.11335,0.53637,-0.27631,-0.17358,0.10127,0.14716,0.082124,-0.21176,0.33113,0.34294,-0.64383,-0.15364,-0.73784,-0.1898,-0.38677,0.42472,0.38003,-0.07245,0.068235,-0.41998,-0.4775,-0.13866,0.070871,-0.16494,-0.27999,0.27889,0.17417,-0.43875,0.12312,-0.014006,0.08335,0.10427,-0.070728,0.72081,0.59391,-0.083422,0.56215,-0.055768,0.7168,0.22128,-0.041008,-0.57252,0.1842,-0.1639,-0.31718,-0.0092602,-0.17676,0.31675,0.4697,-0.34962,-0.14798,0.27564,0.12087,-0.16839,0.035286,0.099507,0.60652,0.092206,0.84832,-0.22563,-0.039422,-0.68828,0.50027,0.0061752,0.83017,0.076727,-0.1018,-0.45994,0.40763,0.2053,0.45446,0.55886,0.27588,-0.024963,0.026911,-0.18152,-0.0825,0.56914,0.087938,-0.099636,0.21702,-0.12431,-0.22212,0.05353,-0.4003,0.09307,-0.28504,-0.30955,0.086707,0.1792,-1.8886,0.29476,0.15032,-0.53607,-0.55393,-0.19961,-0.11937,-0.75361,-0.4695,-0.13695,0.10965,0.070248,-0.33675,0.3262,0.025171,0.092657,0.20787,-0.44912,0.22154,0.054895,-0.057788,-0.065277,-0.3238,0.17566
bowl,-0.18025,1.2188,0.43132,-0.55592,0.065846,-0.12247,0.53082,0.096432,-0.0077394,-0.17044,-0.37541,0.12297,0.016171,-0.37462,0.15078,-0.16962,-0.2948,0.028761,-0.50629,-0.85121,-0.44371,-0.065644,-0.20541,0.15231,0.016898,-0.64971,-0.45292,0.032036,-0.37636,-1.2275,0.28395,-0.080256,-0.018416,-0.47347,-1.6784,0.50741,-0.28001,0.67068,-0.23198,-0.48675,0.037021,-0.16031,-0.12821,0.090712,-0.19473,0.14938,0.18027,0.042502,0.0065824,0.38304,0.32366,0.40862,-0.40859,0.14374,-0.50691,-0.072836,0.14622,0.0765,0.48745,-0.24155,-0.65079,-0.48856,-0.74346,0.81619,0.077148,-0.19432,0.38399,0.068993,0.49055,0.046938,0.77212,-0.15449,0.21033,0.25113,-1.0322,0.41712,0.77777,0.16526,0.40333,-0.14401,0.21773,0.46977,-0.90596,0.10853,0.273,-0.095949,-0.91938,-0.21197,0.38415,-0.5121,0.31984,0.59808,0.23737,0.043234,-1.2873,0.28474,0.56945,-0.16204,-0.119,-0.018792,0.37967,0.066985,0.25258,0.0068421,0.3867,0.29667,-0.099328,0.078981,-0.49848,0.21844,0.21844,-0.074144,-0.080939,-0.068501,-0.737,0.19227,0.022235,0.48565,-0.033772,-0.36815,0.31788,0.22229,0.57303,0.17731,-0.37763,-0.43894,-0.11039,0.64045,-0.52048,0.27697,-0.20235,0.72753,-0.041255,0.37131,-0.18154,-0.12885,0.080354,0.25751,-0.44132,0.52351,0.37371,0.808,-0.096627,0.22209,-0.11508,0.85951,-0.3598,0.053304,0.58665,0.29786,0.03275,-0.045364,-0.18007,-0.52945,0.54804,-0.26797,-0.30046,-0.44228,-0.51209,0.31132,0.054777,0.11164,-0.55255,-0.2962,0.3827,0.42302,0.46361,0.46747,-0.25786,-0.58828,0.33025,-0.12786,-1.1599,-0.16857,0.069272,0.29421,0.25196,0.066452,1.1006,-0.20721,0.56967,-0.048295,0.29224,-0.25053,-0.30944,-0.77365,0.28983,0.1468,-0.45558,-0.042676,0.5471,1.1413,-0.3129,0.62806,-0.40251,-0.54877,0.15699,0.51757,0.39451,0.51669,1.9618,-0.070997,0.55242,-0.33413,0.042032,-0.42581,0.5599,-0.14998,0.44134,-0.078311,0.341,0.94759,-0.19864,0.46994,-1.1959,-0.55921,-0.59851,-0.6438,0.20689,-0.38198,0.87134,-0.064378,-0.37848,0.076918,-0.38424,-0.53916,0.59272,-0.48463,0.27683,0.049513,-0.041363,-0.31285,0.25008,-0.57368,0.19718,-0.572,0.44859,-0.72965,-0.21428,-0.82854,-0.23883,-0.051164,0.494,0.097428,-1.2195,-0.33844,-0.0012721,-0.20866,-0.5801,-0.11131,0.078133,-0.53683,-0.16872,-0.10731,-0.31853,0.16014,0.36023,-0.14278,0.10346,0.10557,-0.40448,-1.3466,0.48105,0.050177,0.072228,-0.37526,-0.22673,-0.28315,0.33149,0.23278,-0.53948,-0.32715,0.46342,0.653,0.21684,-0.70045,-0.98198,0.079915,-0.51954,0.1208,-0.30332,0.0089076,0.49861,0.34186,-0.1329,0.1145,-0.59077,-0.7939,0.031343,-0.083538,0.024854,-0.17023,0.064608,0.14943,0.56697,-0.34062,-0.18314,-0.37227,-0.62374,0.1943
boat,0.31199,-0.88008,0.031276,-0.46829,-0.61992,0.066456,0.75837,0.23556,0.23833,-0.83533,0.23565,-0.056155,0.15562,0.0061908,0.10621,0.30838,0.82944,-0.26835,-0.59653,0.17772,-0.37112,0.38134,-0.016913,0.41017,-0.13733,-0.065486,-0.28237,0.44264,-0.2094,0.44223,-0.22591,0.18677,0.051568,-0.077701,-0.17857,0.31432,0.055255,-0.65817,0.12697,0.65439,-0.40786,-0.11203,0.30289,0.17674,-0.77988,0.46779,1.0225,-0.38494,-0.15434,0.37305,-0.45216,-0.19813,-0.15857,-0.0068471,-0.28295,0.51178,-0.35282,0.22724,-0.16731,0.45865,-0.12184,0.35759,0.5477,-0.21034,0.44144,-0.16152,-0.83481,0.12761,-0.16363,-0.18394,-0.03463,0.14602,0.077459,-0.24235,-0.39622,0.59753,0.66222,0.31675,0.30848,-0.21177,-0.4153,0.65641,0.09775,0.44176,0.080793,-0.31954,-0.14935,-0.34733,-0.25713,-0.013409,0.98033,0.14775,-0.16448,-1.155,0.38747,-0.21121,0.21524,-0.30321,0.074291,-0.34456,0.4492,0.48392,0.33215,-0.17788,0.29825,-0.052045,0.59957,-0.55301,0.079287,-0.033639,-0.32784,-0.20547,0.35204,-0.46618,0.12865,-0.26176,-0.015202,0.26673,-0.11352,0.42827,-0.41646,-0.53902,-0.088246,-0.06732,0.68867,0.18789,0.19283,0.21589,0.43152,-0.045217,-0.1139,0.68671,0.65904,-0.10377,0.14848,0.51029,0.21476,-0.66272,-0.48621,-0.079924,-0.11259,0.36384,0.02717,0.1775,-0.84205,0.068931,0.059209,-0.051054,-0.20223,0.46958,0.78725,0.55572,0.28426,-0.29898,0.33033,-0.14646,-0.091368,-0.058108,0.34614,0.46509,0.62438,-0.65859,0.093658,-0.39176,-0.0071969,-0.099323,0.060359,0.054588,0.025182,0.15567,-0.58797,0.453,-0.24654,-0.19312,-0.3033,-0.11971,-0.57822,0.023158,0.33062,-0.2099,0.61213,0.070969,0.0046852,0.095112,0.26558,-0.64445,-0.24019,0.9902,0.47673,0.01026,0.097157,0.12025,-0.3157,-0.080935,0.54503,0.22275,-0.16387,-0.19588,-0.22246,-0.26683,0.6523,0.41268,-0.33389,-0.11038,0.65177,0.28873,-0.11419,0.42909,-0.61696,-0.22072,-0.26153,0.065713,-0.423,-0.13894,-0.26283,-0.26068,-0.38494,0.04139,-0.29997,0.21625,1.2156,0.37026,0.35018,-0.44367,0.34317,-0.10449,0.2754,-1.1006,-0.20803,0.44487,0.14821,-0.43098,-0.16946,0.21329,0.75054,-0.14502,-0.39989,0.060756,0.060682,0.026758,0.48497,0.37803,0.11377,-0.21311,-0.087937,-0.47259,0.3668,0.45459,-0.41161,0.6034,-0.62704,0.33539,-0.024436,0.28951,0.50867,-0.20969,0.082554,0.20638,-0.13819,-0.0024555,-0.29526,-0.60173,-0.25015,0.082158,0.41075,0.25606,-0.19425,-0.64134,-0.80735,0.029879,0.25391,-0.031758,0.50854,0.48218,0.43724,-0.15344,-1.505,-0.023857,-0.30459,0.44947,-0.14641,0.53879,0.054166,-0.32345,-0.28264,-0.5533,-0.21884,0.064739,0.38499,0.2071,-0.6473,-0.29802,0.016973,-0.2033,-0.2188,0.19307,-0.39688,0.068822,0.13479,0.44436
truck,0.080162,0.16016,-0.015111,-0.29049,-0.53734,0.25311,-0.15411,0.3673,-0.53192,-0.63364,-0.16293,-0.26667,-0.081698,0.40369,-0.11245,0.070164,0.082526,-0.36753,-0.25358,-0.7338,0.26115,-0.13551,0.54614,0.19516,-0.41794,-0.28609,0.051255,0.28393,0.15776,-0.30341,-0.55216,0.57508,0.22576,0.053976,0.29303,0.42358,-0.46763,-0.48824,-0.060898,0.33472,0.027543,0.27529,0.2925,-0.34314,-0.018314,0.069312,0.32538,-0.29455,0.084841,-0.069638,0.10501,0.33524,-0.28506,-0.085132,0.15723,0.3557,-0.028213,-0.19021,-0.24054,0.23226,-0.39804,0.35845,0.29252,-0.18199,-0.69723,0.15065,-0.81626,-0.072851,0.073932,0.053463,-0.15263,0.25267,0.12776,0.60782,-0.27639,0.018811,0.12987,-0.48215,0.11294,-0.28164,0.41912,0.075526,0.27259,0.42098,-0.23127,-0.49405,0.202,0.11384,0.057963,0.44925,1.0421,0.15288,0.044557,-0.54011,0.21191,0.0016892,-0.27172,-0.49172,-0.21873,-0.40479,0.14816,0.86062,0.5747,-0.37419,-0.28109,-0.39957,0.87196,0.39676,-0.041147,-0.14733,-0.3265,0.21321,0.012099,-0.38939,0.030398,0.68041,0.1504,0.34164,0.15001,0.20197,-0.03112,-0.28325,0.48824,-0.29441,-0.47162,0.087114,0.14649,0.0238,0.4848,-0.17849,0.66042,0.62385,0.27744,0.53068,0.18484,0.073737,-0.16196,-0.37376,0.36163,0.48505,0.021201,0.031057,0.35559,-0.30444,-0.57902,0.23569,0.0089053,-0.24334,-0.42471,0.097177,0.75037,0.6003,0.33978,-0.22573,0.75843,-0.22683,0.25099,0.054731,0.41466,-0.067308,0.44999,-0.37303,-0.23007,0.1837,0.012485,-0.068989,-0.091872,0.15866,-0.036528,-0.16163,0.14373,0.12308,0.5265,-0.036521,-0.15154,0.017352,-0.068427,-0.38201,0.49812,-0.16565,0.5586,-0.31604,0.28425,0.12304,0.20929,-0.3943,0.25627,0.50806,0.70322,-0.19361,0.11396,-0.31443,-0.31969,0.063196,-0.028755,-0.36959,-0.30577,0.26514,-0.012159,0.053308,0.80645,-0.59331,0.4574,-0.091902,0.17221,-0.30309,0.29903,-0.2227,0.17574,-0.12562,-0.88392,0.23772,-0.10665,-0.16469,-0.0062413,0.063471,-0.0058363,0.47822,-0.14436,0.21022,0.80716,0.086879,0.24595,-0.20572,0.61024,0.13077,0.23811,-0.47863,0.41579,-0.39772,-0.05297,-0.28165,0.089076,-0.33072,1.0201,0.57433,0.40642,0.24504,-0.79313,-0.52615,0.44464,0.095385,0.065037,-0.50919,-0.16802,-0.74846,0.63281,-0.38644,0.1505,0.55398,-0.14744,-0.14602,-0.46417,0.20039,0.8419,-0.5875,-0.67576,0.37965,-0.0062809,0.064515,0.13857,-0.0041967,0.079328,0.44888,0.16233,-0.3393,0.58521,-0.33205,-0.88563,-0.68177,-0.24485,0.092827,-0.5021,0.52723,0.596,-0.30737,-1.5395,0.074287,-0.12636,0.203,-0.48863,-0.06816,0.79146,0.034857,0.098285,0.86643,0.1949,-0.48001,0.23473,0.28675,0.64705,-0.42507,-0.10396,-0.46367,0.51039,1.0218,0.10866,-0.0028738,0.080376,0.64677
dog,-0.11043,0.81217,0.073668,0.19023,-0.052888,0.061468,0.16076,0.41302,-0.30199,-0.90827,0.27504,-0.03189,-0.28842,0.23447,0.47679,0.50124,0.29371,0.27029,0.054745,0.098038,0.57116,0.36755,0.040734,0.34347,-0.18256,-0.28935,0.023826,-0.19401,0.24444,0.13407,-0.16494,-0.26983,-0.26234,-0.21779,-0.87528,0.73822,-0.087931,-0.010876,-0.2654,0.34668,-0.55814,0.17591,0.16926,-0.15725,-0.5043,-0.201,0.66701,-0.032518,0.045012,0.065675,-0.16061,-0.73363,0.24642,0.34325,0.21899,0.048646,-0.59987,-0.058153,-0.051694,-0.57846,0.3,0.35078,0.46646,-0.0075309,0.10455,-0.51016,-0.055987,-0.10295,-0.26476,-0.04123,-0.028371,0.51979,-0.34849,-0.47217,-0.37229,-0.03279,0.13989,0.35716,0.19305,-0.21986,0.24136,0.40976,0.37516,0.14255,-0.034143,-0.72653,-0.10832,0.68616,-0.26335,-0.42345,-0.24253,0.15778,0.14258,-0.32749,-0.34699,0.16148,0.19603,0.41639,-0.2337,0.075816,0.15899,0.0016623,-0.048301,-0.10611,-0.19326,0.14494,0.015406,0.10629,-0.036699,0.6323,0.12986,0.49902,-1.1323,-0.12636,0.064718,0.12374,-0.49712,-0.014836,0.10488,-0.49818,-0.28856,0.38949,-0.031828,-0.28625,-0.098758,-0.07699,-0.24234,0.75793,0.34835,-0.7103,0.45318,-0.34418,-0.19459,0.61478,-0.02901,-0.27864,0.38556,0.10072,0.12895,0.017992,0.3367,0.20698,-0.38049,-0.0066661,0.1154,-0.085268,-0.14608,0.44514,-0.093674,0.23639,-0.11447,1.0948,-0.057823,-0.16295,0.5588,-0.018988,-0.071374,0.21319,0.061277,0.72759,0.62747,-0.1928,0.13057,0.17426,-0.10229,0.15232,0.525,-0.21919,-0.27185,-0.54186,0.31752,0.16375,-0.29039,0.17074,-0.31814,-0.96421,-0.1161,-0.29951,0.18686,-0.45986,0.41633,-0.17583,-0.34583,-0.27244,-0.50216,0.012852,0.59838,-0.11237,0.24697,-0.49048,-0.44188,-0.16255,-0.73313,-0.37677,-0.68925,0.061174,-0.42101,-0.13153,-0.008359,-0.01836,1.3686,0.046169,0.94622,-0.015126,-0.12477,0.48754,0.22384,-0.2182,-0.23389,0.15207,-0.28718,-0.63908,-0.22383,-0.18014,-0.33548,0.53587,-0.29367,0.10866,0.063411,-0.0093424,-0.15886,0.22602,0.11925,-0.41442,-0.078062,-0.097857,0.27938,-0.18348,-0.34584,0.18489,0.17402,-0.52198,-0.43306,0.16256,0.14032,0.35124,-0.1828,-0.35984,-0.13009,0.16304,0.31734,0.0037716,-0.045498,-0.42066,-0.44419,-0.68985,-0.49359,0.070281,-0.14377,0.62508,-0.056311,0.1885,-0.056785,0.14052,1.1973,0.71894,0.54332,-0.12461,-0.11978,0.30163,-0.16273,-0.04674,-0.25249,-0.030659,-0.32271,0.32361,0.33244,-0.027819,-0.33367,-0.023444,-0.50394,-0.20587,-0.13013,-0.35884,0.045384,-0.11863,-1.7257,0.39441,-0.53179,0.58209,-0.65771,0.36849,0.23518,0.10802,-0.83159,0.61486,0.25547,-0.45289,0.51446,-0.17911,-0.12389,0.18688,-0.41102,-0.70877,-0.37501,-0.66152,0.6773,0.33936,0.57994,0.068149
rocket,0.17588,0.29025,0.455,-0.39699,-0.711,0.26498,-0.1195,-0.03007,-0.092673,-1.5904,0.39354,-0.6074,0.25385,-0.059818,0.34903,1.1628,-0.15035,1.2943,-0.1118,-0.019964,-0.039326,-0.068316,-0.04029,-0.042734,0.012234,0.2467,0.5222,0.53205,-0.065426,-0.57531,0.52702,-0.27942,0.23856,0.34976,0.82027,-0.06604,-0.5292,-0.50716,0.37129,1.0317,0.20588,0.81819,0.15705,0.029203,-0.74835,0.20251,0.35849,-0.7856,0.265,-0.064201,0.29684,-0.37718,-0.318,0.41397,-0.738,-0.23032,-0.015801,-0.35574,0.05269,0.35117,-0.84023,0.29841,0.18292,-0.67199,-0.20106,0.80244,-0.7402,0.29467,0.18047,0.44511,0.48337,0.30372,0.11629,0.61424,0.085104,0.066095,0.53069,0.12098,0.30047,0.56175,-0.36607,0.52087,0.061269,0.73313,-0.11803,0.17709,-0.27771,0.5017,0.76192,-0.71309,0.86022,0.35159,0.14877,0.23692,0.10135,0.099284,-1.0098,0.19663,0.091499,-0.25572,-0.72304,0.56699,0.032379,0.052075,0.043957,-0.83892,-0.01567,-0.026817,0.24724,-0.14685,-0.56513,0.28967,0.39512,-0.2876,-0.033414,0.0097371,-0.65105,0.0025047,0.66415,-0.097749,0.62909,-0.48384,0.024665,-0.24505,-0.5033,-0.055475,-0.74757,0.44477,0.50242,0.50402,0.13736,0.58031,0.04029,-0.61267,0.19571,0.14182,-0.15347,0.19686,0.34653,0.07758,-0.27797,-0.41374,0.059104,-0.16915,-0.40858,0.27009,0.075547,0.032924,-0.33817,0.46453,-0.21416,0.2948,-0.45238,0.13691,0.31829,-0.38253,0.25204,0.040469,0.19333,0.37465,0.17646,-0.63134,0.26833,-0.17518,0.094709,-0.14482,-0.65993,0.35054,-0.24619,-0.81365,-0.47034,0.1633,0.56369,-0.06114,-0.23854,0.17445,-0.055578,0.01716,0.082704,0.16339,-0.41755,-0.53894,-0.066297,0.68935,0.2473,0.46668,-0.14801,0.27709,-0.41683,-0.23103,0.31266,-0.43275,-0.10986,0.23415,-0.16786,0.089204,0.12636,-0.14065,0.23484,-0.4436,0.54711,0.028818,0.1094,-0.31987,-0.0655,-0.30786,0.020993,-0.44373,0.19958,0.21529,0.020243,0.12423,-1.0453,-0.61932,0.24283,-0.58355,0.33845,0.24738,-0.59682,-0.3698,0.41123,-0.0018317,-0.058448,0.21537,-0.4279,0.72083,-0.096227,-0.85472,0.5368,-0.2191,-0.27496,0.37291,-0.47463,-0.43014,0.15234,0.70383,-0.024897,-0.14903,0.0037741,0.19545,0.30455,-0.27126,0.30532,0.043231,0.1435,-0.078304,0.15617,-0.033062,-0.18772,-0.34631,0.0053828,0.8357,-0.87139,-0.094672,0.46612,-0.35759,-0.4019,-0.83969,-0.033481,0.61612,0.073817,0.19175,-0.20871,-0.096776,0.12099,-0.032395,-0.68947,0.33215,0.26815,0.48819,0.36897,0.070211,-0.065435,-0.024527,-0.057286,-0.33763,-1.9496,-0.42445,-0.361,-0.21035,-0.25428,0.49753,-0.087954,0.097554,-0.3048,0.043409,-0.31314,0.39327,0.39694,0.045342,-0.14379,-0.73449,-0.023872,-0.16375,0.53855,1.0554,-0.67533,-0.14477,-0.06525,0.2779
helicopter,-0.28809,-0.094536,-0.31041,-0.69948,-0.44834,-0.27219,0.20871,0.2575,-0.37175,-0.99229,0.063094,-0.32549,0.40957,-0.17615,0.37664,1.0476,0.12169,-0.017579,-0.51683,-0.40927,-0.071822,0.2143,0.43753,-0.22334,0.70011,-0.41117,0.17089,-0.1053,-0.46706,0.094743,0.0091942,-0.80089,-0.033494,0.1149,0.36348,-0.48022,0.052723,-0.22787,0.19835,0.38683,-0.38648,0.17715,0.25656,-0.017231,-0.046175,-0.11633,0.98649,-0.41064,0.66817,0.0087365,-0.070647,-0.75679,-0.062527,0.48326,-0.9617,-0.089696,-0.12504,0.098155,0.26847,0.50695,-0.6891,0.015221,0.62741,-0.1791,0.016146,0.546,0.15695,-0.12272,-0.040666,-0.07042,0.40293,0.35223,-0.25816,0.4216,0.01684,0.63667,0.32387,0.48169,0.52112,0.25466,-0.10873,-0.10871,0.13322,0.2876,0.14336,-0.42187,0.15328,0.3609,-0.27074,-0.22478,1.1386,0.29823,0.30816,0.030412,0.37428,-0.13882,-0.53705,0.5506,0.12624,0.49927,0.23788,0.57373,0.51448,1.0947,0.23526,-0.16327,0.41356,-0.12821,-0.19411,0.17585,0.075483,-0.015821,-0.087758,-0.42452,0.60752,-0.13522,-0.029077,-0.17149,-0.34816,0.58271,-0.12023,-0.4127,0.31546,-0.081592,-0.22704,-0.023658,0.18315,-0.11062,0.76964,0.030724,-0.15806,0.85981,0.19563,0.45898,0.12327,0.61011,-0.081385,0.13215,-0.36584,-0.14057,-0.12865,0.1693,-0.34227,0.036532,-1.4718,-0.31428,0.83071,0.31364,-0.1179,0.28819,0.61062,-0.24206,0.6733,0.086587,0.7334,-0.42932,0.90205,0.1691,0.53746,0.086072,-0.22338,-0.95224,0.030119,0.083641,0.096431,0.16389,0.48705,0.35183,-0.46415,-0.0041998,-0.49784,-0.24217,0.50255,-0.032127,-0.70201,0.54642,-0.036858,-0.3352,0.10609,-0.24518,0.09135,0.20445,0.18951,0.072609,-0.34657,-0.10064,-0.2903,0.162,0.11915,-0.43893,-0.33284,0.35404,-0.64481,-0.070744,0.19677,0.13687,0.016199,0.25775,0.49769,0.26468,0.41874,-0.28199,-0.55185,-0.32197,0.29926,0.18101,0.15283,-0.22527,-0.15379,0.38429,-0.11796,-0.17025,-0.67826,-0.47031,0.55183,-1.1245,0.17766,0.0016233,0.015505,0.39144,0.90767,0.25957,0.95858,-0.12266,-0.17319,0.124,0.51789,-0.77826,-0.098059,-0.23292,0.13863,0.38319,-0.20051,0.10793,0.86641,-0.081559,-0.064856,0.066476,-0.32088,0.21029,0.76741,0.19046,0.35569,-0.39395,0.6153,-0.054379,-0.1765,-0.57774,-0.0061976,0.39002,-0.91981,0.45332,0.19388,-0.29813,0.57121,0.04791,-0.44652,-0.020915,-0.091194,-0.23003,0.011306,0.14703,-0.40692,-0.2356,0.74315,0.22697,-0.38685,0.24296,-0.52517,0.037216,0.19508,-0.013224,0.12607,-0.062472,0.19398,-0.30846,-1.7767,-0.51524,-0.16945,-0.18995,-0.061007,0.037484,0.42444,-0.17937,-0.29873,-0.023601,-0.42787,0.45943,0.31539,0.28303,-0.13913,-0.28848,-0.24108,-0.47327,-0.3724,0.9617,-0.43451,-0.39482,-0.5805,0.31492
chicken,0.18573,0.29787,0.50519,-0.27271,-0.332,-0.75955,0.16703,0.23004,-0.21855,-0.17309,-0.28578,-0.4327,-0.6769,0.61874,-0.24939,0.30724,-0.10957,0.52907,-0.1382,0.039298,0.096217,0.2957,0.46125,0.021043,-0.31454,0.10157,0.1107,-0.31608,0.24555,-0.3713,-1.2529,0.037263,-0.36219,-0.036151,-0.48114,0.70256,-0.095811,0.15637,-0.17088,0.22213,0.21791,-0.41028,-0.3746,0.095315,0.11182,-0.37677,0.5823,-0.15924,-0.14707,0.52313,0.26566,0.070272,0.2267,0.092326,0.10223,-0.018386,-0.049499,0.00567,-0.144,-0.30425,0.21731,0.032698,0.24825,-0.31667,-0.35087,-0.31515,-0.012592,0.025707,-0.087194,0.5139,0.49637,0.50188,0.45757,-0.28473,-0.45069,0.11357,0.89539,0.5764,0.10358,-0.21514,0.0010735,0.42254,-0.080779,-0.18166,0.14579,-0.31893,-0.65993,0.35145,-0.36712,-0.84666,0.27618,-0.29684,-0.042162,0.30251,-0.055232,-0.19897,-0.30813,0.80735,-0.26263,0.18629,-0.042628,-0.18352,0.35017,-0.84153,-0.35253,-0.14362,0.30807,0.088499,-0.33117,0.51068,0.36092,-0.033315,-0.71402,-0.072734,0.13796,-0.66212,-0.38347,0.32236,0.18488,-0.13273,0.062919,0.031788,0.7077,-0.101,-0.55514,0.31273,-0.4294,0.27816,-0.12117,0.48097,0.063177,0.67602,-0.15481,0.69307,0.077335,-0.70765,-0.036571,-0.44305,-0.39246,0.79821,0.33744,0.33715,-0.19704,-0.3957,-0.89669,0.16812,-0.12935,0.076496,-0.15502,-0.41105,-0.74884,0.54373,0.034333,0.33778,-0.21813,-0.39608,-0.3888,-0.39105,-0.37893,-0.44775,0.56522,0.52045,-0.34875,0.17044,0.30879,-0.10163,0.052024,-0.27689,-0.21715,-0.55838,0.065453,-0.14778,-0.29363,0.21889,-0.30691,0.20345,-0.24542,-0.17138,0.73408,-0.76346,0.096246,-0.010024,0.052151,-0.75592,-0.45857,-0.0014953,0.51381,-0.037788,-0.00044749,-0.39594,-0.28821,0.95962,-0.64066,0.055103,0.072477,0.0968,-0.017772,-0.56928,-0.34092,0.21368,0.88256,0.10243,0.12024,0.51066,0.014186,0.81531,0.66232,-0.4761,0.17948,-0.045585,-0.12848,-0.60084,0.22691,0.37396,0.38994,-0.036915,0.65063,-0.90366,-0.17262,0.50722,0.46466,-0.25293,-0.36732,-0.71749,0.30843,-0.1439,0.1266,-0.072559,-0.15069,0.47533,0.050382,0.064016,-0.50731,0.050094,0.41375,0.30331,0.59641,-0.22583,-0.81023,0.3018,-0.46476,-0.63308,-0.34478,-0.43329,-1.0742,-0.080537,0.15737,0.14404,-0.36205,-1.0845,0.37361,0.17547,-0.015827,0.47861,0.3022,0.33988,-0.088213,0.50107,-0.2658,0.43894,0.35717,0.079416,-0.45939,-0.42651,0.22837,-0.18767,-0.49238,-0.097275,0.029711,-0.52869,-0.52703,0.08677,0.69064,0.041976,0.097963,0.087348,-1.3765,0.053008,-1.2449,-0.53579,-0.029453,-0.20711,0.0011445,0.090337,-0.40879,0.63343,0.47706,-0.086791,-0.17744,0.044508,-0.22388,-0.1171,0.41151,0.19097,-0.53113,-1.0163,0.33643,-0.60545,0.26447,0.28016
corn,-0.34935,-0.11234,-0.26714,0.023943,-0.19485,0.18333,0.15329,-0.14471,-0.029271,-0.31614,-0.3777,-0.47992,-0.32679,0.24296,-0.32469,-0.13532,-0.15617,-0.053656,-0.14306,-0.019348,-0.54722,0.0058541,0.49176,-0.024525,-0.056165,-0.087314,-0.35136,-0.30423,-0.57448,0.20628,-0.23059,0.36253,-0.86068,0.42352,-0.39691,1.1799,0.10356,0.19563,-0.095417,0.50561,-0.16929,0.141,0.16047,0.6227,0.19559,-0.33153,-0.11513,-0.34013,-0.070928,0.24939,0.45811,0.766,-0.10784,-0.0031801,-0.48138,-0.40442,0.13786,-0.42364,0.34526,-0.41329,-0.096881,-0.15948,0.46478,0.19213,-0.78874,0.10875,0.13474,0.087171,-0.30385,0.14966,0.26803,0.72606,-0.27369,-0.49723,-0.60811,-0.28795,0.36755,-0.47366,-0.32018,0.50837,0.47991,0.076536,-0.2092,0.20321,0.14098,-0.31638,-0.24675,0.15149,0.14832,-0.62039,0.27212,-0.44366,0.36586,-0.028204,-0.2592,0.1802,-0.4593,0.79719,-0.35764,0.83066,-0.050565,0.47649,0.32707,-0.40328,-0.80331,0.22766,-0.47879,0.82981,-1.0268,0.58232,0.025879,-0.44747,-0.30498,-0.4374,-0.39685,-0.019086,0.22681,0.37591,0.28404,0.3769,-0.88867,-0.35171,-0.019131,0.70795,-0.30632,-0.080128,0.49817,0.50982,0.40206,0.26888,0.14922,1.1521,-0.52285,0.25567,0.29366,0.25043,0.33312,0.49003,0.13684,0.42864,0.10956,0.581,-0.034714,-0.74765,-0.6171,0.64106,-0.10931,-0.13817,0.24885,-0.71455,-0.49574,0.64023,-0.3041,-0.025347,-0.48937,0.73273,-0.49748,-0.12813,-0.013178,-0.051756,0.39798,0.021744,-0.20752,-0.24841,-0.088683,0.26411,0.18895,-0.77057,-0.13659,-0.44896,0.093182,0.050504,-0.15934,0.10756,1.0896,0.015545,0.56541,-0.082993,-0.39625,0.023945,-0.46915,0.61342,-0.26852,-0.47405,-0.45145,-0.27547,0.68477,0.2553,0.49937,-0.51478,-0.82942,0.99139,-0.39661,0.15383,-1.0169,-0.13396,0.13172,-0.36033,0.0034929,-0.24335,0.19491,-0.29378,0.50722,0.82579,-0.16012,-0.049314,0.47027,0.65678,-0.32312,-0.21402,0.14409,-0.76517,-0.13409,-0.10163,-0.27218,0.62252,0.12621,0.0046489,0.5244,-0.3131,0.73052,-0.65409,-0.47542,-0.48143,-0.27801,-0.046237,0.3835,0.5773,0.15172,-0.067585,-0.029667,0.60199,-0.062157,0.86018,0.32762,0.3261,0.43263,0.37085,-0.76824,-0.014688,-0.55601,0.41437,-0.51001,0.14107,-1.3303,-0.77512,0.10986,-0.45034,0.013793,-0.86271,0.18343,0.025191,-0.41781,0.11452,0.15423,0.36855,-0.55834,-0.012858,0.22809,-0.13042,-0.096663,-0.23081,-0.22396,-0.37544,0.34596,-0.15013,-0.39367,-0.24251,-0.6138,0.19944,0.16964,0.29732,-0.10597,0.36942,0.073573,-0.33854,-1.233,-0.60855,-0.6722,0.11709,-0.33662,-0.4806,0.044666,0.23558,-0.10611,-0.12961,0.91651,-0.57846,0.16422,0.092347,0.76394,-0.035915,0.049794,0.2794,0.36798,0.10543,-0.39714,-0.96946,0.35315,0.6557
cat,-0.29353,0.33247,-0.047372,-0.12247,0.071956,-0.23408,-0.06238,-0.0037192,-0.39462,-0.69411,0.36731,-0.12141,-0.044485,-0.15268,0.34864,0.22926,0.54361,0.25215,0.097972,-0.087305,0.87058,-0.12211,-0.079825,0.28712,-0.68563,-0.27265,0.22056,-0.75752,0.56293,0.091377,-0.71004,-0.3142,-0.56826,-0.26684,-0.60102,0.26959,-0.17992,0.10701,-0.57858,0.38161,-0.67127,0.10927,0.079426,0.022372,-0.081147,0.011182,0.67089,-0.19094,-0.33676,-0.48471,-0.35406,-0.15209,0.44503,0.46385,0.38409,0.045081,-0.59079,0.21763,0.38576,-0.44567,0.009332,0.442,0.097062,0.38005,-0.11881,-0.42718,-0.31005,-0.025058,0.12689,-0.13468,0.11976,0.76253,0.2524,-0.26934,0.068629,-0.10071,0.011066,-0.18532,0.44983,-0.57507,0.12278,-0.064878,0.044456,-0.020999,-0.069838,-0.47329,-0.43074,0.39158,-0.047815,-0.93659,-0.55128,-0.1422,-0.15829,0.15623,0.070461,0.19892,0.18942,-0.19339,-0.46594,-0.028825,0.0056752,-0.0054038,0.43144,0.12257,-0.2611,0.04847,0.32244,-0.31064,-0.10559,0.97954,0.069626,-0.023187,-0.86293,0.48273,0.23649,-0.0034704,-0.18932,0.18588,0.023211,-0.30643,-0.35717,0.19605,-0.1584,-0.0058626,0.35248,0.036053,-0.53933,0.49435,0.45332,-0.18477,0.040648,-0.094517,-0.07116,0.74005,-0.11465,-0.26916,0.089765,-0.25205,-0.21469,-0.38847,0.32509,0.25773,-0.51764,-0.38457,0.028254,-0.21232,-0.27311,0.69178,-0.37681,0.14241,-0.24926,0.40314,-0.052916,0.07684,0.2135,0.10921,0.049658,0.02093,0.11953,0.28648,0.87791,0.085838,0.31983,0.51856,-0.22628,0.12402,0.48805,0.22111,-0.52021,0.0025106,-0.13305,-0.052565,0.32744,0.64985,0.072426,-0.52743,-0.20913,-0.27897,-0.10834,-0.10103,0.15299,-0.36681,0.082445,0.1739,-0.28099,-0.069136,0.7895,0.060571,0.38693,-0.16495,-0.21801,0.33288,-0.44568,-0.49892,-0.34438,-0.035606,-0.24239,-0.4747,-0.17254,0.071349,1.4091,0.46166,0.46546,-0.30979,0.37203,0.47897,-0.28872,-0.65515,-0.13629,-0.14287,-0.04843,-0.12786,0.18941,-0.037051,0.59471,-0.0051618,-0.0086009,-0.33313,0.288,-0.058965,-0.67275,0.15544,0.074187,-0.36441,-0.021285,-0.065337,0.13827,0.008395,-0.041113,0.29401,-0.10344,-0.052371,-0.63084,0.16311,0.052826,-0.021797,-0.28115,-0.078361,-0.38124,0.078089,0.38411,-0.34629,-0.4322,0.091731,-0.67867,-0.041138,-0.53981,0.10678,0.03343,0.81396,-0.19448,0.026248,-0.14215,0.2954,0.62738,0.26499,0.6191,-0.04113,0.12301,0.3158,0.10698,0.023654,-0.41355,0.034852,0.21361,0.045834,0.053415,-0.36421,0.19707,0.50916,-0.1949,-0.18788,-0.24449,-0.63397,-0.23125,-0.18823,-1.0601,0.47794,-1.0102,0.24604,-0.4876,0.79146,-0.11047,-0.21762,-0.6178,0.27815,-0.098169,-0.063205,0.066069,-0.69305,-0.25928,0.44591,-0.64198,-0.33084,-0.30154,-0.56359,0.60501,-0.09673,0.44444,0.22007
eagle,0.24558,0.62043,-0.26304,0.084435,0.066323,-0.22678,0.0053457,1.1829,0.079237,-0.30654,0.31829,-0.023832,0.35278,0.32996,-0.11649,0.37368,0.61698,0.47129,0.0073751,-0.23463,-0.15109,-0.31412,0.28722,0.25097,0.19166,-0.49671,-0.50656,-0.036319,0.54734,0.16979,0.70434,-0.34712,-0.11008,0.23894,-0.48304,-0.24915,-0.43857,-0.073767,-0.44087,0.51586,-0.9472,-0.30604,0.68684,0.3611,0.48498,-0.36234,0.1632,0.00072852,0.026202,-0.73302,-0.3986,-0.39292,0.41968,0.31135,-0.26404,-0.19492,-0.14011,0.97985,0.21816,-0.11746,0.12776,-0.42887,0.59884,-0.76088,0.15713,0.40988,-0.22973,0.48651,0.01886,0.0008651,0.58359,0.048328,-0.4508,0.14707,-0.29146,0.25541,-0.19243,-0.070775,0.27776,-0.20555,-0.48651,-0.16239,0.58137,0.33728,0.17541,-0.23719,-0.29371,0.12066,-0.76826,0.36354,0.36701,0.28343,-0.29612,0.21125,-0.31121,-0.41334,-0.15079,-0.17059,-1.1139,-0.16797,0.17316,0.25903,0.25199,0.30595,0.2814,-0.73827,-0.22793,-0.045651,0.30395,-0.18139,-0.31035,0.21724,-0.10121,0.03642,0.05466,-0.033444,0.2051,0.04342,-0.14151,0.53541,-0.084708,0.081874,0.57784,0.086177,-0.2597,-0.67265,-0.16859,0.13786,0.24539,-0.40026,-0.070828,0.36996,0.016031,0.22797,0.28514,0.066763,-0.10844,0.060738,-0.093239,0.27105,0.15561,0.2922,-0.24661,0.015117,-0.15125,-0.116,0.47938,0.25877,-0.14982,0.14077,0.52987,0.57644,-0.062963,-0.40713,0.69943,0.16086,0.40577,-0.85008,-0.19046,-0.10054,0.41923,0.14086,-0.010246,0.60951,-0.39181,0.058155,-0.39017,-0.20253,-0.20778,-0.025234,-0.20747,-0.6052,0.23188,0.77595,-0.36716,-0.16719,0.22566,0.13833,0.38652,-0.054854,0.084342,0.55142,0.53397,-0.14969,0.43234,-1.0825,-0.018192,-0.19771,0.1796,0.39614,0.01086,0.68245,0.1116,0.066714,-0.44024,-0.26993,0.29035,-0.72997,0.17716,0.10975,1.9088,0.18855,-0.56135,-0.54444,0.015506,0.48352,-0.41712,-0.12286,0.096595,0.94729,0.81979,-0.3524,0.025828,-0.53844,0.81461,-0.55016,0.040082,0.38081,0.079366,-0.19214,0.20491,0.26158,-0.12046,0.24523,-0.4008,-0.14841,-0.043142,-0.33904,0.03361,-0.036668,-0.53738,-0.12873,-0.01815,0.10434,-0.031379,0.26257,-0.36339,-0.39053,-0.34325,0.058673,-0.34714,0.20577,-1.2515,0.029756,-0.6171,0.02937,-0.47112,-0.70578,0.34662,-0.32998,-1.0306,0.59751,-0.18535,-0.73514,0.22913,0.18874,0.066881,0.0358,-0.26432,-0.1178,-0.0097199,0.48665,0.49619,-0.50684,-0.33358,-0.012372,0.22015,-0.32326,-0.38697,0.13121,-0.23371,-0.47453,0.50959,-0.21768,-0.40563,0.017847,-0.64084,0.68135,-0.28102,-0.08487,-0.46275,0.0029297,-0.16349,0.34423,-0.51538,0.030888,-0.095411,0.39083,0.19745,-0.047265,0.21117,-0.084891,-0.30514,0.24313,-0.31496,-0.3107,0.36984,-0.22851,0.011391,-0.95814
cow,0.51092,0.16385,-0.24109,0.0014606,0.1904,-0.18988,-0.034126,0.144,-0.64395,-0.64733,-0.062842,-0.59816,-0.52794,0.3027,-0.33028,0.74371,-0.068194,-0.3458,0.12726,0.40503,-0.24742,0.35513,-0.25302,-0.32441,-0.67428,-0.0045958,0.083815,-0.67053,0.33774,0.50672,-0.71136,0.090828,-0.22947,0.039603,0.26772,0.37321,0.073081,0.34881,-0.4292,0.29833,-0.12888,0.44632,-0.058722,0.26044,-0.42603,0.0055763,-0.37553,-0.27359,-0.20232,-0.11645,0.04352,0.52683,0.27893,-0.026128,0.38241,-0.25146,-0.048117,0.35187,-0.90735,-0.30982,-0.41644,0.5016,0.60246,-0.04465,-0.12192,-0.2796,-0.42473,-0.52743,-0.14403,0.26262,-0.085502,0.41859,-0.21808,0.013873,-0.26516,-0.17474,0.2133,0.21682,-0.28841,0.37217,-0.065851,-0.10673,-0.21779,0.30975,0.00065419,-0.49895,0.14331,0.053383,-0.54949,-0.2987,0.088182,-0.49335,-0.047088,0.087172,0.033617,0.15083,-0.19207,0.24272,-0.36547,0.5204,-0.088388,0.46545,-0.17962,-0.36388,-0.46779,0.1145,-0.11091,0.20301,-0.23057,0.72848,0.084969,0.23378,-1.0386,-0.0067574,-0.036052,-0.0804,0.54906,0.50055,0.27457,-0.76149,-0.34219,-0.66678,0.3062,0.43018,-0.25254,-0.0021079,-0.43192,0.49406,-0.61841,-0.43946,0.35802,-0.12048,0.19268,0.41863,0.28299,-0.48009,0.048733,0.38284,-0.10998,-0.060934,-0.0018918,-0.063463,0.39057,-0.67329,-0.17682,-0.0057804,0.47297,-0.1285,0.00032426,0.15946,-0.64471,0.67472,0.18373,1.1621,0.051081,0.011931,-0.62771,-0.02629,-0.077707,-0.16831,0.54815,0.18571,0.10783,-0.27015,0.4318,0.47446,0.25048,-0.44505,0.41016,-0.20166,-0.010385,0.58676,0.50706,0.13353,-0.24337,-0.8644,-0.20799,-0.50598,0.51921,-0.33905,0.34058,0.51317,-0.35764,-0.6171,-0.22476,-0.52622,0.10869,-1.1935,0.61764,-0.59551,-0.41295,0.31625,0.35562,-0.10079,-0.06506,-0.13194,0.16421,-0.78827,-0.4151,0.56347,1.3495,-0.21183,0.20846,0.42979,-0.1331,0.14578,-0.068692,0.26319,-0.44522,0.46655,-0.024891,-0.30731,-0.31079,-0.020325,-0.39355,-0.4805,0.33867,-0.65492,0.24977,0.28137,-0.47136,0.24389,-0.038576,-0.80377,0.66064,0.084675,0.097205,0.39988,0.24126,0.79081,0.14541,0.16157,-0.41668,-0.15744,0.35711,0.32493,0.58489,-0.35652,0.13659,0.054332,-0.41218,-0.59282,-0.13569,-0.57918,-0.77117,0.01496,0.0048115,0.17949,0.41375,-0.039261,-0.37881,-0.36853,-0.27954,0.14051,0.84351,0.0023193,-0.14467,0.40641,0.08795,0.21008,0.24909,-0.40116,0.27076,-0.25079,-0.26525,-0.1004,0.32995,-0.37214,-0.09069,-0.32056,-0.28197,0.0087248,0.037699,-0.53159,-0.16835,-0.085988,-1.5277,-0.1642,-0.070142,-0.30424,-0.61744,-0.031344,0.015951,0.30482,-0.48155,0.53815,-0.28257,-0.15983,-0.40081,-0.5244,0.60602,-0.1068,0.54838,-0.01473,-0.28276,-0.39266,0.41709,0.097241,0.80083,-0.36909
lion,0.2918,-0.30451,-0.18643,-0.12456,0.59852,0.543,0.16806,1.0792,-0.055115,-0.20401,-0.10764,-0.81728,-0.20518,0.52162,0.37358,0.075588,0.44998,0.19819,-0.017366,-0.43582,-0.39421,0.46885,0.48778,0.48085,0.088282,-0.21437,0.10376,-0.15115,0.14854,0.65517,0.0078932,-0.85667,-0.024476,0.10032,-0.68263,-0.39281,0.34664,0.30954,-0.68735,0.347,-0.078671,-0.21691,-0.43452,0.30331,-0.63428,-0.53864,0.2968,0.028856,0.37429,0.12612,-0.34203,-0.50055,0.10103,0.21551,0.28844,0.36301,0.64173,0.61683,0.035685,0.062093,-0.59562,0.011796,0.28576,0.023435,0.26298,0.018569,-0.31712,-0.5706,0.47154,0.37222,-0.0045898,0.66711,-0.082827,-0.29561,-0.12853,0.030765,0.96881,-0.68716,0.48061,0.36829,-0.18897,-0.20625,0.27453,-0.39031,0.33459,-0.75571,-0.78571,0.29459,-0.42137,-0.12267,0.31957,-0.31974,0.093507,0.53365,-0.52738,-0.1164,0.39485,0.046959,-0.41141,0.2181,0.41542,-0.011437,0.4828,-0.60066,-0.070839,-0.1802,-0.065851,0.30837,0.38013,0.35451,0.2987,0.19086,-0.39066,0.093808,0.31324,-0.072191,-0.41464,0.072187,-0.4942,-0.23062,-0.75664,-0.18435,-0.14979,-0.46103,0.094952,-0.32249,-0.24378,0.54669,0.023224,-0.97776,0.11374,-0.28193,0.02501,0.35962,0.028395,0.26651,-0.087579,0.16623,0.019811,0.34265,0.19318,0.42292,0.038453,0.021604,-0.055174,-0.47037,0.28176,0.028578,-0.16849,-0.066871,0.10789,0.4434,-0.1106,-0.50291,0.28416,0.13703,0.10203,0.033938,-0.38471,0.20607,0.87007,-0.070646,0.42266,0.3492,-0.19731,0.41284,-0.16412,-0.0093516,-0.07349,-0.18583,0.35239,-0.020726,-0.086157,-0.50965,0.26578,-0.54288,0.12369,-0.20834,0.1998,-0.14241,-0.34947,-0.012296,0.066445,0.078111,0.59647,-0.17405,0.10879,0.21399,0.10741,-0.35675,0.20768,0.035145,-0.033915,-0.26728,-0.12101,0.23198,-0.53638,0.038909,-0.34829,0.076598,1.673,-0.15137,0.047546,-0.54214,-0.077142,0.33608,-0.46805,-0.27351,-0.18291,-0.3938,0.012281,-0.35306,0.01016,-0.41372,-0.0072879,-0.17172,0.17931,-0.10434,-0.40169,-0.2849,-0.29282,0.39859,0.095493,0.0099619,-0.22196,-0.7239,-0.18609,-0.33079,0.154,-0.42711,-0.65934,-0.37767,-0.6419,0.30267,0.10078,-0.018165,-0.23503,-0.5315,-0.011697,0.032843,-0.44731,0.080893,-0.2122,0.26788,-0.99822,-0.23135,-0.36665,-0.2854,-0.63003,-0.12093,-0.31986,0.55072,0.23735,-0.12833,1.0004,-0.03759,0.054402,-0.24086,-0.13959,-0.19617,0.52513,-0.32792,0.44127,-0.25815,-0.32045,0.35269,0.47981,-0.11676,-0.099235,0.04113,-0.001675,-0.2887,-0.1314,-0.36463,-0.5793,-0.34977,-0.48147,-0.23359,-0.34093,0.19555,-0.5434,0.3392,-0.082866,0.13833,-0.48501,0.43223,-0.22105,0.041134,0.35273,-0.81733,-0.10987,0.049104,-0.38667,-0.076759,-0.50593,-0.13403,-0.20975,0.47237,0.22249,-0.091329
bottle,-0.36103,0.53612,-0.31926,-0.49466,0.22531,0.68284,-0.154,-0.4189,0.64487,-0.64345,-0.10404,-0.46821,-0.22309,-0.24517,0.052643,0.25325,-0.47008,0.33953,-0.27983,0.070647,0.21413,0.23985,-0.19891,0.37673,-0.24772,-0.6149,-0.63005,0.25413,0.0051111,-0.76437,-0.49298,-0.15191,-0.010272,0.28237,-0.62851,0.54018,-0.1591,0.29896,-0.083272,0.080493,-0.25582,-0.38129,0.15281,-0.12251,-0.68126,-0.096922,0.12655,0.078668,-0.15645,0.28225,-0.011875,-0.499,-0.32754,0.18251,-0.29955,0.57332,0.076515,0.32552,0.65188,-0.23338,0.0099605,-0.33375,0.30219,0.21858,-0.42436,-0.75695,-1.0581,-0.36343,0.18339,-0.13694,-0.076691,-0.46602,-0.046083,0.5621,0.19505,-0.64329,0.18193,-0.74809,-0.41208,0.056588,-0.56775,0.29277,0.24487,0.4463,0.54706,-0.25066,0.31051,-0.0016617,0.15568,-0.61664,0.81377,0.34424,0.040348,0.11687,0.53778,0.31926,0.40826,-0.08445,0.030563,-0.24794,0.12944,0.35352,0.1409,-0.16103,0.21254,-0.28031,0.20638,-0.02776,-0.62475,0.23152,-0.16342,0.37353,0.33647,-0.351,-0.037003,-0.078624,-0.69392,0.57626,0.20521,-0.81656,-0.13915,0.22415,0.035727,0.22355,-0.38353,-0.18083,-0.016795,0.02687,0.016743,0.17337,0.77108,0.082911,0.12253,0.24824,-0.22758,0.31216,-0.0070531,0.25646,-0.15528,-0.34576,0.3568,-0.22773,-0.47186,-0.52048,-0.4726,-0.41084,-0.09059,-0.048658,0.49495,0.64618,-0.055712,0.45085,0.17494,-0.85778,-0.20827,-0.034276,-0.0060999,-0.85292,0.068274,0.3135,0.23275,-0.29101,-0.20578,0.30344,0.38463,-0.16477,-0.34158,0.42603,-0.18794,-0.34695,-0.10248,0.22346,0.31126,0.074276,0.10322,-0.86673,0.0038447,0.42542,0.21068,-0.72354,-0.32956,-0.28821,-0.0014916,-0.067204,0.8096,-0.0097658,1.2654,0.41821,0.31214,-0.069382,0.9092,0.48054,-0.36435,0.16344,-0.48364,-0.17747,-0.69503,0.2334,-0.59179,0.47012,0.5046,0.72746,0.59254,0.18514,0.045497,-0.23049,-0.36411,0.056913,-0.42529,0.15928,-0.094764,0.094336,0.081473,0.017621,0.22745,-0.49078,0.18234,-0.3462,-0.50694,0.11336,-0.062241,0.69641,-0.026528,0.41998,-0.37594,0.15158,0.04094,-0.61614,0.58859,-0.36031,0.15359,0.19519,-0.42327,-0.1394,0.55505,0.28485,-0.22988,-0.16977,-0.34243,0.21108,-0.66,-0.18496,-0.29023,0.023806,-0.22833,0.20572,0.55394,-0.036207,-0.52503,-0.3733,0.76914,0.0764,0.34232,-0.17794,0.024665,0.26069,-0.74388,-0.64996,0.3972,-0.24655,0.056454,0.15282,-0.33525,0.066974,-0.23477,-0.2691,-0.065796,0.05024,0.05291,0.77334,0.25033,-0.50118,0.16789,-0.37763,0.095076,0.028568,-1.3049,-0.0096202,-0.7328,-0.57503,-0.32823,0.56113,0.11687,0.027607,0.051021,0.52293,-0.11607,-0.95368,0.26827,0.49113,-0.25437,-0.053421,0.42441,0.38912,0.13725,-0.3536,0.14525,-0.25298,0.14108,0.21762
pen,0.14085,0.17878,0.11528,-0.85091,0.33633,0.13771,-0.37911,-0.37984,0.40591,-0.76945,0.59396,-0.49853,0.23207,-0.14874,0.62232,0.81844,0.046142,0.4456,0.53759,-0.23569,-0.075011,-0.53415,-0.23815,-0.47008,-0.041284,-0.13632,0.73087,0.1195,0.85557,0.45472,-0.14485,-0.27211,-0.32313,0.37447,-0.74494,-0.46776,0.039667,-0.15753,-0.1482,-0.18488,-0.058271,0.56225,0.38312,-0.46522,-0.62435,0.098991,-0.2262,0.2408,0.40293,-0.054977,0.18286,0.47326,1.0098,-0.39985,-0.034004,0.012986,-0.32883,-0.11221,0.83875,-0.12372,0.083081,0.49868,0.21038,0.28962,0.023071,-0.27904,-0.22882,0.24321,-0.23835,-0.2617,0.79924,-0.272,0.19207,0.50711,-0.11447,-0.092127,0.24339,-0.036395,0.092069,-0.31647,0.26686,0.1632,0.15074,-0.13422,0.1513,-0.48729,-0.17677,0.38352,-0.58652,-0.3398,0.052326,-0.63818,0.059347,-0.24272,0.42864,-0.064227,0.22677,0.24014,0.0059439,-0.26497,0.016458,0.067732,-0.3296,0.079938,-0.21267,-0.1387,-0.25017,-0.085149,-0.16432,0.0076705,-0.35034,0.40619,0.13427,-0.19551,-0.43134,-0.071893,-0.52773,0.78378,-0.029422,-0.58967,-0.3808,-0.090413,0.066354,-0.013627,0.2828,0.7307,-0.091437,-0.3448,-0.37625,-0.11845,0.42342,-0.42067,-0.24544,-0.11925,-0.17657,-0.047765,0.069028,-0.13873,1.0787,-0.52369,0.10224,0.32311,-0.27747,0.069107,0.44978,0.21098,-0.089184,-0.33936,0.20604,-0.10124,0.28554,0.52231,-0.19397,-0.87972,0.18319,0.21244,-0.47284,0.23523,0.13315,-0.30356,-0.40116,0.67302,-0.25651,-0.0032295,-0.2827,0.14511,-0.0063228,-0.32207,-0.67674,-0.095548,-0.38078,-0.045284,-0.59491,-0.084927,-0.083325,-0.92316,0.39414,-0.18133,0.021084,0.16749,0.67816,0.066951,0.95664,0.30543,-0.30533,-0.58455,0.15215,0.3271,0.45565,0.1882,0.22373,0.18123,0.30912,-0.29663,-0.4146,-0.15837,-0.1239,-0.14432,-0.58648,0.0558,0.77422,0.087908,-0.26319,-0.015614,0.14176,-0.29546,-0.065554,-0.036786,-0.60672,0.55237,0.048195,-0.16343,0.63201,-0.15478,-0.08909,-0.16123,-0.2735,-0.28729,-0.26675,-0.078889,-0.84336,0.39415,-0.068032,-0.19257,-0.10852,-0.37425,0.14549,-0.25836,-0.21829,-0.53958,0.055724,-0.24856,-0.65126,0.22288,0.36346,0.46996,-0.73637,0.38984,0.3945,0.077772,0.21308,-0.10641,-0.3143,-0.059082,-0.093265,0.032631,0.0207,-0.0074956,-0.45385,-0.23216,0.017938,-0.60924,0.35182,0.04172,0.50602,-0.13562,0.42488,-0.43768,-0.32475,-0.42969,0.22014,0.015198,-0.29143,-0.39126,0.15254,0.45434,-0.46782,0.95162,-0.64189,0.2663,0.41432,0.097665,0.60619,-0.79877,0.4606,0.048396,-0.77241,0.19163,-0.30249,0.54785,-0.31594,-0.081222,-0.6531,-0.17182,-0.38584,0.10661,0.32796,-0.19653,-0.58382,0.42635,-0.041173,0.066448,0.32829,-0.36952,0.1529,0.2446,0.70163,0.37881,0.1103,0.43591
knife,0.030813,0.11739,0.12256,-0.26555,0.50696,0.37347,-0.22257,-0.20559,0.10349,-0.82535,-0.37277,-0.056323,0.3125,0.55727,-0.33412,0.042657,-0.53792,0.41393,-0.20862,-0.18935,-0.10509,0.039027,0.19408,0.017015,0.37349,-0.2334,-0.097321,-0.76773,-0.14577,-0.45358,-0.051912,0.87908,0.32162,-0.17886,-0.21617,0.054813,-0.21584,0.21475,-0.634,0.20406,0.7277,0.14087,0.2696,-0.8338,0.15497,0.60923,-0.24412,-0.26951,0.26588,0.55777,-0.26737,-0.2682,0.6201,0.11427,-0.42433,-0.62901,-0.8114,-0.10407,0.55462,0.17541,0.11727,0.64236,-0.22765,0.70262,-0.3979,-0.72117,-0.69519,-0.33642,0.13403,-0.35604,0.10609,0.14014,-0.32695,0.37149,0.19644,0.071697,-0.3004,-0.041623,-0.62437,-0.47718,0.075049,0.39828,0.66491,-0.1744,0.23631,-0.30053,-0.89132,-0.2261,-0.65567,0.013396,0.094401,0.30452,0.009967,-0.39863,0.042551,-0.46234,0.21569,0.3021,0.65526,-0.11043,-0.32726,0.46205,-0.17593,-0.26673,0.14573,-0.44403,0.59267,0.02106,-0.091913,0.56207,-0.33885,0.94345,0.047154,-0.59351,-0.019881,-0.035658,-0.75008,0.315,-0.12418,-0.80208,-0.57868,0.48011,-0.3921,-0.61483,-0.59099,0.27353,-0.2381,-0.41562,-0.095784,-0.47324,-0.23591,0.53473,0.72757,0.18597,-0.55866,-0.17502,0.31471,0.33269,0.80097,0.038482,0.63078,0.21127,-0.23544,-0.48895,-0.024085,0.84894,0.37996,-0.0094052,-0.12006,-0.16207,-0.086078,0.98893,0.46538,-0.35654,0.34574,0.078951,0.27016,0.075384,-0.16345,0.48012,0.4002,-0.065972,0.30175,0.048143,0.28433,0.027798,0.40718,0.11673,-0.31259,-0.40383,-0.37639,-0.1451,0.10302,-0.22323,-0.77154,-0.026584,-0.30855,-0.20344,0.72125,-0.37571,0.28502,0.043889,-0.082257,0.10288,0.060171,-0.43435,0.40847,1.1056,0.22409,0.40301,0.06908,0.4371,-0.024907,0.070748,0.26042,0.54739,-0.72997,-0.42466,-0.098199,0.34634,0.38891,-0.2407,0.45779,0.67286,-0.28704,-0.20303,0.17923,-0.05057,-0.58128,0.1416,0.36956,-0.29597,-0.26958,0.39897,0.48569,-0.27664,0.39937,0.11705,-0.7202,0.03137,-0.7923,0.31774,0.33348,0.063002,-0.9889,-0.52601,-0.55056,-0.5979,0.059394,-0.54463,0.72088,-0.14922,-0.58346,-0.54798,0.51728,0.49994,-0.51112,0.33038,-0.17682,0.031654,0.86737,-0.1181,-0.12665,-0.45333,-0.26881,-0.13364,0.50581,-0.10901,-0.056849,-0.43643,0.020199,0.004363,0.45011,-0.14546,0.45312,0.42133,0.12241,0.12801,-0.030701,0.01527,0.37503,-0.45039,0.12875,0.37481,0.0067199,0.67236,-0.48074,0.79519,-0.92889,0.51973,-0.023384,0.0044279,0.19861,0.44241,0.39989,-0.37875,-1.4263,0.016932,-1.0957,0.12625,0.12783,0.58646,-0.03592,0.043472,-0.080518,0.29658,-0.036584,-0.19008,-0.0085892,0.27129,0.55371,-0.47506,0.05384,0.34704,-0.010309,0.31653,-0.10096,0.50744,0.046779,0.40037
motorcycle,-0.17595,-0.14336,-0.021662,0.14713,-0.11129,0.075099,-0.16449,0.95587,-0.14103,-0.088294,0.60457,-0.082032,0.28777,0.59256,-0.009802,0.15476,0.045914,0.50707,-0.42203,-0.31193,-0.18562,0.6939,0.62799,-0.040478,-0.28408,-0.54258,-0.32129,-0.3035,-0.21402,-0.5813,-0.28501,0.10757,0.62894,0.04336,-0.021649,0.046107,-1.0211,-0.53511,0.061343,0.56516,-0.63446,-0.10879,-0.46648,-0.72525,0.46086,-0.32547,0.53643,-0.21579,-0.048644,0.62908,-0.02072,-0.42326,0.15982,0.8915,-0.13722,0.64656,-0.27527,-0.59644,-0.2351,-0.10261,-0.58275,-0.31581,0.057262,-0.17098,-0.1241,0.081664,-0.34694,0.38084,0.24468,-0.24532,0.004146,0.63754,0.40591,0.20695,-0.17466,0.14798,-0.24745,-0.78743,-0.1961,0.3772,0.18312,0.54867,0.38681,0.49525,-0.17855,-0.17336,0.10949,0.80338,-0.03222,0.82946,1.2015,-0.066037,0.061025,-0.12338,0.67876,0.005265,0.6203,-0.24095,-0.026556,-0.25968,-0.068666,0.80998,0.11615,0.37696,-0.0734,-0.42586,0.56326,-0.17298,0.079268,-0.35417,-0.30036,0.1732,0.25194,-0.50286,0.43086,0.27136,0.43806,-0.25609,0.33606,0.4699,0.12296,0.76133,0.33098,-0.50885,-0.088519,-0.053801,0.41958,-0.35847,0.015849,-0.583,0.62718,0.34336,0.23293,0.40154,0.16454,-0.00015328,0.27616,-0.57646,0.091369,-0.02278,-0.23224,0.14092,0.098367,-0.16569,0.21468,-0.16497,-0.089947,-0.24295,0.027576,0.47658,0.77405,0.529,-0.08395,-0.048269,0.58677,-0.94796,-0.078056,0.53603,0.30782,-0.12592,0.37017,-0.41518,-0.43674,-0.72275,0.33891,-0.69505,0.61128,0.35648,-0.15127,-0.38505,-0.047876,-0.037057,0.018868,-0.10301,-0.24142,-0.69104,0.36197,-0.0097188,0.17144,0.39857,0.1341,0.071429,-0.11547,0.75726,0.78654,-0.5617,-0.087852,0.31353,0.3591,-0.11435,-0.44023,-0.44217,-0.31747,0.28631,-0.093629,-0.17454,-0.55283,0.35385,-0.10486,0.030128,0.69013,0.43876,0.43613,-0.12696,0.10506,0.44338,0.25737,-0.052827,-0.4444,-0.20449,0.012257,0.084343,-0.26213,-0.27851,0.14263,-0.19053,-0.044636,0.273,-0.37452,0.076608,-0.083857,-0.089231,0.17047,-0.57178,0.53891,0.18759,-0.42254,-0.38252,-0.21669,0.046122,-0.056267,-1.0588,-0.30105,-0.3852,0.84296,0.18798,0.8179,-0.10567,-0.35786,0.41001,0.61172,-0.44941,0.085893,0.29624,0.3171,-0.25093,-0.076817,-0.39928,-0.2499,0.32874,-0.21033,-0.46308,-0.16576,-0.80468,0.61793,-0.74458,-0.28589,0.28201,0.077206,-0.1435,-0.11897,-0.33702,-0.18091,0.53851,-0.13904,-0.099187,-0.71769,0.048423,-0.3851,-0.46397,0.23192,0.22487,0.093976,-0.073929,0.30749,-0.41655,-1.0595,-0.4499,-0.0025751,0.4177,0.081511,-0.86458,0.44039,0.4433,-0.71479,0.55021,-0.22178,0.077114,0.31784,-0.365,-0.10077,-0.34298,-0.71494,-0.13948,-0.2184,0.73447,-0.40849,0.52648,0.61913,0.24611
hammer,0.24715,0.19081,-0.22681,0.25621,0.29314,0.43315,-0.48915,0.23493,-0.22346,-0.37204,0.081313,-0.55561,0.30253,-0.17189,-0.35126,-0.025339,-0.308,0.2774,-0.043986,0.1051,0.62787,-0.17198,0.51358,0.2608,0.25943,0.079748,-0.14283,-0.25672,0.31856,-0.15347,0.49506,-0.29692,0.24487,0.5298,-0.5075,-0.082696,-0.69339,0.39905,-0.48892,0.20812,0.15854,0.40029,-0.28511,-0.23919,0.45468,0.17291,-0.67013,-0.46194,-0.17629,0.017425,0.41963,0.13367,0.16652,-0.40467,-0.13029,0.24624,-0.73591,0.63774,0.053275,-0.094822,0.36179,0.48115,0.13355,0.087544,-0.15527,-0.44625,-0.25087,0.055917,0.22114,-0.69502,-0.013159,-0.011834,-0.28188,0.10577,-0.49373,0.053151,-0.18627,-0.5196,0.039594,-0.15803,-0.29996,-0.40618,0.3697,-0.50638,-0.088777,0.16901,-0.00244,0.34971,-0.14572,-0.81146,0.38769,0.27662,-0.25324,-0.33386,0.43827,-0.87798,-0.10791,-0.28079,0.098083,-0.40812,-0.69843,-0.27614,-0.15093,-0.010001,0.88129,-0.48528,-0.0016805,-0.5396,0.086721,-0.65344,-0.053562,0.44176,-0.51833,0.32312,0.1514,0.081344,-0.97113,0.01383,0.41482,-0.34554,0.082017,-0.055784,-0.20237,-0.29459,-0.056478,0.76937,0.58279,0.55053,-0.20128,-0.47078,-0.19252,0.38671,0.34407,-0.28207,-0.058901,0.21022,-0.61889,0.35096,0.32385,0.33984,-0.079532,0.0099393,-0.53951,-0.30263,-0.26009,0.066317,0.27459,0.033704,-0.032616,-0.0020364,-0.015675,0.18315,0.049039,-0.8855,-0.07708,0.20971,-0.02092,-0.61316,-0.36896,0.39189,0.12989,0.21897,-0.095569,-0.51716,0.054231,0.58373,0.11633,0.22994,0.57141,0.13418,-0.044989,0.26619,-0.048055,-0.34283,0.61254,0.076239,0.51235,-0.073603,0.20134,0.028534,0.18977,0.12543,0.035427,0.51294,0.074816,-0.076825,-0.043979,-0.058063,0.55812,-0.12892,0.24795,-0.24751,0.21549,0.091684,-0.25275,0.18429,-0.086389,0.00078596,0.13681,-0.29373,0.56059,0.31401,0.51707,-0.25132,-0.23346,-0.15364,0.43538,-0.26294,-0.25312,0.35535,0.22268,-0.13354,0.25837,0.30773,0.65032,-0.34756,0.67918,0.30678,-0.51335,-0.20704,-0.10388,-0.4595,0.55864,-0.29802,-0.70089,-0.091375,-0.20509,-0.25269,-0.14563,-0.59135,0.079598,0.021948,-0.17396,-0.086922,0.075189,0.15834,-0.36901,-0.165,0.11056,-0.25182,0.043579,0.17033,-0.21521,-0.38184,-0.21439,-0.31401,-0.32393,0.012026,-0.7988,-0.14221,-0.34849,0.2077,-0.093467,-0.59066,0.38514,-0.25906,-0.25514,-0.38483,-0.38884,0.031985,-0.25209,-0.58639,0.42034,0.4416,-0.43744,0.26952,-0.82597,0.46105,-0.43702,0.078184,-0.19205,-0.54897,-0.17091,0.33962,-0.21362,-0.57641,-0.63841,-0.49556,0.15405,-0.3007,0.06898,-0.15985,-0.66015,0.29026,0.52313,0.41403,-0.27805,-0.41415,-0.29801,0.20652,-0.49064,-0.20499,0.046058,-0.00061687,-0.20932,0.054903,0.53013,0.24316,-0.086038,0.63675
duck,0.13137,0.11923,0.29397,0.086164,-0.015801,-0.17939,-0.22014,-0.025373,-0.31641,-0.31454,0.29047,-0.050758,-0.59994,-0.1749,-0.51237,0.94668,-0.073504,0.3171,0.45219,0.64021,-0.28509,-0.075966,0.03881,0.09357,0.20536,-0.15689,-0.0648,-0.59868,0.48913,-0.11821,0.084284,-0.21411,-0.023251,-0.48584,-0.51409,0.51627,0.17232,0.40637,-0.78535,0.42782,-0.10735,-0.27702,0.23649,-0.037837,-0.035918,0.33931,0.40115,-0.81328,-0.51037,0.28367,0.48524,-0.046423,0.25838,0.18459,0.0012305,0.24455,-0.19012,-0.36539,0.42933,0.25133,-0.16844,-0.53952,-0.36873,-0.40051,0.5155,-0.40227,0.013828,-0.38221,0.002153,0.21009,-0.50707,0.67106,0.047467,-0.02066,-0.61948,-0.059344,0.039914,1.0575,0.86746,-0.52053,-0.22373,1.1331,-0.15522,-0.55333,0.020301,0.059455,-0.561,0.70874,-0.34436,-0.47709,0.24632,-0.16264,-0.017099,0.66552,0.080297,0.74135,-0.27184,0.043515,-0.14739,-0.22394,0.19949,-0.021951,-0.081758,-0.54016,-0.32486,-0.083785,-0.30865,-0.72289,-0.19711,0.52731,0.23859,0.85459,-1.0317,0.33532,0.67633,-0.42507,-0.3063,0.28775,0.27085,-0.079341,0.37709,0.082458,-0.39578,-0.088799,-0.15894,0.36565,-0.51576,0.56378,0.91,0.078967,-0.39583,0.41374,0.38465,-0.18489,0.39875,-0.09692,0.2761,-0.42122,0.1174,-0.030566,0.48751,0.0049868,-0.59594,-0.39659,-0.42167,0.052298,-0.079423,-0.36307,-0.18823,0.058975,-0.41248,0.99719,-0.30665,-0.26305,0.28181,-0.33731,0.15296,-0.72226,-0.2248,0.012445,0.14099,0.18749,-0.19298,-0.15241,0.01074,0.43289,-0.46826,0.33253,-0.12867,-0.21443,-0.27914,0.15965,0.019341,0.41176,-0.20768,0.093538,-0.1483,-0.17177,0.077869,-0.056403,0.27824,0.38216,0.18105,-0.37452,-0.36039,-0.21258,0.028664,0.061831,-0.13338,0.22363,0.21204,0.41039,-0.62653,-0.044609,0.14892,0.4645,-0.25511,-0.41258,-0.63103,-0.35469,1.1283,0.57587,0.019887,-0.55374,-0.072778,0.88965,0.38014,-0.080482,0.10968,0.23567,0.37006,-0.43794,0.11365,0.031629,0.24623,-0.31373,0.071758,-0.19742,-0.30565,0.2545,-0.054131,-0.071747,-0.74171,-0.62608,0.072464,-0.61566,0.20824,-0.42897,-0.61097,0.3848,-0.074474,-0.1546,-0.32557,0.041016,0.43448,0.19635,0.62407,-0.22432,0.09635,0.046146,-0.29445,-0.071696,-0.34558,0.075691,-1.1437,-0.2374,0.16755,0.047772,0.11389,-0.41745,0.14045,-0.40021,0.65202,-0.17541,0.4607,-0.22974,-0.091452,-0.0035358,-0.44454,-0.48225,0.26159,-0.22375,-0.5162,-0.24046,-0.64364,0.097159,0.2194,-0.72903,-0.449,0.13038,-0.37749,0.21698,0.063065,0.12614,0.069181,0.21342,-0.65438,0.47901,-0.58707,-0.3892,-0.66391,-0.53694,0.15632,-0.31397,-0.46961,0.18636,0.7212,0.1003,-0.33438,-0.050194,-0.44864,-0.26207,0.5742,-0.069489,-0.78223,-0.96941,0.0061261,-0.63819,-0.055855,0.21897
cherry,-0.64325,0.16086,0.13065,-0.14111,-0.20806,-0.15868,0.1694,-0.37907,0.16844,0.35217,0.10462,-0.05746,0.12643,0.54607,-0.1062,0.34486,-0.14758,-0.47013,0.46042,0.49365,-0.018742,-0.15581,-0.23656,-0.062777,-0.42997,-0.48123,-0.62975,-0.57484,-0.45179,-0.1576,-0.01842,-0.117,-0.13227,-0.21272,-0.14686,0.31833,-0.54599,-0.33151,0.30243,-0.27062,-0.046747,0.26903,0.21128,0.40205,0.032667,-0.26866,-0.29003,0.34878,0.086758,-0.0090855,-0.15904,-0.25887,0.021307,-0.33344,-0.69871,-0.17849,-0.19863,0.20823,0.45363,-0.87573,-0.15976,-0.40129,-0.049922,0.25574,0.081539,-0.10985,-0.13908,0.36601,-0.35041,-0.21763,-0.49407,-0.095839,-0.68959,0.23335,-0.39247,-0.35948,0.29086,0.048523,-0.092012,-0.30204,-0.033534,0.31753,0.31096,-0.16362,0.42314,-0.045028,0.1943,-0.14922,0.28436,-0.58356,-0.067543,-0.20951,-0.0047033,-0.4886,-0.075265,0.55428,0.37025,-0.35759,-0.42749,-0.26658,0.0046314,-0.049992,0.47816,-0.32338,-0.43583,-0.61454,-0.11936,-0.15544,-0.056438,0.27632,0.0013106,0.18712,0.46014,-0.63223,-0.074524,0.34297,-0.49963,0.38785,-0.28274,-0.25385,-0.26267,-0.39806,0.044278,-0.82282,-0.81362,-0.35398,-0.088827,0.3173,-0.4864,0.14401,-0.050674,1.1068,0.34117,0.20628,0.17792,-0.12846,-0.5162,-0.27228,0.010989,-0.23833,0.66942,0.40566,-0.064172,-0.62306,0.30578,0.23828,0.19006,-0.53712,0.31616,0.39688,0.080167,0.097415,-0.3388,0.0062455,-0.32314,-0.028963,-0.20121,-0.47625,-0.15877,0.55669,0.2542,-0.24209,0.062277,0.045295,-0.082422,-0.21913,-0.26649,0.3256,-0.080054,-0.55366,0.06886,0.058479,-0.13053,0.18955,0.065112,-0.0064099,-0.1144,0.11029,-0.41233,-0.31304,-0.58519,0.57199,0.54148,-0.27744,-0.12762,-0.55723,0.60443,-0.27723,0.4211,-0.1185,0.15955,0.3706,-0.13898,-0.56819,-0.11981,0.042713,0.46831,-0.022641,-0.81075,0.54698,1.0274,-0.47404,0.65399,-0.091873,-0.40692,0.33428,0.18334,0.86584,0.49933,-0.046624,0.31469,-0.82417,-0.35139,-0.38056,0.035986,-0.089365,0.69967,0.044735,0.052224,-0.36221,0.031121,-0.075545,-0.52654,-0.13102,-0.36824,0.43499,-0.28843,0.16528,-0.16118,-0.18981,-0.63033,-0.31386,0.17971,-0.20421,0.060893,0.54383,-0.18274,-0.38589,-0.68164,-0.08295,-0.32186,-0.24159,0.045673,-0.32498,-0.42545,0.4295,0.096337,0.62608,0.16545,-0.80499,0.62126,0.35665,-0.50017,0.10418,0.5813,-0.31292,-0.18373,0.20819,0.00036537,0.23814,0.39758,0.45572,0.15804,0.30594,-0.065529,-0.53163,0.38832,0.20375,0.52035,0.19739,0.23789,0.12843,0.12189,-0.18367,0.4265,0.44343,-0.64965,0.1671,-0.40991,-0.16436,-0.53183,0.15974,-0.18828,-0.62914,0.1676,0.33516,0.58012,-0.013043,-0.032075,-0.19717,0.31408,-0.26123,0.38614,0.29639,-0.16537,-0.1032,-0.29833,0.46958,0.19886,0.011246
elephant,0.21553,0.17279,-0.16796,0.37043,0.32252,0.33791,0.40798,0.25326,-0.52837,-0.17699,-0.14878,-0.061526,-0.5151,0.097219,0.15773,-0.057379,0.37675,-0.018866,-0.64969,-0.20751,-0.26426,0.37092,0.19486,0.21626,-0.51401,0.02408,0.023308,-0.24848,0.03832,0.80956,0.11741,-0.18876,-0.67371,-0.20263,0.35006,0.41065,0.13683,0.38046,-0.51786,-0.099708,-0.01702,-0.20879,-0.18681,-0.64044,-0.41538,-0.22146,0.4196,-0.25002,0.21875,-0.17492,0.57553,-0.17824,-0.46709,0.26721,0.34064,0.13872,-0.0083405,0.67928,-0.63697,0.027342,-0.38947,-0.42949,0.48891,0.21014,0.56858,0.44429,-0.51684,-0.32123,0.43381,-0.11835,-0.34051,0.53615,-0.1871,-0.20519,0.43377,0.089071,1.0804,-0.18561,-0.011586,-0.016495,0.34277,0.11123,-0.0198,-0.40017,-0.21429,-0.47868,-0.37378,0.035601,-0.49206,-0.63784,0.021621,-0.36724,-0.14725,0.30102,-0.11917,0.17239,0.4039,0.013835,-0.27035,0.21749,0.11378,0.57866,0.67455,-0.64566,-0.11213,-0.43326,-0.076579,-0.14373,0.26772,0.64378,0.032992,0.38989,-1.0908,-0.11352,0.30785,-0.13474,0.19553,0.54312,-0.23793,-0.46913,-0.41279,-0.11949,-0.46534,-0.21021,-0.23721,0.14337,-0.042655,0.31183,-0.36392,-0.89525,0.43398,-0.4758,0.060432,0.28002,0.63698,-0.027512,0.49283,-0.43161,-0.052438,0.24736,0.13936,-0.046256,-0.56724,-0.06536,-0.013964,-0.098321,0.59939,-0.13343,-0.16981,-0.045958,-0.52682,0.76165,0.085298,0.11108,-0.01393,0.1344,-0.0014236,-0.16746,-0.11966,0.49227,0.4906,0.21021,0.89823,-0.25619,-0.048149,-0.25008,0.31488,-0.01861,-0.15381,-0.46069,0.2819,-0.015572,0.71606,-0.066346,-0.17665,-0.27894,0.70726,0.14989,0.10492,-0.20297,-0.0018992,0.098904,-0.30561,-0.16652,0.20035,-0.63917,0.18286,0.5062,0.57853,0.21063,0.38625,0.20772,-0.034759,-0.10518,-0.35193,0.27383,0.15986,-0.037893,-0.25353,0.16399,1.5732,-0.19679,0.05822,-0.45619,0.5029,0.74128,-0.19772,0.16896,-0.13964,-0.17724,0.013617,-0.12544,0.04627,-0.62279,0.3919,-0.70154,-0.23222,-0.30037,0.020476,0.34074,0.023366,-0.10034,-0.032015,-0.37149,-0.42143,-0.38886,-0.16684,-0.090223,-0.12665,0.024611,0.18583,-0.34303,-0.28162,-0.023165,0.29605,0.35803,-0.63909,-0.40045,0.10223,-0.29693,-0.43419,0.30849,-0.22215,0.19107,-1.2367,-0.15573,0.028381,0.20699,0.25308,-0.012864,-0.23681,-0.38484,0.001718,-0.36617,0.81716,-0.096267,-0.0045399,0.052251,-0.010517,-0.1554,0.064661,0.34407,0.18066,-0.10015,-0.36951,0.11389,0.3522,0.48235,-0.57891,0.44209,0.11559,0.069067,-0.15903,-0.54896,-0.2882,-0.24076,-1.0323,-0.049748,-0.39217,0.22364,-0.68148,-0.45829,0.37927,0.24295,-0.93563,-0.22239,-0.3673,0.11888,-0.30726,-0.64333,0.015829,0.072207,-0.43673,-0.31228,-0.1238,-0.08452,0.14025,0.16913,0.49023,0.32985
pig,0.21362,0.17647,-0.32418,-0.64928,0.15753,0.21818,-0.14825,-0.027695,0.092059,-0.19711,0.029921,-0.42784,-0.57368,0.73983,0.05964,0.5857,0.19682,0.1328,0.28706,0.18783,0.016038,0.23815,0.038606,0.016966,-0.55304,-0.19813,-0.041598,-0.24803,0.90989,0.17459,-0.95552,0.21949,-0.34717,0.55457,-0.12072,0.15909,-0.028689,0.073545,-0.13876,-0.040543,-0.24913,0.20299,-0.37224,-0.60842,-0.2934,-0.47977,-0.075069,-0.52263,0.080633,0.25428,-0.01122,0.89575,0.30142,0.029663,-0.37374,-0.26138,0.15761,0.11299,-0.15539,-0.46506,-0.3015,-0.16529,0.19496,-0.3842,-0.18834,0.25005,0.48686,-0.2335,-0.221,0.87175,0.063965,1.0459,0.095207,-0.026051,-0.43592,-0.25375,0.38847,0.30065,0.37849,-0.30381,-0.2787,0.0020006,0.059261,0.17358,-0.00019762,-0.19156,0.062112,0.19307,-0.08175,-0.36798,0.071795,-0.25533,-0.060395,0.14783,0.0028485,0.24626,-0.24545,0.18572,-0.4803,0.56703,0.12571,0.082688,0.30917,-0.67681,-0.20369,0.20659,0.25397,0.044659,0.028295,0.8186,-0.38347,0.41868,-0.92426,0.42326,0.55733,-0.1634,-0.34058,0.37253,0.25956,-0.024825,-0.52576,0.10813,-0.060993,0.26504,-0.0064746,0.48014,-0.49508,0.24294,0.0043664,-0.57438,0.29961,0.38449,0.024845,0.3735,0.22398,0.1429,-0.054463,-0.18499,-0.084583,0.37263,0.40135,0.2361,-0.36843,-0.77074,-0.12666,-0.53738,0.028833,-0.44793,-0.47797,0.0083813,-0.82281,0.70078,0.0016424,-0.16155,0.48357,0.19621,-0.63381,-8.41E-05,-0.25259,0.10678,0.72211,0.59176,-0.045367,0.071513,-0.070733,0.025374,0.074105,-0.32599,0.4741,-0.4153,0.22433,0.41931,0.069968,-0.36429,-0.0071643,-0.42306,-0.13356,-0.04167,0.05277,-0.088719,-0.29119,0.14333,0.0027445,-0.31261,0.029648,-0.62798,0.40237,-0.030857,0.72038,-0.66514,-0.13912,0.39371,-0.34641,0.18689,-0.080988,0.33991,-0.070397,-0.79391,-0.85906,-0.21019,0.61754,0.57582,-0.094008,0.16722,0.39618,0.30224,0.30583,-0.079267,0.30925,0.25968,-0.035246,-0.35458,0.11382,-0.20367,0.07836,0.33356,0.28102,-0.43184,0.28133,0.099573,-0.6595,-0.21226,-0.12764,-0.56215,0.35664,-0.49676,0.033149,0.044666,-0.12316,0.3286,0.35026,-0.13189,-0.3017,-0.0076735,0.097273,0.20106,0.51429,-0.66697,0.17097,0.031444,0.0057893,-0.38445,-0.39377,-0.0035347,-0.3906,-0.33114,-0.21596,0.35287,0.065743,-0.065939,-0.20345,0.083084,-0.24425,0.29705,1.404,0.69196,0.1789,0.14579,-0.44722,-0.37488,0.26594,-0.0852,-0.078048,-0.13341,-0.14921,0.64433,-0.065589,-0.33792,-0.60031,0.32164,-0.080659,0.32306,0.28943,-0.18311,-0.35779,-0.028925,-1.2213,0.08683,-0.75066,-0.46632,-1.1641,-0.25652,-0.55742,0.32373,-0.34273,0.77699,0.31636,-0.35441,0.08514,-0.2371,-0.46499,-0.069627,0.14382,-0.035965,-0.21379,-0.55322,0.1602,0.023198,0.21405,0.26071
potato,-0.11359,0.13548,0.36997,0.65248,-0.35152,0.057369,-0.41179,-0.089281,0.04204,-0.22623,-0.13405,-0.57573,-0.58281,0.63266,0.10838,-0.27156,0.078517,0.52267,-0.40031,0.20523,-0.30708,0.42497,6.93E-05,0.011257,-0.33159,0.086669,-0.27303,0.027006,0.02726,-0.25781,-0.10643,0.27951,-0.34106,0.071167,-0.2767,0.85339,0.077277,0.7275,-0.37351,0.16589,0.185,0.38176,0.38442,0.18115,0.27767,-0.1643,0.68984,-0.62564,-0.31263,0.1994,0.37793,-0.061711,0.2954,0.0057891,-0.16629,-0.27558,-0.14054,-0.0397,0.30367,0.041342,0.41504,-0.53469,-0.048878,0.14101,-0.32638,0.12419,-0.74924,0.61028,-0.46352,-0.18805,0.041018,0.10583,-0.27887,0.13582,-0.68011,0.056107,0.51675,0.067256,-0.19672,0.033563,0.10967,0.27166,-0.475,0.18413,-0.24768,-0.33808,-0.57098,0.12735,-0.20046,-0.88464,-0.15158,-0.38417,-0.41695,-0.26016,-0.21921,-0.031249,-0.1207,0.60835,-0.029821,0.31971,-0.47922,-0.02642,0.13657,-0.65025,-0.72918,0.053334,-0.28602,0.25334,-0.76897,0.46384,0.36663,0.86939,-0.24186,-0.48625,-0.37582,-0.212,-0.29305,0.62316,0.11619,-0.20453,0.16268,0.19948,0.24713,0.6449,-0.48608,0.31045,0.32971,1.1025,-0.26972,0.53044,0.27375,1.2738,-0.38372,0.26051,0.14729,-0.50422,0.44498,0.53267,-0.013215,0.0031749,0.032922,0.28263,0.11564,-0.57514,0.17869,0.65015,0.3087,-0.39694,-0.28405,-0.58795,-0.82794,0.67926,0.082709,0.083966,-0.22866,0.41272,-0.45231,-0.083287,0.47243,-0.030753,-0.18218,0.21785,-0.12671,-0.4507,0.38212,0.050628,0.32079,-0.045556,-0.20635,-0.69875,-0.30968,0.11719,-0.52468,-0.14707,-0.18562,0.085704,0.18979,-0.17088,0.52503,-0.1998,0.062353,0.18178,-0.12279,-0.5836,-0.12644,-0.35993,0.6738,0.2258,0.071108,-0.69449,-0.3936,0.79223,-0.214,-0.12083,-0.53719,0.32486,-0.46001,-0.44878,-0.28363,0.44992,0.074893,0.31503,0.46274,0.52579,0.33784,-0.23434,0.26024,0.19787,-0.075502,0.18262,0.1476,-0.26884,-0.2636,0.080256,-0.17,0.7005,0.26176,-0.39966,0.532,-0.32105,0.14515,-0.31442,-0.35126,-0.19982,-0.6114,-0.258,0.28416,0.18233,-0.28878,-0.15773,-0.16232,0.53027,-0.41429,0.3269,0.27659,0.41339,0.43617,0.062327,-0.16836,-0.24083,-0.36848,0.12827,-0.069878,-0.5325,-1.0538,-0.18138,0.42357,-0.073159,0.1276,-1.0065,0.05415,0.45871,-0.44365,0.037079,0.88717,0.017086,-0.23196,0.0089891,-0.5883,-0.030449,-0.30184,-0.27867,0.67431,0.52597,0.072158,-0.51359,-0.17385,-0.12799,0.30105,0.55595,-0.25632,-0.074182,-0.11906,0.5144,0.44923,-0.029096,-0.59602,0.11124,-0.71042,0.17824,-0.83747,-0.50573,-0.04928,0.0079854,0.091054,0.051348,0.49031,-0.22924,0.21544,0.19185,0.32685,-0.4743,0.30655,-0.76799,-0.20137,-0.71406,0.23629,-0.064655,0.36039,0.66191
banana,0.42141,0.020467,0.12666,0.39762,-0.11016,-0.035956,-0.47214,-0.13916,0.56812,-0.34969,-0.093232,-0.17035,-0.38677,-0.16811,-0.10157,-0.26612,0.048094,-0.46771,-0.60725,0.40952,0.31771,0.50098,0.66368,-0.11827,-0.74267,-0.10472,-0.64353,-0.44023,-0.39101,0.35694,-0.93489,0.48317,0.15223,0.079339,-0.25111,0.39968,-0.17982,-0.28874,-0.10891,0.38821,-0.23147,-0.50337,-0.25231,-0.022184,-0.27874,-0.24193,0.057466,-0.53955,-0.034875,-0.40482,-0.038067,-0.42337,0.42861,0.35166,-0.18165,-0.31131,-0.53276,-0.050954,0.66779,-0.40077,0.21403,-0.29861,-0.36637,0.28489,-0.37663,0.059604,-0.31795,0.25463,-0.22185,0.23032,-0.12302,0.24175,-0.10706,-0.086599,-0.037363,-0.10403,0.24492,-0.84063,-0.1535,-0.19363,-0.018541,0.10938,-0.29402,-0.11271,-0.38886,-0.42836,-0.4486,-0.24651,-0.094971,-0.63275,0.20591,-0.77712,-0.23888,-0.79994,-0.36994,0.37863,0.27856,-0.10061,0.064728,0.091214,0.24322,0.39319,0.27138,-0.6939,-0.37603,0.19322,-0.28888,-0.013833,-0.20092,0.20651,1.1443,0.20413,0.077503,0.36868,0.26764,-0.19205,0.12437,0.7254,-0.40392,0.20171,0.027611,-0.70727,0.73353,-0.28918,-0.076865,0.16481,0.4793,1.0438,-0.012671,0.2165,-0.54563,0.74603,0.050535,0.43028,0.28583,-0.22623,-0.10048,0.021873,-0.015193,-0.36967,-0.01258,-0.033953,-0.087644,0.067809,0.075793,0.77514,0.36431,-0.31494,0.44823,-0.49692,-0.39522,0.172,0.32744,0.2807,-0.22451,0.016309,-0.49604,-0.070684,0.44588,0.69836,0.57786,-0.086133,0.0885,-0.13028,-0.47819,-0.5681,-0.35058,0.45372,-0.077019,-0.39147,-0.0062599,-0.008847,-0.55888,-0.27865,0.45821,0.040499,0.096597,0.79329,-0.0081883,-0.22361,0.13949,0.063997,-0.04814,-0.8997,0.32938,-0.73243,0.4952,0.43429,0.39592,-0.36047,-0.44325,1.1874,-0.14529,-0.24614,0.16348,0.24299,-0.086866,-0.3142,-0.10316,0.44774,0.12476,0.29402,0.056585,-0.0081334,0.41448,0.078065,0.42369,0.59514,-0.18196,-0.11808,-0.16229,-0.37044,-0.45505,0.23213,-0.18806,-0.057701,0.35678,-0.29694,0.40711,0.29314,0.50997,-0.4906,-0.038442,0.27699,-0.17814,0.56196,-0.25775,0.16302,-0.12892,0.18511,0.044475,-0.050004,0.003403,0.72436,0.72849,-0.050832,0.63507,-0.51974,-0.018575,-0.040821,-0.065155,-0.4737,0.03105,-0.2919,-1.0685,0.19157,0.35104,0.65448,0.094602,-0.74953,0.27771,0.85203,-0.13938,-0.0026958,0.75905,0.1525,-0.18057,0.35792,0.22094,-0.0026224,0.24357,-0.044449,0.024307,-0.18554,0.5473,0.067562,-0.17508,-0.4967,0.191,-0.12052,0.00056214,-0.042702,0.083795,0.4198,0.14462,0.14566,-0.33083,-0.25936,-0.58499,0.082745,-0.49894,-0.24473,-0.31759,-0.6223,-0.4137,0.10231,0.56253,-0.41108,0.15782,0.0936,-0.066787,-0.6505,0.43919,-0.07727,-0.10359,0.20172,-0.64019,0.093869,0.23952,0.3014
onion,-0.05977,-0.11391,0.61566,-0.19949,-0.23212,-0.12825,-0.16468,-0.062225,-0.15616,-0.049129,0.24615,0.73809,0.085887,0.98376,-0.29968,0.33955,-1.0066,0.66355,-0.51978,0.31432,-0.41913,-0.15742,0.15135,0.1923,0.48978,-0.89231,0.090545,0.41171,-1.0151,-0.13163,-0.34257,0.62255,-0.22956,0.31451,-0.299,0.87423,-0.081732,-0.046778,-0.33923,0.057912,0.59166,-0.038259,0.14257,0.36151,0.30752,-0.15584,0.25313,0.54186,-0.82686,-0.096262,0.46024,0.27594,-0.018045,-0.05942,-0.14671,-0.29512,-0.7911,0.31047,0.49441,0.21842,0.83545,-0.33129,-0.021809,0.37055,-0.26414,-0.096851,0.20353,0.16564,0.36382,-0.56236,0.11263,0.067982,0.033213,-0.26534,-0.50059,0.32965,1.3199,-0.14377,-0.38711,0.015672,-0.35495,0.17939,-0.042955,-0.073695,0.30314,0.01593,-0.30226,0.10079,-0.2019,-0.70757,0.36836,-0.1429,0.43551,0.392,-0.90746,0.35045,0.17833,0.63071,0.48506,0.45474,-0.097491,-0.41125,0.55783,-0.64976,-0.88334,-0.018166,-0.34668,-0.010378,-0.20647,0.31081,0.59486,0.32799,0.45424,-0.16659,-0.3375,-0.13204,-0.8116,1.0821,0.51826,-0.055857,-0.050085,-0.85873,0.52447,0.5819,-0.3601,-0.12929,0.51184,0.76728,-0.87146,0.47388,0.53073,1.062,-0.36419,0.81488,-0.099913,-0.23082,0.18954,0.080784,-0.50454,0.10454,0.71899,0.27347,-0.3996,-0.48736,0.012457,0.093381,0.094377,-0.16505,0.87546,-0.16858,-0.63097,0.57265,-0.22219,0.3015,-0.43497,-0.15937,0.080359,-0.40162,-0.98875,-0.10675,-0.094891,0.43626,0.31563,-0.7293,0.090771,0.07818,-0.13132,-0.28255,-0.037481,-1.1041,0.021555,-0.3343,-0.26943,0.00068003,-0.20337,0.13136,0.32281,-0.28255,0.85109,-0.097892,0.3215,0.25948,0.27726,-0.81033,-0.11066,-0.65563,0.42034,0.016488,-0.22167,-0.5204,-0.090514,1.8505,-0.15312,0.45771,0.14018,0.39948,-0.39235,0.038276,0.43658,0.024524,0.14453,-0.048148,0.49488,0.66555,0.072429,0.55163,0.30062,-0.0028497,0.37877,-0.14144,0.39789,0.13439,-0.54575,0.23261,-0.31704,-0.018481,0.27448,-0.68288,0.11661,0.53758,0.27688,0.51412,-0.63128,-0.14791,-0.25851,-0.20981,-0.72422,-0.0048119,-0.20281,-0.29259,0.16058,0.39641,-0.55468,-0.4289,0.51283,0.55736,0.63825,-0.18974,-0.64348,-0.28653,-0.16654,0.082684,-0.056643,-0.11712,-0.20937,-0.26063,0.41221,0.039219,-0.40592,-1.3878,0.50268,0.21946,-0.11222,-0.26263,0.36813,0.46928,0.16212,0.52213,-0.48838,-0.040159,-0.049532,-0.23335,0.13415,-0.13309,0.02627,-0.82689,-0.17651,-0.10456,0.18364,0.1256,0.2612,0.12,-0.066576,0.66696,-0.24867,0.50643,-0.31063,-0.3153,-1.0034,-0.33409,-0.25655,-0.52143,-0.41097,0.080455,-0.0012067,-0.047882,0.25411,0.15211,0.19176,0.22291,0.066548,0.1856,-0.023048,-0.30932,-0.50521,-0.89036,-0.14005,0.19845,0.43323,0.40521
swan,0.091717,-0.23404,0.038527,-0.11622,-0.31235,-0.016663,0.12777,-0.10573,-0.291,-0.17525,0.016492,-0.433,-0.31259,0.54526,0.29009,0.54626,0.22604,-0.17811,0.43704,0.14185,-0.26757,0.37035,0.37794,0.67853,0.19808,0.11033,-0.30127,-0.138,-0.11163,0.40333,0.38387,-0.43814,-0.31194,0.11634,-0.076023,0.49297,0.21727,0.50495,0.16065,-0.34994,-0.51483,0.023411,-0.45492,0.16193,0.23235,-0.11661,0.13192,0.055446,-0.22589,-0.14431,-0.093303,0.29176,0.29883,0.20963,-0.014236,0.13655,0.04156,0.031169,-0.2116,0.18345,0.17543,-0.0018334,0.092836,-0.57826,0.054171,-0.34799,0.06531,0.0019528,0.064067,0.52416,-0.24453,0.3557,-0.079852,-0.34501,-0.5674,-0.11716,0.077678,-0.056148,0.23578,-0.0096342,0.074781,0.61102,0.38568,-0.55582,0.71816,-0.1669,0.021227,0.28576,-0.33251,-0.32643,0.26899,-0.35748,0.29926,0.2764,0.09524,0.052179,0.74374,-0.1709,-0.5552,-0.30589,0.33126,0.083594,-0.42242,-0.39864,-0.097775,0.32785,-0.19068,-0.48401,0.18001,0.062339,0.28866,0.36246,-0.2062,0.1483,0.25691,-0.64992,0.2264,0.288,-0.46853,-0.27364,-0.12707,0.17585,-0.33109,0.22415,0.51815,-0.18134,-0.61657,0.12784,-0.074831,-0.79627,0.3063,0.3488,0.21086,0.11927,-0.13241,-0.21192,0.21986,-0.22956,0.33478,0.085395,-0.023707,0.19537,0.06892,-0.24611,-0.47966,-0.4369,0.59446,0.17236,-0.076019,-0.092674,0.43885,0.40303,-0.31641,-0.77829,0.12626,-0.25054,0.085917,-0.31196,0.22345,-0.29966,-0.10278,-0.60024,-0.41524,-0.1986,-0.56787,0.086711,-0.41993,0.6847,-0.016721,0.11436,-0.57827,0.40599,0.4076,0.55009,-0.04422,-0.25583,0.08684,0.41569,0.035239,-0.14689,-0.16895,0.34489,0.28877,0.18677,0.35066,-0.34654,-0.1495,-0.081873,0.16107,0.31872,-0.53119,0.085892,-0.38816,-0.012344,0.35265,0.28953,0.69272,-0.27079,-0.67554,0.11011,1.0344,0.45605,-0.78812,-0.34722,-0.24557,0.067844,0.20704,-0.26734,0.50754,0.018658,0.11247,0.12911,0.16471,-0.23381,0.33871,0.21885,0.18496,-0.20405,-0.38653,-0.78602,-0.27513,-0.15418,0.062115,-0.058809,0.19189,-0.083444,-0.16685,-0.84055,-0.11209,0.32622,0.091456,0.15191,-0.51697,-0.34078,-0.089538,0.78732,-0.079836,0.033551,0.060791,-0.15522,-0.19459,0.10016,0.12643,0.56687,0.14548,0.37726,0.3807,-0.153,-0.0036523,0.40147,-0.27215,0.58422,0.19811,0.30916,0.45027,-0.23387,0.12484,0.55145,0.62381,-0.33745,0.035603,0.10869,-0.35499,0.043767,-0.45008,0.1621,-0.0073731,-0.29632,-0.70236,0.83334,0.12345,-0.27932,0.04854,-0.26469,0.56611,0.06581,-0.095036,-0.045042,-0.061844,-0.81758,-0.17309,0.73807,-0.90646,-0.5207,-0.54377,-0.041968,0.20869,-0.090354,-0.58916,-0.17541,-0.30665,0.084458,0.46445,0.69238,-0.21566,-0.27796,0.050744,0.16542,-0.20122,0.13656
snail,-0.31183,0.97705,0.5139,-0.22006,0.35631,-0.018721,-0.52954,-0.61673,0.2998,0.23211,-0.079177,0.056821,-0.65313,-0.020741,0.3943,-0.10803,-0.15003,0.19862,-0.36514,0.4084,0.206,0.053357,-0.072006,0.97739,-0.18709,0.13857,0.19278,-0.263,0.39176,0.30579,-0.12675,0.10855,-0.48551,-0.3978,0.31261,0.2473,0.40909,-0.51627,-0.71351,0.54633,0.017508,1.1507,0.65549,0.39211,0.39213,-0.47753,0.63302,1.182,0.23607,-0.078967,0.11753,0.030293,-0.23881,-0.25858,0.3538,-0.094278,-0.44323,0.35168,0.26949,-0.58854,0.49755,-0.032446,0.69011,0.26202,-0.13175,0.5111,0.38555,0.6063,0.81064,-0.42898,0.33291,0.2485,0.92056,0.44002,-0.36705,0.99505,0.36037,-0.33975,0.070942,0.51661,0.4818,0.14012,-0.33451,-0.45583,-0.41468,0.59815,0.57954,-0.76388,-0.56407,-0.41641,0.16262,0.19313,0.12208,-0.50665,0.99984,-0.32218,0.3697,0.81576,-0.29174,-0.10034,0.18637,0.98935,0.19539,0.091091,-0.69387,-0.51126,0.39795,-0.25296,0.43248,0.17366,0.15299,0.72395,-0.46999,0.12812,0.38814,-0.24137,-0.63576,0.57464,0.11154,-0.06024,-0.40096,-1.2026,0.080855,-0.34753,0.062756,-0.10675,0.41005,0.26231,0.31535,-0.47847,0.64386,-0.81058,0.3188,0.84403,0.18908,0.16047,0.49168,-0.49367,0.21518,0.9479,0.29814,0.33598,-0.25849,-0.468,-0.47565,-0.40133,-0.31991,0.071492,-0.47783,0.38606,-0.44367,-0.76577,-0.48143,0.020356,-0.32619,0.66866,0.41478,-0.6631,-0.66958,-0.18469,-0.67489,-0.63633,0.44519,0.33884,0.5322,-0.33987,-0.17446,0.0044252,-0.26484,0.040172,-0.75646,0.23262,-0.068015,0.22092,-0.58557,0.26,0.22024,-0.10254,0.66827,-0.046887,-0.29875,-0.021337,-0.33406,-0.067129,0.62227,-0.9822,0.42247,0.32944,-0.53548,-0.6818,0.95657,0.10241,0.0096383,-0.62644,0.019715,1.1315,0.24227,-0.7167,0.078337,-1.0725,-0.11763,-0.31991,-0.32839,0.17309,0.67672,0.26856,0.25991,-0.48024,0.55724,0.76153,-0.58847,-0.64704,0.64288,-0.74337,-0.42366,-0.17955,0.26701,0.014976,0.32093,0.35276,0.35457,0.0021774,0.14545,-0.078363,-0.28221,-0.085977,-0.82364,-0.16159,0.83897,-0.31121,-0.070609,0.34045,-0.16372,4.58E-05,0.41288,0.22709,-0.57901,-0.21833,-0.29283,0.041452,-0.22145,0.44593,-0.87851,0.26684,-0.80295,-0.24884,0.3366,0.21358,0.45903,-0.37571,0.1296,0.766,0.22911,0.18236,0.24336,0.12446,0.65488,0.021562,0.16779,0.17389,-0.36022,-0.17011,0.092622,0.0080528,-0.20371,0.17772,0.55021,-0.77773,0.15318,0.12015,-0.63724,-0.43475,-0.048078,0.62952,0.15709,-0.17353,-0.50488,0.25437,-0.4364,0.076111,-0.21354,0.60881,0.015758,0.26075,-0.15969,-0.92802,0.19958,-0.39657,0.37025,-0.1347,0.14013,0.1113,0.51763,0.099339,-0.35042,-0.1777,-0.034311,0.1128,-0.0888,-0.74421
turtle,0.11941,0.52542,-0.11724,-0.065088,0.072434,-0.23828,-0.05159,0.026861,-0.045126,0.50255,-0.20269,-0.21225,0.11443,0.23564,0.019063,0.17164,-0.24991,0.27251,-0.90928,0.37219,0.22105,-0.34156,-0.27638,-0.091511,-0.16578,-0.34946,0.1421,-0.43952,0.073177,0.44612,0.25199,0.11685,-0.78027,-0.37816,0.55447,0.73821,0.023018,0.18811,-0.31655,0.047829,-0.72441,0.28291,0.19863,-0.39659,-0.76911,0.172,0.93201,0.10429,-0.13932,0.31904,-0.069695,-0.70027,-0.025112,0.22148,-0.46247,-0.052344,-0.2912,0.80627,-0.18244,0.25517,-0.47906,0.11733,0.6984,0.19442,0.33625,-0.16804,-0.067665,0.31206,0.3956,-0.22874,0.11184,0.49402,0.028722,0.19222,-0.52498,0.17592,0.022005,0.041209,0.20527,-0.099879,-0.2702,-0.035279,-0.0928,-0.027294,0.21688,-0.001184,-0.24921,0.31718,-0.089932,-0.58549,-0.30208,-0.077409,0.14974,-0.14118,0.098487,-0.025512,0.2572,0.31862,-0.60552,-0.34628,0.00089655,0.29028,0.50332,0.095666,-0.014288,-0.2634,-0.47105,-0.3056,0.15063,0.39627,-0.34091,-0.042039,-0.66168,0.20049,0.26511,-0.39312,0.085094,0.047789,-0.18243,0.37355,-0.34237,-0.14022,-0.10023,0.40085,-0.13546,0.28064,0.1642,0.089753,0.13285,-0.14786,-0.3001,-0.087125,0.09244,0.27908,-0.35144,-0.12842,0.81129,-0.073159,-0.32433,0.44834,0.64075,0.18571,0.074339,-0.99759,-0.25851,0.22056,0.087558,0.35025,-0.37108,-0.027706,-0.52703,0.62358,-0.82808,-0.3428,-0.5913,-0.072335,-0.006395,-0.31304,-0.35867,-0.026662,-0.48086,0.13173,0.42083,0.22273,0.10061,-0.032207,0.1977,0.097549,-0.96867,-0.32398,-0.1141,-0.17869,0.056558,1.0864,0.14182,-0.37034,0.43889,0.2101,0.21472,-0.55866,-0.42556,0.14305,0.51644,-0.19873,-0.11813,-0.75409,0.29005,0.16626,0.35049,-0.12708,0.68077,0.4402,-0.5231,-0.32524,0.31681,1.115,0.49565,-0.65254,-0.12646,-0.17633,1.1309,-0.05803,-0.17122,0.044609,0.41077,0.30939,0.039474,-0.43147,0.13484,0.3991,0.10925,-0.03343,0.11027,-0.93869,0.41728,-0.3129,-0.15725,-0.060397,-0.093089,0.093026,0.21118,-0.014271,0.1948,0.055948,-0.073456,0.08162,-0.052364,-0.77867,0.026947,-0.33427,0.26123,-0.58592,-0.093237,0.19124,0.3295,0.21025,-0.12422,-0.21883,-0.44254,-0.061822,-0.34456,0.043043,-0.14812,0.28413,-0.88725,0.84052,0.0099106,-0.30133,-0.096632,-0.22635,-0.34345,0.68354,0.039331,0.32355,-0.018127,-0.55888,0.6033,0.21288,-0.046948,0.42514,-0.44858,-0.59098,-0.63271,-0.38528,-0.24077,0.33845,0.18956,-0.29416,-0.55707,-0.0088731,-0.70789,-0.42743,0.58618,0.24578,0.51487,-0.54083,-0.69935,0.65563,-0.31169,-0.11653,-0.23151,-0.056999,0.10141,-0.14431,-1.1668,-0.54162,-0.083703,-0.1438,0.74315,-0.25438,-0.2144,-0.067226,0.48693,0.24307,-0.58826,-0.18919,0.2711,0.59876,0.15816,-0.58334
spoon,-0.11211,-0.12165,0.60941,-0.21037,-0.11149,-0.088739,-0.30775,-0.1657,0.394,0.16719,-0.37705,0.16179,0.23884,0.092656,-0.12614,-0.10115,-0.24314,0.73525,0.40249,-0.2357,0.11088,-0.039918,-0.42696,0.28504,-0.14725,-0.39288,-0.053204,0.27672,-0.26799,-0.89006,-0.54236,0.34105,-0.0039911,-0.17191,-0.18165,1.0359,-0.37149,0.31434,-0.42389,0.46915,-0.040357,-0.15747,-0.22434,-0.030452,0.32632,0.3848,0.35036,0.27712,0.29213,1.238,0.22653,0.43546,0.4174,-0.60823,-0.38472,0.18613,-0.26671,-0.1918,0.27583,0.38198,0.60716,-0.07714,-0.32974,0.16596,0.21104,-0.18573,-0.075216,0.25524,-0.11175,0.010876,0.48279,-0.070422,-0.1544,0.19565,-0.51205,0.1174,0.29971,0.16963,-0.33775,-1.1891,0.032324,0.46618,-0.32509,-0.51412,-0.0080775,-0.71075,-0.41428,0.019536,-0.51136,-0.56778,0.04366,0.12126,-0.075534,-0.27275,-0.85172,-0.27559,0.62145,0.83885,-0.04578,0.60114,0.53363,-0.44786,-0.51471,-0.64808,0.2558,-0.14942,-0.49069,-0.34185,-0.019681,0.24536,0.26899,0.77397,-0.51635,-0.54432,-0.80062,0.55185,-0.9017,0.26903,-0.022358,-0.52387,-0.64113,-0.049729,0.1372,-0.13008,-0.038316,-0.38674,-0.39164,-0.020401,-0.010763,0.76403,-0.26757,0.77876,0.38994,0.68398,-0.28303,-0.44378,0.63752,0.028014,-0.78393,0.028951,0.3236,0.76331,-0.22058,-0.1032,0.2016,0.69061,0.018369,-0.090093,0.92053,-0.58718,-0.57812,0.37097,-0.065514,-0.011497,-0.11221,-0.38813,-0.067382,-0.89121,-0.16769,0.24461,0.29971,-0.30467,0.58706,-0.61368,0.055909,-0.17192,0.072783,-0.085119,0.37892,-0.8825,0.18586,-0.0068085,-0.004093,-0.63766,-0.0085567,-0.3563,-0.37461,-0.25797,0.5908,-0.62526,0.036347,-0.039782,0.78886,0.051804,-0.11486,-0.49588,0.67692,0.13092,-0.0012099,0.31017,0.19425,1.0067,0.12246,0.60106,0.29075,-0.14442,-0.12763,0.281,-0.15417,0.12203,0.44202,-0.26008,0.52754,0.0188,-0.24006,0.43013,0.082761,-0.42825,-0.086775,-0.033749,0.925,-0.44071,0.21555,0.29536,0.21216,0.0075922,-0.051519,-0.56046,-0.57302,0.1633,-0.09863,-0.10321,-0.035906,-0.32473,-0.58902,-0.50707,0.0082233,0.012722,0.52976,0.34239,-0.13804,-0.21851,-0.58831,-0.22347,0.25461,0.26175,-0.37498,0.51175,-0.53652,-0.13208,-0.0053772,-0.082347,-0.20496,-0.26752,-0.60809,0.08923,0.5444,0.292,-0.14963,-0.31649,0.31678,-0.2579,0.59004,0.10763,0.028343,0.44347,0.17793,-0.043143,0.1565,0.49584,0.04392,-0.35192,-0.34805,0.66664,0.33338,0.40299,-0.10462,-0.1099,-0.052341,0.38289,-0.21412,-0.025591,0.054262,0.83346,0.34631,-0.48003,-0.47921,-0.11553,-0.97768,-0.22141,0.06649,0.1385,-0.64147,-0.099312,-0.0029905,0.23896,0.35676,-0.21686,0.14154,0.6272,0.24217,-0.25892,0.44652,0.05251,0.40289,-0.71623,-0.40815,0.032184,-0.27514,0.21965
penguin,-0.062231,-0.50313,0.30067,0.11751,-0.81271,0.14663,-0.30428,0.42045,0.40085,0.062044,-0.089327,-0.17178,0.42426,0.37412,-0.021119,0.65971,-0.1909,0.40311,-0.2239,0.20541,0.39029,0.61585,-0.21703,0.157,0.18316,0.30267,0.089531,0.35839,-0.058225,0.79087,-0.050135,-0.20174,-0.69937,0.30824,-0.17516,0.40159,-0.21962,0.46138,-0.33637,0.48725,0.1378,0.67689,-0.62376,0.38734,-1.1689,-0.051752,0.72564,0.021034,-0.27226,-0.16506,0.58507,-0.34027,-0.2903,0.081218,0.79193,0.55068,-0.2547,-0.031099,0.086881,0.11574,-0.52099,0.1159,0.45786,-0.75833,0.4988,0.50872,0.11816,0.10286,-0.95444,0.021004,0.5369,0.57057,-0.010148,0.21375,-0.46522,-0.13562,0.13869,-0.84486,0.4378,-0.013251,0.29337,0.26864,-0.5332,-0.13833,0.086487,-0.053499,0.52259,0.58014,-0.23642,-1.2639,-0.57245,-0.13198,-0.37522,0.55926,0.13125,0.48822,0.16358,0.46781,-0.91227,-0.07076,0.37108,-0.50287,0.43282,-0.27233,0.77188,-0.4847,0.59901,0.43221,0.7005,0.34154,-0.018791,0.28625,-0.24157,-0.39577,0.25569,-0.32678,-0.27261,-0.23278,-0.24247,-0.38265,-0.32071,0.60073,0.060453,-0.30773,-0.040456,0.52592,-0.63908,0.36094,0.21414,-0.23872,0.054695,-0.36051,-0.087975,-0.20379,0.64302,-0.076652,0.50086,-0.25227,-0.97011,0.055551,-0.35392,-0.035634,0.013631,0.40992,0.43159,0.101,0.22253,0.24227,0.42465,-0.024288,-0.5292,-0.11029,-0.070467,-0.13632,-0.27212,-0.63254,-0.41076,-0.44416,-0.12076,-0.20295,0.020343,0.43708,0.26241,0.072829,-0.48483,0.45048,0.24573,0.65447,-0.30137,0.076008,-0.13252,0.018856,-0.60345,0.57588,-0.18436,-0.41747,0.51669,0.68263,0.26565,0.26107,0.23913,-0.85822,-0.44232,-0.25353,-0.078979,-0.052184,0.13148,0.35781,-0.083898,-0.26024,-0.32959,0.18321,-0.015435,-0.81421,-0.30896,0.46798,0.21267,-0.2685,-0.069022,-0.13317,1.0326,-0.057646,-0.61609,-0.22088,0.45359,-0.057011,0.21838,-0.31615,-0.10111,-0.25366,0.17307,-0.13049,0.44227,0.11072,0.2054,0.36787,-0.28427,-0.33701,-0.16495,-0.18231,0.11919,0.77615,-0.90227,-0.037825,-0.24459,-0.17781,0.48501,-0.11633,-0.44823,-0.39271,-0.55759,0.017129,-0.86504,0.093821,-0.24273,-0.070525,-0.27862,0.29424,0.0051697,-0.17854,-0.65765,-0.038191,-0.24683,0.54187,-0.78968,0.72348,-0.40716,-0.088114,-0.076365,0.069143,-0.17843,-0.004035,-0.54175,-0.26213,0.49877,0.34907,0.31349,0.047787,0.7696,-0.36354,0.040473,0.45219,-0.2942,0.14667,-0.53192,0.25308,0.22559,0.21423,-0.15503,0.71144,0.37584,-0.33028,0.55435,-0.66573,-0.09682,0.38594,0.35068,0.33018,-0.20515,-0.095607,-0.08349,0.64663,-0.11279,-0.21402,-0.82468,0.33162,-0.78595,0.26027,0.046159,-0.55802,-0.37419,0.1224,-0.14009,0.2926,-0.11479,-0.22606,0.17991,0.8538,0.16728,-0.54605
mushroom,-0.030174,0.51013,0.39427,-0.17388,0.15557,0.069587,-0.042551,0.79149,-0.018333,0.64014,0.20961,0.035521,-0.3332,-0.034773,-0.19894,0.43438,-0.36074,-0.21872,-0.1475,0.87722,-0.036517,0.031308,-0.92905,0.56092,0.1997,-0.30317,-0.040804,-0.33004,-0.60695,-0.12806,-0.2084,0.036133,-0.86563,-0.38324,0.48183,0.31827,0.086726,-0.34127,-0.46888,0.47185,0.046146,0.33892,0.42211,0.1854,-0.37659,-0.44095,0.32343,0.20376,0.030931,-0.30971,0.49689,-0.13089,-0.04098,0.23809,-0.020632,-0.53515,-0.16861,-0.11791,0.38927,-0.13473,0.80983,-0.40703,0.88789,-0.29288,0.1097,0.19456,-0.23122,0.29657,-0.037042,0.083621,0.10094,0.28019,-0.5792,-0.12551,-0.69965,0.17249,0.3007,-0.0078534,0.3739,0.47922,-0.10712,0.56937,0.10898,0.24474,0.83288,0.018784,0.3177,0.19161,0.10064,-0.53256,-0.0051352,-0.25259,-0.15144,-0.19979,-0.20678,0.82084,0.40103,0.93021,0.21318,0.28569,-0.18461,0.23584,-0.51241,-0.049959,-0.44486,-0.062083,0.050301,-0.02753,0.20359,0.68685,0.76554,0.42029,-0.3188,-0.79597,0.52101,-0.37998,-0.47514,0.532,0.47822,-0.48362,-0.60426,0.23838,0.33993,0.37589,0.13144,0.19581,-0.2415,0.78201,-0.28177,-0.080933,0.23667,0.55021,0.37411,0.14448,0.18085,-0.41882,-0.4052,-0.14726,-0.0065221,-0.17631,0.19261,-0.088708,-0.058227,-0.40968,0.14035,0.44027,0.45416,-0.56993,0.36179,-0.066529,-0.60337,0.45607,-0.52296,0.073261,-0.70049,-0.0035293,-0.11645,-0.96987,-0.14868,-0.35141,-0.26407,-0.35325,0.081285,-0.27109,0.17563,-0.20272,0.32269,0.13209,-0.42409,-0.64889,0.4617,-0.20775,0.37211,-0.51236,-0.17745,-0.19498,0.091906,0.19768,0.72053,-0.38839,0.0065597,0.028698,0.2441,-0.73093,0.021668,-0.40392,0.37301,-0.058617,-0.25958,-0.27855,-0.17622,0.55281,-0.35593,-0.14515,0.10776,-0.10417,0.23978,0.82653,-0.70921,0.33373,0.17924,0.10845,0.37506,0.4019,-0.43785,0.78986,0.038742,-0.15342,-0.44786,0.089022,-0.0036703,-0.37937,0.51017,-0.54599,-0.052032,0.18624,0.40096,-0.49238,0.27903,0.68407,-0.15634,0.029284,-0.62122,-0.34752,-0.56537,-0.11643,-0.37671,-0.19914,-0.075843,0.38291,0.21153,0.28107,-0.027578,-0.37519,0.65413,-0.10723,0.55882,-0.11619,-0.40507,-0.17684,-0.026981,-0.286,-0.03311,-0.58868,-0.39604,0.27133,0.48265,-0.10589,0.11316,-0.59333,0.61774,0.17475,-0.093534,0.35514,0.16692,0.24256,-0.46974,0.31869,-0.087326,0.16398,0.26258,0.35676,0.72564,0.57645,-0.36636,0.042504,-0.35343,-0.099475,-0.28433,0.10682,-0.22151,0.61123,-0.040467,0.25009,-0.15451,0.068532,-1.0334,0.077526,-0.34246,-0.523,-0.57826,0.0027929,-0.24009,0.27488,-0.28269,0.030471,-0.19034,0.30349,0.20083,0.29325,0.33667,-0.16254,0.56004,-0.098576,-0.0090032,-0.58942,0.30094,-0.000121,0.21198,-0.35759
pencil,-0.29809,0.54339,0.043339,-0.43219,-0.22126,0.28888,-0.43,-0.77638,0.28666,-0.3238,0.28897,0.41652,-0.068903,0.52987,0.27446,0.80026,-0.21203,0.12717,-0.40971,-0.37881,0.010878,-0.17098,-0.017703,0.15472,0.010162,-0.42637,0.60276,-0.48121,0.50107,0.16367,0.23559,0.099243,-0.44981,0.49213,0.022928,0.040414,-0.47254,0.26248,0.2549,0.41253,-0.075614,0.27903,-0.073634,-0.26577,-0.32902,-0.32856,0.25948,0.012919,-0.043026,0.082383,0.30133,0.26454,0.2684,0.30587,0.0043952,0.20721,-0.4255,-0.3189,0.45025,0.47595,0.33128,0.49394,0.14671,0.15663,0.74691,-0.11284,-0.40257,-0.30663,0.073878,-0.031633,0.53128,-0.09383,0.22717,-0.032964,0.21694,-0.024145,-0.64697,0.63597,0.44333,-0.98027,-0.43739,0.31335,-0.30491,-0.26663,0.19527,0.12992,0.30313,0.058074,-0.33701,0.36276,-0.35348,0.12817,0.15408,-0.74485,0.53513,-0.050759,-0.32621,-0.016173,0.060031,-0.24437,0.012246,0.23498,-0.16667,0.031857,-0.58767,-0.23962,-0.05247,-0.023333,-0.53718,-0.083915,0.13578,-0.039179,-0.10017,-0.56468,-0.3513,0.077502,-0.58311,0.83779,0.034592,-0.36691,-0.57829,-0.091215,0.062812,-0.28899,0.021405,0.38532,-0.54786,-0.34531,0.10419,0.30632,0.48979,-0.1701,0.10437,0.52447,-0.00039229,0.15915,-0.19539,0.19514,0.76598,-0.050285,1.1828,0.13377,-0.1579,-0.6795,0.61768,0.49147,-0.056283,0.11486,0.31995,0.013401,-0.33605,0.64537,-0.024803,-0.52709,-0.29621,-0.16313,0.35253,-0.49615,0.53355,0.39795,-0.68804,0.34998,0.21581,-0.27498,0.045417,-0.13044,0.22499,0.2931,-0.38275,-0.20066,-0.16309,-0.31641,-0.36287,-0.099136,0.0081156,-0.64333,0.21646,0.35785,0.21539,-0.30247,0.58602,-0.015369,0.35485,0.19451,-0.61201,-0.34474,0.95318,0.20663,0.12422,0.421,0.41487,0.58581,0.14865,0.30021,0.50123,0.15827,-0.64349,-0.2758,-0.34482,-0.73886,0.58844,0.64231,0.31154,-0.10901,0.41675,-0.074912,-0.32505,0.22544,-0.58752,-0.10248,0.28228,-0.13174,0.51348,0.42346,0.30277,0.050824,0.33818,-0.10514,-0.058337,-0.084518,-0.71685,0.51707,-0.58965,0.39536,-0.21505,-0.35396,-0.098146,-0.18135,-0.38768,-0.7782,-0.3383,-0.26287,-0.64763,-0.12723,0.21299,0.041805,-0.35776,-0.043995,-0.074796,0.019419,0.39397,-0.34718,-0.59175,0.47706,-0.41013,-0.27645,-0.11906,0.41629,0.57399,0.14085,0.0056065,-0.35728,0.35397,-0.43995,0.19698,-0.079629,-0.067259,0.47847,-0.19569,-0.23275,0.42956,0.25777,-0.16389,-0.40472,0.39175,-0.0052705,-0.32833,0.36765,-0.26913,0.65417,-0.052642,0.23702,0.17348,-0.22356,0.07365,0.42129,-0.32031,-0.41642,-0.81118,0.34132,0.42638,0.74287,-0.4619,-0.11834,0.37722,0.023346,0.2543,0.13778,-1.0969,-0.069399,0.26967,0.05687,0.20532,0.10038,-0.12994,0.16347,0.64658,0.0064815,0.71531,0.3848
owl,0.034697,0.53228,-0.56514,0.76953,0.31088,0.057985,-0.23936,1.3217,-0.19632,0.09332,-0.46858,-0.33121,-0.22322,0.37178,-0.058144,0.16903,-0.17622,-0.29447,-0.41266,0.27308,0.49987,0.52849,0.34145,0.51731,-0.50776,-0.39876,-0.19474,-0.7706,-0.082245,0.53525,0.56743,-0.26077,-0.60569,0.14529,0.1928,0.46378,-0.28518,-0.25544,-0.66209,0.10897,-0.14229,0.35718,-0.46539,-0.28821,-0.60441,-0.15228,0.30692,0.34483,-0.078764,-0.096226,0.28039,-0.43967,0.21736,0.049032,-0.3064,-0.012911,-0.66375,-0.26647,0.21705,-0.13749,-0.3955,-0.34254,0.28782,0.034466,-0.20533,0.52761,-0.33832,0.50386,0.93242,-0.67568,0.29047,0.69741,-0.40519,-0.14996,-0.20353,0.70194,-0.015863,0.27927,0.36419,-0.23429,-0.50963,-0.0092852,-0.095013,-0.083504,-0.12288,-0.19444,0.42217,0.21916,-0.18454,-0.19845,-0.44946,-0.072562,-0.41164,0.63463,0.10979,-0.059724,0.38129,-0.017746,-0.35676,-0.34166,0.41979,0.14232,-0.35735,0.19978,0.041983,-0.42328,-0.049358,0.26214,0.49316,0.41228,-0.50801,0.22874,-0.45777,0.24631,0.76393,-0.52747,0.19738,0.18877,0.23811,0.049197,-0.061795,0.044017,-0.070537,0.26402,-0.16561,-0.37912,0.08208,-0.30122,0.66172,-0.21114,-0.68875,0.056254,0.3678,0.43271,0.81156,0.3512,-0.23492,0.20384,-0.39734,0.42486,-0.17468,0.42006,-0.73963,-0.75981,0.15502,-0.45404,0.64885,0.028502,-0.22273,-0.44276,-0.73577,0.73135,0.11658,0.078435,-0.03908,0.092428,1.0957,-0.67239,-0.64471,-0.019636,-0.084257,0.20457,0.67337,0.55791,-0.44974,0.043735,-0.23851,0.76604,0.034932,-0.44631,-0.32186,-0.49021,0.6452,1.1263,0.15261,-0.44732,-0.044406,-0.10009,0.38322,-0.31344,0.19912,-0.023982,0.38865,-0.6003,0.29884,-0.76549,0.38317,-0.23635,0.29268,-0.30218,-0.12638,0.16315,-0.49267,-0.62557,-0.4337,0.12827,0.17399,-0.8142,0.40778,-0.14062,0.57608,0.17722,-0.37287,-0.51708,0.094058,0.72224,-0.58105,-0.57768,0.58463,0.092605,0.50818,-0.42719,-0.09685,0.1197,0.56957,0.042683,-0.44812,0.21651,0.68673,-0.064313,-0.18561,-0.11664,0.041095,0.044127,0.060725,0.19123,0.10672,-0.44689,-0.31689,0.16989,-0.50798,0.12122,-0.52783,-0.2514,0.3576,0.44687,-0.1522,0.057697,-0.037238,-0.22377,-0.2137,0.21446,-1.043,0.072149,-0.61236,0.36973,-0.61549,-0.62595,-0.29523,0.0052951,-0.12044,0.12406,-0.35122,-0.20646,-0.012904,0.37285,-0.19177,0.65839,0.18907,-0.12049,0.25523,0.81122,0.01518,-0.077844,-0.59604,0.54346,0.68253,-0.015816,-0.32131,0.080027,-0.19503,-0.041842,0.78086,-0.3207,0.20357,-0.34863,-0.16497,0.50681,0.11311,-0.056835,-0.66468,0.39203,-0.24776,0.24012,-0.33039,0.11201,-0.34938,0.28748,0.64284,-0.80192,-0.43772,0.21178,0.099783,0.095111,0.037018,-0.65572,0.2547,0.29578,-0.13379,0.067595
lettuce,-0.2322,0.10532,0.21467,0.11123,-0.13411,-0.56611,-0.63709,-0.063458,0.093927,0.15359,-0.53169,0.46113,-0.58333,0.84875,-0.70776,-0.023751,-0.18294,0.1926,-0.29225,0.79822,-0.89761,0.31824,-0.20617,0.31256,-0.18329,-0.34518,-0.6686,0.3618,0.11377,-0.53091,-0.64768,0.010225,-0.15562,-0.20563,0.35739,0.2565,0.33264,0.11885,-0.67165,-0.21616,0.42674,-0.93618,0.0081829,0.0097044,-0.027547,-0.13146,0.20389,0.39893,-0.75758,-0.28261,-0.57586,-0.17679,-0.3221,-0.18658,-0.37094,-0.6884,-0.3781,0.38442,-0.32564,-0.11033,0.5623,-0.21782,-0.30339,0.35891,-0.068509,0.056842,-0.70464,0.29127,-0.79662,-0.25614,-0.37769,0.21054,0.2622,0.17677,-0.96176,0.011099,0.7864,0.41036,-0.47199,0.15875,-0.58871,-0.26138,-0.63378,0.69992,0.24176,-0.071967,-0.72746,0.010382,-0.61798,-0.57522,0.27521,0.23098,0.42495,-0.17941,-0.91671,0.16667,0.20638,0.23138,-0.069409,0.25444,0.3631,-0.31609,0.1456,-0.62313,-1.3204,0.078024,-0.25723,0.10945,-0.45711,0.52532,0.88235,0.5042,-0.041581,-0.52819,-0.099948,0.12917,-0.068163,0.22088,0.79447,0.15573,-0.51566,-0.75108,0.69894,0.52681,-0.04581,0.16679,-0.17956,0.22418,-0.21505,0.64968,0.56979,0.9331,0.36241,0.74777,0.29852,0.0078261,-0.73975,0.43163,-0.116,0.47128,0.16036,0.50707,0.31512,0.14534,-0.35823,1.0349,0.2655,-0.023768,0.77768,-0.59442,-1.1333,-0.10214,0.635,0.36154,-0.25115,-0.10708,0.3515,-0.66422,-0.080562,0.068831,0.056687,0.20075,-0.28805,-0.058308,0.86722,-0.16402,-0.094327,-0.03273,0.26367,-0.68868,-0.41309,-0.15603,-0.21564,-0.29725,0.30559,-0.28514,0.049426,0.37904,0.39612,-0.51153,0.2663,0.016224,0.28178,-0.50188,0.49081,0.18747,0.59292,0.34965,0.55632,-0.44679,-0.2976,0.76963,-0.10245,0.36737,0.27818,0.49071,0.064696,-0.50495,-0.10136,0.52101,-0.55458,-0.19945,0.81788,0.12195,-0.017831,0.13379,0.46985,0.15702,0.41087,-0.28626,0.31542,-0.27634,0.20684,-0.16544,-0.048694,-0.12735,0.70445,-0.35296,-0.33133,-0.28688,0.4181,-0.011157,-0.81001,-0.048239,-0.34285,-0.35664,-0.048801,-0.56466,-0.045322,0.15368,0.57898,0.087614,-0.15673,-0.12475,0.81981,0.32707,-0.10331,-0.1264,-0.61531,-0.59765,-0.25972,-0.44934,-0.37905,0.0034963,-0.65319,-0.52882,-0.18738,-0.080256,-0.58732,-0.53191,0.50989,0.88859,-0.044959,-0.050698,0.30782,0.29297,0.059633,0.27707,0.15154,-0.19448,0.22296,-0.65601,0.43411,-0.05217,-0.26859,-0.55848,0.30126,0.34719,-0.15097,0.19904,-0.22834,-0.20558,-1.0251,0.65084,0.2111,0.43275,-0.1267,-0.36771,-0.44803,-0.15228,0.36129,0.22435,0.060659,0.63296,0.12261,0.35055,0.87142,-0.069431,-0.18423,0.037615,0.26823,-0.11784,0.60206,-0.26262,-0.49721,-0.93925,0.43885,-0.66523,0.72825,0.060788
peacock,0.3148,-0.085927,0.28643,-0.30853,0.089735,0.04981,-0.040115,-0.20097,-0.0144,0.29368,0.064225,-0.024201,-0.19566,0.2671,0.012084,0.34929,0.38906,0.021636,-0.052764,-0.20403,0.29572,0.54039,0.3165,0.27458,0.12146,0.09502,0.042303,-0.63595,0.39897,0.17873,0.26945,-0.37035,-0.15691,-0.2548,-0.35706,-0.012622,0.2076,-0.056538,-0.43008,-0.030081,0.066784,0.18517,0.29758,0.27141,0.22187,-0.61426,0.39806,-0.21621,0.18613,-0.72146,0.27503,-0.060872,0.56405,-0.53304,-0.10604,-0.0037657,0.20564,0.53677,-0.4746,-0.26131,-0.27657,-0.76234,0.23241,-0.15717,0.46663,-0.39585,0.16916,0.19907,0.10863,0.090348,0.0076281,0.51089,-0.10108,-0.056723,-0.31629,0.60078,-0.2849,0.14895,-0.11938,0.13834,-0.11378,0.40544,0.15278,-0.5425,0.15359,0.052591,0.055952,0.26887,0.04967,-0.40592,0.4921,-0.034641,0.13506,0.30681,-0.24503,0.295,0.73948,0.11177,0.13231,0.11192,0.10692,-0.08731,-0.024876,0.27489,0.0012146,-0.084091,0.58852,-0.29637,-0.19156,0.33405,0.12564,0.26484,-0.075253,0.94274,-0.0027818,-0.28167,-0.7696,0.42978,-0.58825,-1.0173,-0.45554,0.15652,0.41621,0.20163,0.096846,-0.53938,-0.34573,0.020468,-0.50349,-0.10842,-0.28946,0.1156,0.1239,-0.35864,0.141,0.2855,0.25068,-0.29733,-0.29968,0.064203,0.052055,0.36274,0.16121,-0.7889,0.12732,-0.31534,-0.10012,0.48509,-0.78819,-0.13948,0.3103,0.54676,0.39669,-0.043651,-0.060119,-0.074372,0.42604,-0.02712,0.13232,0.27413,0.31069,-0.082155,0.1401,0.25499,-0.37049,0.22839,-0.13685,-0.17554,0.28549,0.41572,-0.1591,-0.34413,0.16152,0.3966,0.16363,-0.14875,-0.42922,0.25898,0.18309,-0.0054588,-0.56767,0.52672,0.32524,0.21164,-0.30736,-0.13005,-0.0030029,-0.042861,0.2223,-0.76575,0.040192,0.21458,-0.18914,0.13082,0.095189,0.32333,-0.20407,-0.17493,-0.025334,-0.088631,0.56674,-0.12137,-0.30013,-0.083532,0.53582,0.16876,0.65927,-0.010643,0.2331,-0.15574,0.32764,-0.286,0.57545,-0.36114,0.78686,0.088823,0.094387,0.022927,-0.53138,-0.32506,0.024257,0.038716,0.16691,-0.3959,0.040295,-0.08278,0.46808,-0.29341,0.25717,0.31322,-0.36075,0.31816,0.21046,0.14466,-0.31992,-0.15195,-0.23233,0.03974,-0.3789,-0.407,-0.118,0.010129,-0.40466,0.60198,-0.13709,0.067916,-0.035953,-0.091278,0.38887,-0.11996,-0.45731,0.10533,0.20388,-0.36498,0.32155,0.11749,-0.088151,0.51338,0.64372,0.056521,-0.76709,-0.088407,0.23246,0.21301,-0.23927,0.11777,0.054153,-0.024153,-0.2003,0.040481,-0.11112,-0.21705,0.30214,-0.27993,-0.72879,-0.20939,0.33243,-0.21634,-0.803,-0.42462,0.14192,0.39132,-0.25537,-0.16466,0.050394,-0.17902,-0.51326,0.084495,-0.56793,-0.61152,0.20076,0.19765,0.58713,-0.009348,-0.40703,-0.38712,0.79032,0.31115,0.18452,-0.27774
